# DATE: 21-11-08 UNITS: metal CONTRIBUTOR: James Goff <jmgoff@sandia.gov> CITATION: py_PACE

nelements=1
elements: W

lmax=6

2 FS parameters:  1.000000 1.000000
core energy-cutoff parameters: 100000.000000000000000000 250.000000000000000000
E0:1.000000

radbasename=ChebExpCos
nradbase=16
nradmax=5
cutoffmax=7.500001
deltaSplineBins=0.001000
core repulsion parameters: 0.000000000000000000 1.000000000000000000
radparameter= 5.000000000000000000
cutoff= 7.500000000000000000
dcut= 0.010000000000000000
crad= 1.0 1.0 1.0 1.0 1.0 1.0 1.0
0.0 0.0 0.0 0.0 0.0 0.0 0.0
0.0 0.0 0.0 0.0 0.0 0.0 0.0
0.0 0.0 0.0 0.0 0.0 0.0 0.0
0.0 0.0 0.0 0.0 0.0 0.0 0.0
0.0 0.0 0.0 0.0 0.0 0.0 0.0
1.0 1.0 1.0 1.0 1.0 1.0 1.0
0.0 0.0 0.0 0.0 0.0 0.0 0.0
0.0 0.0 0.0 0.0 0.0 0.0 0.0
0.0 0.0 0.0 0.0 0.0 0.0 0.0
0.0 0.0 0.0 0.0 0.0 0.0 0.0
0.0 0.0 0.0 0.0 0.0 0.0 0.0
1.0 1.0 1.0 1.0 1.0 1.0 1.0
0.0 0.0 0.0 0.0 0.0 0.0 0.0
0.0 0.0 0.0 0.0 0.0 0.0 0.0
0.0 0.0 0.0 0.0 0.0 0.0 0.0
0.0 0.0 0.0 0.0 0.0 0.0 0.0
0.0 0.0 0.0 0.0 0.0 0.0 0.0
1.0 1.0 1.0 1.0 1.0 1.0 1.0
0.0 0.0 0.0 0.0 0.0 0.0 0.0
0.0 0.0 0.0 0.0 0.0 0.0 0.0
0.0 0.0 0.0 0.0 0.0 0.0 0.0
0.0 0.0 0.0 0.0 0.0 0.0 0.0
0.0 0.0 0.0 0.0 0.0 0.0 0.0
1.0 1.0 1.0 1.0 1.0 1.0 1.0
0.0 0.0 0.0 0.0 0.0 0.0 0.0
0.0 0.0 0.0 0.0 0.0 0.0 0.0
0.0 0.0 0.0 0.0 0.0 0.0 0.0
0.0 0.0 0.0 0.0 0.0 0.0 0.0
0.0 0.0 0.0 0.0 0.0 0.0 0.0
0.0 0.0 0.0 0.0 0.0 0.0 0.0
0.0 0.0 0.0 0.0 0.0 0.0 0.0
0.0 0.0 0.0 0.0 0.0 0.0 0.0
0.0 0.0 0.0 0.0 0.0 0.0 0.0
0.0 0.0 0.0 0.0 0.0 0.0 0.0
0.0 0.0 0.0 0.0 0.0 0.0 0.0
0.0 0.0 0.0 0.0 0.0 0.0 0.0
0.0 0.0 0.0 0.0 0.0 0.0 0.0
0.0 0.0 0.0 0.0 0.0 0.0 0.0
0.0 0.0 0.0 0.0 0.0 0.0 0.0
0.0 0.0 0.0 0.0 0.0 0.0 0.0
0.0 0.0 0.0 0.0 0.0 0.0 0.0
0.0 0.0 0.0 0.0 0.0 0.0 0.0
0.0 0.0 0.0 0.0 0.0 0.0 0.0
0.0 0.0 0.0 0.0 0.0 0.0 0.0
0.0 0.0 0.0 0.0 0.0 0.0 0.0
0.0 0.0 0.0 0.0 0.0 0.0 0.0
0.0 0.0 0.0 0.0 0.0 0.0 0.0
0.0 0.0 0.0 0.0 0.0 0.0 0.0
0.0 0.0 0.0 0.0 0.0 0.0 0.0
0.0 0.0 0.0 0.0 0.0 0.0 0.0
0.0 0.0 0.0 0.0 0.0 0.0 0.0
0.0 0.0 0.0 0.0 0.0 0.0 0.0
0.0 0.0 0.0 0.0 0.0 0.0 0.0
0.0 0.0 0.0 0.0 0.0 0.0 0.0
0.0 0.0 0.0 0.0 0.0 0.0 0.0
0.0 0.0 0.0 0.0 0.0 0.0 0.0
0.0 0.0 0.0 0.0 0.0 0.0 0.0
0.0 0.0 0.0 0.0 0.0 0.0 0.0
0.0 0.0 0.0 0.0 0.0 0.0 0.0
0.0 0.0 0.0 0.0 0.0 0.0 0.0
0.0 0.0 0.0 0.0 0.0 0.0 0.0
0.0 0.0 0.0 0.0 0.0 0.0 0.0
0.0 0.0 0.0 0.0 0.0 0.0 0.0
0.0 0.0 0.0 0.0 0.0 0.0 0.0
0.0 0.0 0.0 0.0 0.0 0.0 0.0
0.0 0.0 0.0 0.0 0.0 0.0 0.0
0.0 0.0 0.0 0.0 0.0 0.0 0.0
0.0 0.0 0.0 0.0 0.0 0.0 0.0
0.0 0.0 0.0 0.0 0.0 0.0 0.0
0.0 0.0 0.0 0.0 0.0 0.0 0.0
0.0 0.0 0.0 0.0 0.0 0.0 0.0
0.0 0.0 0.0 0.0 0.0 0.0 0.0
0.0 0.0 0.0 0.0 0.0 0.0 0.0
0.0 0.0 0.0 0.0 0.0 0.0 0.0
0.0 0.0 0.0 0.0 0.0 0.0 0.0
0.0 0.0 0.0 0.0 0.0 0.0 0.0
0.0 0.0 0.0 0.0 0.0 0.0 0.0
0.0 0.0 0.0 0.0 0.0 0.0 0.0
0.0 0.0 0.0 0.0 0.0 0.0 0.0

rankmax=6
ndensitymax=1

num_c_tilde_max=232
num_ms_combinations_max=1751
total_basis_size_rank1: 16
ctilde_basis_func: rank=1 ndens=1 mu0=0 mu=( 0 )
n=( 1 )
l=( 0 )
num_ms=1
< 0 >:  1.0000000000
ctilde_basis_func: rank=1 ndens=1 mu0=0 mu=( 0 )
n=( 2 )
l=( 0 )
num_ms=1
< 0 >:  1.0000000000
ctilde_basis_func: rank=1 ndens=1 mu0=0 mu=( 0 )
n=( 3 )
l=( 0 )
num_ms=1
< 0 >:  1.0000000000
ctilde_basis_func: rank=1 ndens=1 mu0=0 mu=( 0 )
n=( 4 )
l=( 0 )
num_ms=1
< 0 >:  1.0000000000
ctilde_basis_func: rank=1 ndens=1 mu0=0 mu=( 0 )
n=( 5 )
l=( 0 )
num_ms=1
< 0 >:  1.0000000000
ctilde_basis_func: rank=1 ndens=1 mu0=0 mu=( 0 )
n=( 6 )
l=( 0 )
num_ms=1
< 0 >:  1.0000000000
ctilde_basis_func: rank=1 ndens=1 mu0=0 mu=( 0 )
n=( 7 )
l=( 0 )
num_ms=1
< 0 >:  1.0000000000
ctilde_basis_func: rank=1 ndens=1 mu0=0 mu=( 0 )
n=( 8 )
l=( 0 )
num_ms=1
< 0 >:  1.0000000000
ctilde_basis_func: rank=1 ndens=1 mu0=0 mu=( 0 )
n=( 9 )
l=( 0 )
num_ms=1
< 0 >:  1.0000000000
ctilde_basis_func: rank=1 ndens=1 mu0=0 mu=( 0 )
n=( 10 )
l=( 0 )
num_ms=1
< 0 >:  1.0000000000
ctilde_basis_func: rank=1 ndens=1 mu0=0 mu=( 0 )
n=( 11 )
l=( 0 )
num_ms=1
< 0 >:  1.0000000000
ctilde_basis_func: rank=1 ndens=1 mu0=0 mu=( 0 )
n=( 12 )
l=( 0 )
num_ms=1
< 0 >:  1.0000000000
ctilde_basis_func: rank=1 ndens=1 mu0=0 mu=( 0 )
n=( 13 )
l=( 0 )
num_ms=1
< 0 >:  1.0000000000
ctilde_basis_func: rank=1 ndens=1 mu0=0 mu=( 0 )
n=( 14 )
l=( 0 )
num_ms=1
< 0 >:  1.0000000000
ctilde_basis_func: rank=1 ndens=1 mu0=0 mu=( 0 )
n=( 15 )
l=( 0 )
num_ms=1
< 0 >:  1.0000000000
ctilde_basis_func: rank=1 ndens=1 mu0=0 mu=( 0 )
n=( 16 )
l=( 0 )
num_ms=1
< 0 >:  1.0000000000
total_basis_size: 216
ctilde_basis_func: rank=2 ndens=1 mu0=0 mu=(  0  0  )
n=( 1  1 )
l=( 0  0 )
num_ms=1
< 0  0 >:  1.000000000000
ctilde_basis_func: rank=2 ndens=1 mu0=0 mu=(  0  0  )
n=( 1  1 )
l=( 1  1 )
num_ms=3
< -1  1 >:  -1.000000000000
< 0  0 >:  1.000000000000
< 1  -1 >:  -1.000000000000
ctilde_basis_func: rank=2 ndens=1 mu0=0 mu=(  0  0  )
n=( 1  1 )
l=( 2  2 )
num_ms=5
< -2  2 >:  1.000000000000
< -1  1 >:  -1.000000000000
< 0  0 >:  1.000000000000
< 1  -1 >:  -1.000000000000
< 2  -2 >:  1.000000000000
ctilde_basis_func: rank=2 ndens=1 mu0=0 mu=(  0  0  )
n=( 1  2 )
l=( 0  0 )
num_ms=1
< 0  0 >:  1.000000000000
ctilde_basis_func: rank=2 ndens=1 mu0=0 mu=(  0  0  )
n=( 1  2 )
l=( 1  1 )
num_ms=3
< -1  1 >:  -1.000000000000
< 0  0 >:  1.000000000000
< 1  -1 >:  -1.000000000000
ctilde_basis_func: rank=2 ndens=1 mu0=0 mu=(  0  0  )
n=( 1  2 )
l=( 2  2 )
num_ms=5
< -2  2 >:  1.000000000000
< -1  1 >:  -1.000000000000
< 0  0 >:  1.000000000000
< 1  -1 >:  -1.000000000000
< 2  -2 >:  1.000000000000
ctilde_basis_func: rank=2 ndens=1 mu0=0 mu=(  0  0  )
n=( 2  2 )
l=( 0  0 )
num_ms=1
< 0  0 >:  1.000000000000
ctilde_basis_func: rank=2 ndens=1 mu0=0 mu=(  0  0  )
n=( 2  2 )
l=( 1  1 )
num_ms=3
< -1  1 >:  -1.000000000000
< 0  0 >:  1.000000000000
< 1  -1 >:  -1.000000000000
ctilde_basis_func: rank=2 ndens=1 mu0=0 mu=(  0  0  )
n=( 2  2 )
l=( 2  2 )
num_ms=5
< -2  2 >:  1.000000000000
< -1  1 >:  -1.000000000000
< 0  0 >:  1.000000000000
< 1  -1 >:  -1.000000000000
< 2  -2 >:  1.000000000000
ctilde_basis_func: rank=3 ndens=1 mu0=0 mu=(  0  0  0  )
n=( 1  1  1 )
l=( 0  0  0 )
num_ms=1
< 0  0  0 >:  1.000000000000
ctilde_basis_func: rank=3 ndens=1 mu0=0 mu=(  0  0  0  )
n=( 1  1  1 )
l=( 0  1  1 )
num_ms=3
< 0  -1  1 >:  0.577350269190
< 0  0  0 >:  -0.577350269190
< 0  1  -1 >:  0.577350269190
ctilde_basis_func: rank=3 ndens=1 mu0=0 mu=(  0  0  0  )
n=( 1  1  1 )
l=( 0  2  2 )
num_ms=5
< 0  -2  2 >:  0.447213595500
< 0  -1  1 >:  -0.447213595500
< 0  0  0 >:  0.447213595500
< 0  1  -1 >:  -0.447213595500
< 0  2  -2 >:  0.447213595500
ctilde_basis_func: rank=3 ndens=1 mu0=0 mu=(  0  0  0  )
n=( 1  1  1 )
l=( 1  1  2 )
num_ms=9
< -1  -1  2 >:  0.447213595500
< -1  0  1 >:  -0.316227766017
< -1  1  0 >:  0.182574185835
< 0  -1  1 >:  -0.316227766017
< 0  0  0 >:  0.365148371670
< 0  1  -1 >:  -0.316227766017
< 1  -1  0 >:  0.182574185835
< 1  0  -1 >:  -0.316227766017
< 1  1  -2 >:  0.447213595500
ctilde_basis_func: rank=3 ndens=1 mu0=0 mu=(  0  0  0  )
n=( 1  1  1 )
l=( 2  2  2 )
num_ms=19
< -2  0  2 >:  0.239045721867
< -2  1  1 >:  -0.292770021885
< -2  2  0 >:  0.239045721867
< -1  -1  2 >:  -0.292770021885
< -1  0  1 >:  0.119522860933
< -1  1  0 >:  0.119522860933
< -1  2  -1 >:  -0.292770021885
< 0  -2  2 >:  0.239045721867
< 0  -1  1 >:  0.119522860933
< 0  0  0 >:  -0.239045721867
< 0  1  -1 >:  0.119522860933
< 0  2  -2 >:  0.239045721867
< 1  -2  1 >:  -0.292770021885
< 1  -1  0 >:  0.119522860933
< 1  0  -1 >:  0.119522860933
< 1  1  -2 >:  -0.292770021885
< 2  -2  0 >:  0.239045721867
< 2  -1  -1 >:  -0.292770021885
< 2  0  -2 >:  0.239045721867
ctilde_basis_func: rank=3 ndens=1 mu0=0 mu=(  0  0  0  )
n=( 1  1  2 )
l=( 0  0  0 )
num_ms=1
< 0  0  0 >:  1.000000000000
ctilde_basis_func: rank=3 ndens=1 mu0=0 mu=(  0  0  0  )
n=( 1  1  2 )
l=( 0  1  1 )
num_ms=3
< 0  -1  1 >:  0.577350269190
< 0  0  0 >:  -0.577350269190
< 0  1  -1 >:  0.577350269190
ctilde_basis_func: rank=3 ndens=1 mu0=0 mu=(  0  0  0  )
n=( 1  1  2 )
l=( 0  2  2 )
num_ms=5
< 0  -2  2 >:  0.447213595500
< 0  -1  1 >:  -0.447213595500
< 0  0  0 >:  0.447213595500
< 0  1  -1 >:  -0.447213595500
< 0  2  -2 >:  0.447213595500
ctilde_basis_func: rank=3 ndens=1 mu0=0 mu=(  0  0  0  )
n=( 1  1  2 )
l=( 1  1  2 )
num_ms=9
< -1  -1  2 >:  0.447213595500
< -1  0  1 >:  -0.316227766017
< -1  1  0 >:  0.182574185835
< 0  -1  1 >:  -0.316227766017
< 0  0  0 >:  0.365148371670
< 0  1  -1 >:  -0.316227766017
< 1  -1  0 >:  0.182574185835
< 1  0  -1 >:  -0.316227766017
< 1  1  -2 >:  0.447213595500
ctilde_basis_func: rank=3 ndens=1 mu0=0 mu=(  0  0  0  )
n=( 1  1  2 )
l=( 2  2  2 )
num_ms=19
< -2  0  2 >:  0.239045721867
< -2  1  1 >:  -0.292770021885
< -2  2  0 >:  0.239045721867
< -1  -1  2 >:  -0.292770021885
< -1  0  1 >:  0.119522860933
< -1  1  0 >:  0.119522860933
< -1  2  -1 >:  -0.292770021885
< 0  -2  2 >:  0.239045721867
< 0  -1  1 >:  0.119522860933
< 0  0  0 >:  -0.239045721867
< 0  1  -1 >:  0.119522860933
< 0  2  -2 >:  0.239045721867
< 1  -2  1 >:  -0.292770021885
< 1  -1  0 >:  0.119522860933
< 1  0  -1 >:  0.119522860933
< 1  1  -2 >:  -0.292770021885
< 2  -2  0 >:  0.239045721867
< 2  -1  -1 >:  -0.292770021885
< 2  0  -2 >:  0.239045721867
ctilde_basis_func: rank=3 ndens=1 mu0=0 mu=(  0  0  0  )
n=( 1  2  1 )
l=( 1  1  2 )
num_ms=9
< -1  -1  2 >:  0.447213595500
< -1  0  1 >:  -0.316227766017
< -1  1  0 >:  0.182574185835
< 0  -1  1 >:  -0.316227766017
< 0  0  0 >:  0.365148371670
< 0  1  -1 >:  -0.316227766017
< 1  -1  0 >:  0.182574185835
< 1  0  -1 >:  -0.316227766017
< 1  1  -2 >:  0.447213595500
ctilde_basis_func: rank=3 ndens=1 mu0=0 mu=(  0  0  0  )
n=( 1  2  2 )
l=( 0  0  0 )
num_ms=1
< 0  0  0 >:  1.000000000000
ctilde_basis_func: rank=3 ndens=1 mu0=0 mu=(  0  0  0  )
n=( 1  2  2 )
l=( 0  1  1 )
num_ms=3
< 0  -1  1 >:  0.577350269190
< 0  0  0 >:  -0.577350269190
< 0  1  -1 >:  0.577350269190
ctilde_basis_func: rank=3 ndens=1 mu0=0 mu=(  0  0  0  )
n=( 1  2  2 )
l=( 0  2  2 )
num_ms=5
< 0  -2  2 >:  0.447213595500
< 0  -1  1 >:  -0.447213595500
< 0  0  0 >:  0.447213595500
< 0  1  -1 >:  -0.447213595500
< 0  2  -2 >:  0.447213595500
ctilde_basis_func: rank=3 ndens=1 mu0=0 mu=(  0  0  0  )
n=( 1  2  2 )
l=( 1  1  2 )
num_ms=9
< -1  -1  2 >:  0.447213595500
< -1  0  1 >:  -0.316227766017
< -1  1  0 >:  0.182574185835
< 0  -1  1 >:  -0.316227766017
< 0  0  0 >:  0.365148371670
< 0  1  -1 >:  -0.316227766017
< 1  -1  0 >:  0.182574185835
< 1  0  -1 >:  -0.316227766017
< 1  1  -2 >:  0.447213595500
ctilde_basis_func: rank=3 ndens=1 mu0=0 mu=(  0  0  0  )
n=( 1  2  2 )
l=( 2  2  2 )
num_ms=19
< -2  0  2 >:  0.239045721867
< -2  1  1 >:  -0.292770021885
< -2  2  0 >:  0.239045721867
< -1  -1  2 >:  -0.292770021885
< -1  0  1 >:  0.119522860933
< -1  1  0 >:  0.119522860933
< -1  2  -1 >:  -0.292770021885
< 0  -2  2 >:  0.239045721867
< 0  -1  1 >:  0.119522860933
< 0  0  0 >:  -0.239045721867
< 0  1  -1 >:  0.119522860933
< 0  2  -2 >:  0.239045721867
< 1  -2  1 >:  -0.292770021885
< 1  -1  0 >:  0.119522860933
< 1  0  -1 >:  0.119522860933
< 1  1  -2 >:  -0.292770021885
< 2  -2  0 >:  0.239045721867
< 2  -1  -1 >:  -0.292770021885
< 2  0  -2 >:  0.239045721867
ctilde_basis_func: rank=3 ndens=1 mu0=0 mu=(  0  0  0  )
n=( 2  1  1 )
l=( 0  1  1 )
num_ms=3
< 0  -1  1 >:  0.577350269190
< 0  0  0 >:  -0.577350269190
< 0  1  -1 >:  0.577350269190
ctilde_basis_func: rank=3 ndens=1 mu0=0 mu=(  0  0  0  )
n=( 2  1  1 )
l=( 0  2  2 )
num_ms=5
< 0  -2  2 >:  0.447213595500
< 0  -1  1 >:  -0.447213595500
< 0  0  0 >:  0.447213595500
< 0  1  -1 >:  -0.447213595500
< 0  2  -2 >:  0.447213595500
ctilde_basis_func: rank=3 ndens=1 mu0=0 mu=(  0  0  0  )
n=( 2  1  2 )
l=( 0  1  1 )
num_ms=3
< 0  -1  1 >:  0.577350269190
< 0  0  0 >:  -0.577350269190
< 0  1  -1 >:  0.577350269190
ctilde_basis_func: rank=3 ndens=1 mu0=0 mu=(  0  0  0  )
n=( 2  1  2 )
l=( 0  2  2 )
num_ms=5
< 0  -2  2 >:  0.447213595500
< 0  -1  1 >:  -0.447213595500
< 0  0  0 >:  0.447213595500
< 0  1  -1 >:  -0.447213595500
< 0  2  -2 >:  0.447213595500
ctilde_basis_func: rank=3 ndens=1 mu0=0 mu=(  0  0  0  )
n=( 2  2  1 )
l=( 1  1  2 )
num_ms=9
< -1  -1  2 >:  0.447213595500
< -1  0  1 >:  -0.316227766017
< -1  1  0 >:  0.182574185835
< 0  -1  1 >:  -0.316227766017
< 0  0  0 >:  0.365148371670
< 0  1  -1 >:  -0.316227766017
< 1  -1  0 >:  0.182574185835
< 1  0  -1 >:  -0.316227766017
< 1  1  -2 >:  0.447213595500
ctilde_basis_func: rank=3 ndens=1 mu0=0 mu=(  0  0  0  )
n=( 2  2  2 )
l=( 0  0  0 )
num_ms=1
< 0  0  0 >:  1.000000000000
ctilde_basis_func: rank=3 ndens=1 mu0=0 mu=(  0  0  0  )
n=( 2  2  2 )
l=( 0  1  1 )
num_ms=3
< 0  -1  1 >:  0.577350269190
< 0  0  0 >:  -0.577350269190
< 0  1  -1 >:  0.577350269190
ctilde_basis_func: rank=3 ndens=1 mu0=0 mu=(  0  0  0  )
n=( 2  2  2 )
l=( 0  2  2 )
num_ms=5
< 0  -2  2 >:  0.447213595500
< 0  -1  1 >:  -0.447213595500
< 0  0  0 >:  0.447213595500
< 0  1  -1 >:  -0.447213595500
< 0  2  -2 >:  0.447213595500
ctilde_basis_func: rank=3 ndens=1 mu0=0 mu=(  0  0  0  )
n=( 2  2  2 )
l=( 1  1  2 )
num_ms=9
< -1  -1  2 >:  0.447213595500
< -1  0  1 >:  -0.316227766017
< -1  1  0 >:  0.182574185835
< 0  -1  1 >:  -0.316227766017
< 0  0  0 >:  0.365148371670
< 0  1  -1 >:  -0.316227766017
< 1  -1  0 >:  0.182574185835
< 1  0  -1 >:  -0.316227766017
< 1  1  -2 >:  0.447213595500
ctilde_basis_func: rank=3 ndens=1 mu0=0 mu=(  0  0  0  )
n=( 2  2  2 )
l=( 2  2  2 )
num_ms=19
< -2  0  2 >:  0.239045721867
< -2  1  1 >:  -0.292770021885
< -2  2  0 >:  0.239045721867
< -1  -1  2 >:  -0.292770021885
< -1  0  1 >:  0.119522860933
< -1  1  0 >:  0.119522860933
< -1  2  -1 >:  -0.292770021885
< 0  -2  2 >:  0.239045721867
< 0  -1  1 >:  0.119522860933
< 0  0  0 >:  -0.239045721867
< 0  1  -1 >:  0.119522860933
< 0  2  -2 >:  0.239045721867
< 1  -2  1 >:  -0.292770021885
< 1  -1  0 >:  0.119522860933
< 1  0  -1 >:  0.119522860933
< 1  1  -2 >:  -0.292770021885
< 2  -2  0 >:  0.239045721867
< 2  -1  -1 >:  -0.292770021885
< 2  0  -2 >:  0.239045721867
ctilde_basis_func: rank=4 ndens=1 mu0=0 mu=(  0  0  0  0  )
n=( 1  1  1  1 )
l=( 0  0  0  0 )
num_ms=1
< 0  0  0  0 >:  1.000000000000
ctilde_basis_func: rank=4 ndens=1 mu0=0 mu=(  0  0  0  0  )
n=( 1  1  1  1 )
l=( 0  0  1  1 )
num_ms=3
< 0  0  -1  1 >:  0.577350269190
< 0  0  0  0 >:  -0.577350269190
< 0  0  1  -1 >:  0.577350269190
ctilde_basis_func: rank=4 ndens=1 mu0=0 mu=(  0  0  0  0  )
n=( 1  1  1  1 )
l=( 0  0  2  2 )
num_ms=5
< 0  0  -2  2 >:  0.447213595500
< 0  0  -1  1 >:  -0.447213595500
< 0  0  0  0 >:  0.447213595500
< 0  0  1  -1 >:  -0.447213595500
< 0  0  2  -2 >:  0.447213595500
ctilde_basis_func: rank=4 ndens=1 mu0=0 mu=(  0  0  0  0  )
n=( 1  1  1  1 )
l=( 1  1  1  1 )
num_ms=19
< -1  -1  1  1 >:  0.707106781187
< -1  0  0  1 >:  -0.353553390593
< -1  0  1  0 >:  -0.353553390593
< -1  1  -1  1 >:  0.353553390593
< -1  1  0  0 >:  0.000000000000
< -1  1  1  -1 >:  0.353553390593
< 0  -1  0  1 >:  -0.353553390593
< 0  -1  1  0 >:  -0.353553390593
< 0  0  -1  1 >:  0.000000000000
< 0  0  0  0 >:  0.707106781187
< 0  0  1  -1 >:  0.000000000000
< 0  1  -1  0 >:  -0.353553390593
< 0  1  0  -1 >:  -0.353553390593
< 1  -1  -1  1 >:  0.353553390593
< 1  -1  0  0 >:  0.000000000000
< 1  -1  1  -1 >:  0.353553390593
< 1  0  -1  0 >:  -0.353553390593
< 1  0  0  -1 >:  -0.353553390593
< 1  1  -1  -1 >:  0.707106781187
ctilde_basis_func: rank=4 ndens=1 mu0=0 mu=(  0  0  0  0  )
n=( 1  1  1  1 )
l=( 1  1  2  2 )
num_ms=37
< -1  -1  0  2 >:  0.377964473009
< -1  -1  1  1 >:  -0.462910049886
< -1  -1  2  0 >:  0.377964473009
< -1  0  -1  2 >:  -0.327326835354
< -1  0  0  1 >:  0.133630620956
< -1  0  1  0 >:  0.133630620956
< -1  0  2  -1 >:  -0.327326835354
< -1  1  -2  2 >:  0.336877535797
< -1  1  -1  1 >:  -0.105422510854
< -1  1  0  0 >:  0.028270835873
< -1  1  1  -1 >:  -0.105422510854
< -1  1  2  -2 >:  0.336877535797
< 0  -1  -1  2 >:  -0.327326835354
< 0  -1  0  1 >:  0.133630620956
< 0  -1  1  0 >:  0.133630620956
< 0  -1  2  -1 >:  -0.327326835354
< 0  0  -2  2 >:  0.126032514089
< 0  0  -1  1 >:  0.336877535797
< 0  0  0  0 >:  -0.491180885759
< 0  0  1  -1 >:  0.336877535797
< 0  0  2  -2 >:  0.126032514089
< 0  1  -2  1 >:  -0.327326835354
< 0  1  -1  0 >:  0.133630620956
< 0  1  0  -1 >:  0.133630620956
< 0  1  1  -2 >:  -0.327326835354
< 1  -1  -2  2 >:  0.336877535797
< 1  -1  -1  1 >:  -0.105422510854
< 1  -1  0  0 >:  0.028270835873
< 1  -1  1  -1 >:  -0.105422510854
< 1  -1  2  -2 >:  0.336877535797
< 1  0  -2  1 >:  -0.327326835354
< 1  0  -1  0 >:  0.133630620956
< 1  0  0  -1 >:  0.133630620956
< 1  0  1  -2 >:  -0.327326835354
< 1  1  -2  0 >:  0.377964473009
< 1  1  -1  -1 >:  -0.462910049886
< 1  1  0  -2 >:  0.377964473009
ctilde_basis_func: rank=4 ndens=1 mu0=0 mu=(  0  0  0  0  )
n=( 1  1  1  1 )
l=( 2  2  2  2 )
num_ms=85
< -2  -2  2  2 >:  0.577350269190
< -2  -1  1  2 >:  -0.288675134595
< -2  -1  2  1 >:  -0.288675134595
< -2  0  0  2 >:  0.288675134595
< -2  0  1  1 >:  0.000000000000
< -2  0  2  0 >:  0.288675134595
< -2  1  -1  2 >:  -0.288675134595
< -2  1  0  1 >:  0.000000000000
< -2  1  1  0 >:  0.000000000000
< -2  1  2  -1 >:  -0.288675134595
< -2  2  -2  2 >:  0.288675134595
< -2  2  -1  1 >:  0.000000000000
< -2  2  0  0 >:  -0.000000000000
< -2  2  1  -1 >:  0.000000000000
< -2  2  2  -2 >:  0.288675134595
< -1  -2  1  2 >:  -0.288675134595
< -1  -2  2  1 >:  -0.288675134595
< -1  -1  0  2 >:  0.000000000000
< -1  -1  1  1 >:  0.577350269190
< -1  -1  2  0 >:  0.000000000000
< -1  0  -1  2 >:  0.000000000000
< -1  0  0  1 >:  -0.288675134595
< -1  0  1  0 >:  -0.288675134595
< -1  0  2  -1 >:  0.000000000000
< -1  1  -2  2 >:  0.000000000000
< -1  1  -1  1 >:  0.288675134595
< -1  1  0  0 >:  -0.000000000000
< -1  1  1  -1 >:  0.288675134595
< -1  1  2  -2 >:  0.000000000000
< -1  2  -2  1 >:  -0.288675134595
< -1  2  -1  0 >:  0.000000000000
< -1  2  0  -1 >:  0.000000000000
< -1  2  1  -2 >:  -0.288675134595
< 0  -2  0  2 >:  0.288675134595
< 0  -2  1  1 >:  0.000000000000
< 0  -2  2  0 >:  0.288675134595
< 0  -1  -1  2 >:  0.000000000000
< 0  -1  0  1 >:  -0.288675134595
< 0  -1  1  0 >:  -0.288675134595
< 0  -1  2  -1 >:  0.000000000000
< 0  0  -2  2 >:  -0.000000000000
< 0  0  -1  1 >:  -0.000000000000
< 0  0  0  0 >:  0.577350269190
< 0  0  1  -1 >:  -0.000000000000
< 0  0  2  -2 >:  -0.000000000000
< 0  1  -2  1 >:  0.000000000000
< 0  1  -1  0 >:  -0.288675134595
< 0  1  0  -1 >:  -0.288675134595
< 0  1  1  -2 >:  0.000000000000
< 0  2  -2  0 >:  0.288675134595
< 0  2  -1  -1 >:  0.000000000000
< 0  2  0  -2 >:  0.288675134595
< 1  -2  -1  2 >:  -0.288675134595
< 1  -2  0  1 >:  0.000000000000
< 1  -2  1  0 >:  0.000000000000
< 1  -2  2  -1 >:  -0.288675134595
< 1  -1  -2  2 >:  0.000000000000
< 1  -1  -1  1 >:  0.288675134595
< 1  -1  0  0 >:  -0.000000000000
< 1  -1  1  -1 >:  0.288675134595
< 1  -1  2  -2 >:  0.000000000000
< 1  0  -2  1 >:  0.000000000000
< 1  0  -1  0 >:  -0.288675134595
< 1  0  0  -1 >:  -0.288675134595
< 1  0  1  -2 >:  0.000000000000
< 1  1  -2  0 >:  0.000000000000
< 1  1  -1  -1 >:  0.577350269190
< 1  1  0  -2 >:  0.000000000000
< 1  2  -2  -1 >:  -0.288675134595
< 1  2  -1  -2 >:  -0.288675134595
< 2  -2  -2  2 >:  0.288675134595
< 2  -2  -1  1 >:  0.000000000000
< 2  -2  0  0 >:  -0.000000000000
< 2  -2  1  -1 >:  0.000000000000
< 2  -2  2  -2 >:  0.288675134595
< 2  -1  -2  1 >:  -0.288675134595
< 2  -1  -1  0 >:  0.000000000000
< 2  -1  0  -1 >:  0.000000000000
< 2  -1  1  -2 >:  -0.288675134595
< 2  0  -2  0 >:  0.288675134595
< 2  0  -1  -1 >:  0.000000000000
< 2  0  0  -2 >:  0.288675134595
< 2  1  -2  -1 >:  -0.288675134595
< 2  1  -1  -2 >:  -0.288675134595
< 2  2  -2  -2 >:  0.577350269190
ctilde_basis_func: rank=4 ndens=1 mu0=0 mu=(  0  0  0  0  )
n=( 1  1  1  2 )
l=( 0  0  0  0 )
num_ms=1
< 0  0  0  0 >:  1.000000000000
ctilde_basis_func: rank=4 ndens=1 mu0=0 mu=(  0  0  0  0  )
n=( 1  1  1  2 )
l=( 0  0  1  1 )
num_ms=3
< 0  0  -1  1 >:  0.577350269190
< 0  0  0  0 >:  -0.577350269190
< 0  0  1  -1 >:  0.577350269190
ctilde_basis_func: rank=4 ndens=1 mu0=0 mu=(  0  0  0  0  )
n=( 1  1  1  2 )
l=( 0  0  2  2 )
num_ms=5
< 0  0  -2  2 >:  0.447213595500
< 0  0  -1  1 >:  -0.447213595500
< 0  0  0  0 >:  0.447213595500
< 0  0  1  -1 >:  -0.447213595500
< 0  0  2  -2 >:  0.447213595500
ctilde_basis_func: rank=4 ndens=1 mu0=0 mu=(  0  0  0  0  )
n=( 1  1  1  2 )
l=( 1  1  1  1 )
num_ms=19
< -1  -1  1  1 >:  0.707106781187
< -1  0  0  1 >:  -0.353553390593
< -1  0  1  0 >:  -0.353553390593
< -1  1  -1  1 >:  0.353553390593
< -1  1  0  0 >:  0.000000000000
< -1  1  1  -1 >:  0.353553390593
< 0  -1  0  1 >:  -0.353553390593
< 0  -1  1  0 >:  -0.353553390593
< 0  0  -1  1 >:  0.000000000000
< 0  0  0  0 >:  0.707106781187
< 0  0  1  -1 >:  0.000000000000
< 0  1  -1  0 >:  -0.353553390593
< 0  1  0  -1 >:  -0.353553390593
< 1  -1  -1  1 >:  0.353553390593
< 1  -1  0  0 >:  0.000000000000
< 1  -1  1  -1 >:  0.353553390593
< 1  0  -1  0 >:  -0.353553390593
< 1  0  0  -1 >:  -0.353553390593
< 1  1  -1  -1 >:  0.707106781187
ctilde_basis_func: rank=4 ndens=1 mu0=0 mu=(  0  0  0  0  )
n=( 1  1  1  2 )
l=( 1  1  2  2 )
num_ms=37
< -1  -1  0  2 >:  0.377964473009
< -1  -1  1  1 >:  -0.462910049886
< -1  -1  2  0 >:  0.377964473009
< -1  0  -1  2 >:  -0.327326835354
< -1  0  0  1 >:  0.133630620956
< -1  0  1  0 >:  0.133630620956
< -1  0  2  -1 >:  -0.327326835354
< -1  1  -2  2 >:  0.336877535797
< -1  1  -1  1 >:  -0.105422510854
< -1  1  0  0 >:  0.028270835873
< -1  1  1  -1 >:  -0.105422510854
< -1  1  2  -2 >:  0.336877535797
< 0  -1  -1  2 >:  -0.327326835354
< 0  -1  0  1 >:  0.133630620956
< 0  -1  1  0 >:  0.133630620956
< 0  -1  2  -1 >:  -0.327326835354
< 0  0  -2  2 >:  0.126032514089
< 0  0  -1  1 >:  0.336877535797
< 0  0  0  0 >:  -0.491180885759
< 0  0  1  -1 >:  0.336877535797
< 0  0  2  -2 >:  0.126032514089
< 0  1  -2  1 >:  -0.327326835354
< 0  1  -1  0 >:  0.133630620956
< 0  1  0  -1 >:  0.133630620956
< 0  1  1  -2 >:  -0.327326835354
< 1  -1  -2  2 >:  0.336877535797
< 1  -1  -1  1 >:  -0.105422510854
< 1  -1  0  0 >:  0.028270835873
< 1  -1  1  -1 >:  -0.105422510854
< 1  -1  2  -2 >:  0.336877535797
< 1  0  -2  1 >:  -0.327326835354
< 1  0  -1  0 >:  0.133630620956
< 1  0  0  -1 >:  0.133630620956
< 1  0  1  -2 >:  -0.327326835354
< 1  1  -2  0 >:  0.377964473009
< 1  1  -1  -1 >:  -0.462910049886
< 1  1  0  -2 >:  0.377964473009
ctilde_basis_func: rank=4 ndens=1 mu0=0 mu=(  0  0  0  0  )
n=( 1  1  1  2 )
l=( 2  2  2  2 )
num_ms=85
< -2  -2  2  2 >:  0.577350269190
< -2  -1  1  2 >:  -0.288675134595
< -2  -1  2  1 >:  -0.288675134595
< -2  0  0  2 >:  0.288675134595
< -2  0  1  1 >:  0.000000000000
< -2  0  2  0 >:  0.288675134595
< -2  1  -1  2 >:  -0.288675134595
< -2  1  0  1 >:  0.000000000000
< -2  1  1  0 >:  0.000000000000
< -2  1  2  -1 >:  -0.288675134595
< -2  2  -2  2 >:  0.288675134595
< -2  2  -1  1 >:  0.000000000000
< -2  2  0  0 >:  -0.000000000000
< -2  2  1  -1 >:  0.000000000000
< -2  2  2  -2 >:  0.288675134595
< -1  -2  1  2 >:  -0.288675134595
< -1  -2  2  1 >:  -0.288675134595
< -1  -1  0  2 >:  0.000000000000
< -1  -1  1  1 >:  0.577350269190
< -1  -1  2  0 >:  0.000000000000
< -1  0  -1  2 >:  0.000000000000
< -1  0  0  1 >:  -0.288675134595
< -1  0  1  0 >:  -0.288675134595
< -1  0  2  -1 >:  0.000000000000
< -1  1  -2  2 >:  0.000000000000
< -1  1  -1  1 >:  0.288675134595
< -1  1  0  0 >:  -0.000000000000
< -1  1  1  -1 >:  0.288675134595
< -1  1  2  -2 >:  0.000000000000
< -1  2  -2  1 >:  -0.288675134595
< -1  2  -1  0 >:  0.000000000000
< -1  2  0  -1 >:  0.000000000000
< -1  2  1  -2 >:  -0.288675134595
< 0  -2  0  2 >:  0.288675134595
< 0  -2  1  1 >:  0.000000000000
< 0  -2  2  0 >:  0.288675134595
< 0  -1  -1  2 >:  0.000000000000
< 0  -1  0  1 >:  -0.288675134595
< 0  -1  1  0 >:  -0.288675134595
< 0  -1  2  -1 >:  0.000000000000
< 0  0  -2  2 >:  -0.000000000000
< 0  0  -1  1 >:  -0.000000000000
< 0  0  0  0 >:  0.577350269190
< 0  0  1  -1 >:  -0.000000000000
< 0  0  2  -2 >:  -0.000000000000
< 0  1  -2  1 >:  0.000000000000
< 0  1  -1  0 >:  -0.288675134595
< 0  1  0  -1 >:  -0.288675134595
< 0  1  1  -2 >:  0.000000000000
< 0  2  -2  0 >:  0.288675134595
< 0  2  -1  -1 >:  0.000000000000
< 0  2  0  -2 >:  0.288675134595
< 1  -2  -1  2 >:  -0.288675134595
< 1  -2  0  1 >:  0.000000000000
< 1  -2  1  0 >:  0.000000000000
< 1  -2  2  -1 >:  -0.288675134595
< 1  -1  -2  2 >:  0.000000000000
< 1  -1  -1  1 >:  0.288675134595
< 1  -1  0  0 >:  -0.000000000000
< 1  -1  1  -1 >:  0.288675134595
< 1  -1  2  -2 >:  0.000000000000
< 1  0  -2  1 >:  0.000000000000
< 1  0  -1  0 >:  -0.288675134595
< 1  0  0  -1 >:  -0.288675134595
< 1  0  1  -2 >:  0.000000000000
< 1  1  -2  0 >:  0.000000000000
< 1  1  -1  -1 >:  0.577350269190
< 1  1  0  -2 >:  0.000000000000
< 1  2  -2  -1 >:  -0.288675134595
< 1  2  -1  -2 >:  -0.288675134595
< 2  -2  -2  2 >:  0.288675134595
< 2  -2  -1  1 >:  0.000000000000
< 2  -2  0  0 >:  -0.000000000000
< 2  -2  1  -1 >:  0.000000000000
< 2  -2  2  -2 >:  0.288675134595
< 2  -1  -2  1 >:  -0.288675134595
< 2  -1  -1  0 >:  0.000000000000
< 2  -1  0  -1 >:  0.000000000000
< 2  -1  1  -2 >:  -0.288675134595
< 2  0  -2  0 >:  0.288675134595
< 2  0  -1  -1 >:  0.000000000000
< 2  0  0  -2 >:  0.288675134595
< 2  1  -2  -1 >:  -0.288675134595
< 2  1  -1  -2 >:  -0.288675134595
< 2  2  -2  -2 >:  0.577350269190
ctilde_basis_func: rank=4 ndens=1 mu0=0 mu=(  0  0  0  0  )
n=( 1  1  2  2 )
l=( 0  0  0  0 )
num_ms=1
< 0  0  0  0 >:  1.000000000000
ctilde_basis_func: rank=4 ndens=1 mu0=0 mu=(  0  0  0  0  )
n=( 1  1  2  2 )
l=( 0  0  1  1 )
num_ms=3
< 0  0  -1  1 >:  0.577350269190
< 0  0  0  0 >:  -0.577350269190
< 0  0  1  -1 >:  0.577350269190
ctilde_basis_func: rank=4 ndens=1 mu0=0 mu=(  0  0  0  0  )
n=( 1  1  2  2 )
l=( 0  0  2  2 )
num_ms=5
< 0  0  -2  2 >:  0.447213595500
< 0  0  -1  1 >:  -0.447213595500
< 0  0  0  0 >:  0.447213595500
< 0  0  1  -1 >:  -0.447213595500
< 0  0  2  -2 >:  0.447213595500
ctilde_basis_func: rank=4 ndens=1 mu0=0 mu=(  0  0  0  0  )
n=( 1  1  2  2 )
l=( 1  1  1  1 )
num_ms=19
< -1  -1  1  1 >:  0.707106781187
< -1  0  0  1 >:  -0.353553390593
< -1  0  1  0 >:  -0.353553390593
< -1  1  -1  1 >:  0.353553390593
< -1  1  0  0 >:  0.000000000000
< -1  1  1  -1 >:  0.353553390593
< 0  -1  0  1 >:  -0.353553390593
< 0  -1  1  0 >:  -0.353553390593
< 0  0  -1  1 >:  0.000000000000
< 0  0  0  0 >:  0.707106781187
< 0  0  1  -1 >:  0.000000000000
< 0  1  -1  0 >:  -0.353553390593
< 0  1  0  -1 >:  -0.353553390593
< 1  -1  -1  1 >:  0.353553390593
< 1  -1  0  0 >:  0.000000000000
< 1  -1  1  -1 >:  0.353553390593
< 1  0  -1  0 >:  -0.353553390593
< 1  0  0  -1 >:  -0.353553390593
< 1  1  -1  -1 >:  0.707106781187
ctilde_basis_func: rank=4 ndens=1 mu0=0 mu=(  0  0  0  0  )
n=( 1  1  2  2 )
l=( 1  1  2  2 )
num_ms=37
< -1  -1  0  2 >:  0.377964473009
< -1  -1  1  1 >:  -0.462910049886
< -1  -1  2  0 >:  0.377964473009
< -1  0  -1  2 >:  -0.327326835354
< -1  0  0  1 >:  0.133630620956
< -1  0  1  0 >:  0.133630620956
< -1  0  2  -1 >:  -0.327326835354
< -1  1  -2  2 >:  0.336877535797
< -1  1  -1  1 >:  -0.105422510854
< -1  1  0  0 >:  0.028270835873
< -1  1  1  -1 >:  -0.105422510854
< -1  1  2  -2 >:  0.336877535797
< 0  -1  -1  2 >:  -0.327326835354
< 0  -1  0  1 >:  0.133630620956
< 0  -1  1  0 >:  0.133630620956
< 0  -1  2  -1 >:  -0.327326835354
< 0  0  -2  2 >:  0.126032514089
< 0  0  -1  1 >:  0.336877535797
< 0  0  0  0 >:  -0.491180885759
< 0  0  1  -1 >:  0.336877535797
< 0  0  2  -2 >:  0.126032514089
< 0  1  -2  1 >:  -0.327326835354
< 0  1  -1  0 >:  0.133630620956
< 0  1  0  -1 >:  0.133630620956
< 0  1  1  -2 >:  -0.327326835354
< 1  -1  -2  2 >:  0.336877535797
< 1  -1  -1  1 >:  -0.105422510854
< 1  -1  0  0 >:  0.028270835873
< 1  -1  1  -1 >:  -0.105422510854
< 1  -1  2  -2 >:  0.336877535797
< 1  0  -2  1 >:  -0.327326835354
< 1  0  -1  0 >:  0.133630620956
< 1  0  0  -1 >:  0.133630620956
< 1  0  1  -2 >:  -0.327326835354
< 1  1  -2  0 >:  0.377964473009
< 1  1  -1  -1 >:  -0.462910049886
< 1  1  0  -2 >:  0.377964473009
ctilde_basis_func: rank=4 ndens=1 mu0=0 mu=(  0  0  0  0  )
n=( 1  1  2  2 )
l=( 2  2  2  2 )
num_ms=85
< -2  -2  2  2 >:  0.577350269190
< -2  -1  1  2 >:  -0.288675134595
< -2  -1  2  1 >:  -0.288675134595
< -2  0  0  2 >:  0.288675134595
< -2  0  1  1 >:  0.000000000000
< -2  0  2  0 >:  0.288675134595
< -2  1  -1  2 >:  -0.288675134595
< -2  1  0  1 >:  0.000000000000
< -2  1  1  0 >:  0.000000000000
< -2  1  2  -1 >:  -0.288675134595
< -2  2  -2  2 >:  0.288675134595
< -2  2  -1  1 >:  0.000000000000
< -2  2  0  0 >:  -0.000000000000
< -2  2  1  -1 >:  0.000000000000
< -2  2  2  -2 >:  0.288675134595
< -1  -2  1  2 >:  -0.288675134595
< -1  -2  2  1 >:  -0.288675134595
< -1  -1  0  2 >:  0.000000000000
< -1  -1  1  1 >:  0.577350269190
< -1  -1  2  0 >:  0.000000000000
< -1  0  -1  2 >:  0.000000000000
< -1  0  0  1 >:  -0.288675134595
< -1  0  1  0 >:  -0.288675134595
< -1  0  2  -1 >:  0.000000000000
< -1  1  -2  2 >:  0.000000000000
< -1  1  -1  1 >:  0.288675134595
< -1  1  0  0 >:  -0.000000000000
< -1  1  1  -1 >:  0.288675134595
< -1  1  2  -2 >:  0.000000000000
< -1  2  -2  1 >:  -0.288675134595
< -1  2  -1  0 >:  0.000000000000
< -1  2  0  -1 >:  0.000000000000
< -1  2  1  -2 >:  -0.288675134595
< 0  -2  0  2 >:  0.288675134595
< 0  -2  1  1 >:  0.000000000000
< 0  -2  2  0 >:  0.288675134595
< 0  -1  -1  2 >:  0.000000000000
< 0  -1  0  1 >:  -0.288675134595
< 0  -1  1  0 >:  -0.288675134595
< 0  -1  2  -1 >:  0.000000000000
< 0  0  -2  2 >:  -0.000000000000
< 0  0  -1  1 >:  -0.000000000000
< 0  0  0  0 >:  0.577350269190
< 0  0  1  -1 >:  -0.000000000000
< 0  0  2  -2 >:  -0.000000000000
< 0  1  -2  1 >:  0.000000000000
< 0  1  -1  0 >:  -0.288675134595
< 0  1  0  -1 >:  -0.288675134595
< 0  1  1  -2 >:  0.000000000000
< 0  2  -2  0 >:  0.288675134595
< 0  2  -1  -1 >:  0.000000000000
< 0  2  0  -2 >:  0.288675134595
< 1  -2  -1  2 >:  -0.288675134595
< 1  -2  0  1 >:  0.000000000000
< 1  -2  1  0 >:  0.000000000000
< 1  -2  2  -1 >:  -0.288675134595
< 1  -1  -2  2 >:  0.000000000000
< 1  -1  -1  1 >:  0.288675134595
< 1  -1  0  0 >:  -0.000000000000
< 1  -1  1  -1 >:  0.288675134595
< 1  -1  2  -2 >:  0.000000000000
< 1  0  -2  1 >:  0.000000000000
< 1  0  -1  0 >:  -0.288675134595
< 1  0  0  -1 >:  -0.288675134595
< 1  0  1  -2 >:  0.000000000000
< 1  1  -2  0 >:  0.000000000000
< 1  1  -1  -1 >:  0.577350269190
< 1  1  0  -2 >:  0.000000000000
< 1  2  -2  -1 >:  -0.288675134595
< 1  2  -1  -2 >:  -0.288675134595
< 2  -2  -2  2 >:  0.288675134595
< 2  -2  -1  1 >:  0.000000000000
< 2  -2  0  0 >:  -0.000000000000
< 2  -2  1  -1 >:  0.000000000000
< 2  -2  2  -2 >:  0.288675134595
< 2  -1  -2  1 >:  -0.288675134595
< 2  -1  -1  0 >:  0.000000000000
< 2  -1  0  -1 >:  0.000000000000
< 2  -1  1  -2 >:  -0.288675134595
< 2  0  -2  0 >:  0.288675134595
< 2  0  -1  -1 >:  0.000000000000
< 2  0  0  -2 >:  0.288675134595
< 2  1  -2  -1 >:  -0.288675134595
< 2  1  -1  -2 >:  -0.288675134595
< 2  2  -2  -2 >:  0.577350269190
ctilde_basis_func: rank=4 ndens=1 mu0=0 mu=(  0  0  0  0  )
n=( 1  2  1  1 )
l=( 0  0  1  1 )
num_ms=3
< 0  0  -1  1 >:  0.577350269190
< 0  0  0  0 >:  -0.577350269190
< 0  0  1  -1 >:  0.577350269190
ctilde_basis_func: rank=4 ndens=1 mu0=0 mu=(  0  0  0  0  )
n=( 1  2  1  1 )
l=( 0  0  2  2 )
num_ms=5
< 0  0  -2  2 >:  0.447213595500
< 0  0  -1  1 >:  -0.447213595500
< 0  0  0  0 >:  0.447213595500
< 0  0  1  -1 >:  -0.447213595500
< 0  0  2  -2 >:  0.447213595500
ctilde_basis_func: rank=4 ndens=1 mu0=0 mu=(  0  0  0  0  )
n=( 1  2  1  1 )
l=( 1  1  2  2 )
num_ms=37
< -1  -1  0  2 >:  0.377964473009
< -1  -1  1  1 >:  -0.462910049886
< -1  -1  2  0 >:  0.377964473009
< -1  0  -1  2 >:  -0.327326835354
< -1  0  0  1 >:  0.133630620956
< -1  0  1  0 >:  0.133630620956
< -1  0  2  -1 >:  -0.327326835354
< -1  1  -2  2 >:  0.336877535797
< -1  1  -1  1 >:  -0.105422510854
< -1  1  0  0 >:  0.028270835873
< -1  1  1  -1 >:  -0.105422510854
< -1  1  2  -2 >:  0.336877535797
< 0  -1  -1  2 >:  -0.327326835354
< 0  -1  0  1 >:  0.133630620956
< 0  -1  1  0 >:  0.133630620956
< 0  -1  2  -1 >:  -0.327326835354
< 0  0  -2  2 >:  0.126032514089
< 0  0  -1  1 >:  0.336877535797
< 0  0  0  0 >:  -0.491180885759
< 0  0  1  -1 >:  0.336877535797
< 0  0  2  -2 >:  0.126032514089
< 0  1  -2  1 >:  -0.327326835354
< 0  1  -1  0 >:  0.133630620956
< 0  1  0  -1 >:  0.133630620956
< 0  1  1  -2 >:  -0.327326835354
< 1  -1  -2  2 >:  0.336877535797
< 1  -1  -1  1 >:  -0.105422510854
< 1  -1  0  0 >:  0.028270835873
< 1  -1  1  -1 >:  -0.105422510854
< 1  -1  2  -2 >:  0.336877535797
< 1  0  -2  1 >:  -0.327326835354
< 1  0  -1  0 >:  0.133630620956
< 1  0  0  -1 >:  0.133630620956
< 1  0  1  -2 >:  -0.327326835354
< 1  1  -2  0 >:  0.377964473009
< 1  1  -1  -1 >:  -0.462910049886
< 1  1  0  -2 >:  0.377964473009
ctilde_basis_func: rank=4 ndens=1 mu0=0 mu=(  0  0  0  0  )
n=( 1  2  1  2 )
l=( 0  0  1  1 )
num_ms=3
< 0  0  -1  1 >:  0.577350269190
< 0  0  0  0 >:  -0.577350269190
< 0  0  1  -1 >:  0.577350269190
ctilde_basis_func: rank=4 ndens=1 mu0=0 mu=(  0  0  0  0  )
n=( 1  2  1  2 )
l=( 0  0  2  2 )
num_ms=5
< 0  0  -2  2 >:  0.447213595500
< 0  0  -1  1 >:  -0.447213595500
< 0  0  0  0 >:  0.447213595500
< 0  0  1  -1 >:  -0.447213595500
< 0  0  2  -2 >:  0.447213595500
ctilde_basis_func: rank=4 ndens=1 mu0=0 mu=(  0  0  0  0  )
n=( 1  2  1  2 )
l=( 1  1  2  2 )
num_ms=37
< -1  -1  0  2 >:  0.377964473009
< -1  -1  1  1 >:  -0.462910049886
< -1  -1  2  0 >:  0.377964473009
< -1  0  -1  2 >:  -0.327326835354
< -1  0  0  1 >:  0.133630620956
< -1  0  1  0 >:  0.133630620956
< -1  0  2  -1 >:  -0.327326835354
< -1  1  -2  2 >:  0.336877535797
< -1  1  -1  1 >:  -0.105422510854
< -1  1  0  0 >:  0.028270835873
< -1  1  1  -1 >:  -0.105422510854
< -1  1  2  -2 >:  0.336877535797
< 0  -1  -1  2 >:  -0.327326835354
< 0  -1  0  1 >:  0.133630620956
< 0  -1  1  0 >:  0.133630620956
< 0  -1  2  -1 >:  -0.327326835354
< 0  0  -2  2 >:  0.126032514089
< 0  0  -1  1 >:  0.336877535797
< 0  0  0  0 >:  -0.491180885759
< 0  0  1  -1 >:  0.336877535797
< 0  0  2  -2 >:  0.126032514089
< 0  1  -2  1 >:  -0.327326835354
< 0  1  -1  0 >:  0.133630620956
< 0  1  0  -1 >:  0.133630620956
< 0  1  1  -2 >:  -0.327326835354
< 1  -1  -2  2 >:  0.336877535797
< 1  -1  -1  1 >:  -0.105422510854
< 1  -1  0  0 >:  0.028270835873
< 1  -1  1  -1 >:  -0.105422510854
< 1  -1  2  -2 >:  0.336877535797
< 1  0  -2  1 >:  -0.327326835354
< 1  0  -1  0 >:  0.133630620956
< 1  0  0  -1 >:  0.133630620956
< 1  0  1  -2 >:  -0.327326835354
< 1  1  -2  0 >:  0.377964473009
< 1  1  -1  -1 >:  -0.462910049886
< 1  1  0  -2 >:  0.377964473009
ctilde_basis_func: rank=4 ndens=1 mu0=0 mu=(  0  0  0  0  )
n=( 1  2  2  2 )
l=( 0  0  0  0 )
num_ms=1
< 0  0  0  0 >:  1.000000000000
ctilde_basis_func: rank=4 ndens=1 mu0=0 mu=(  0  0  0  0  )
n=( 1  2  2  2 )
l=( 0  0  1  1 )
num_ms=3
< 0  0  -1  1 >:  0.577350269190
< 0  0  0  0 >:  -0.577350269190
< 0  0  1  -1 >:  0.577350269190
ctilde_basis_func: rank=4 ndens=1 mu0=0 mu=(  0  0  0  0  )
n=( 1  2  2  2 )
l=( 0  0  2  2 )
num_ms=5
< 0  0  -2  2 >:  0.447213595500
< 0  0  -1  1 >:  -0.447213595500
< 0  0  0  0 >:  0.447213595500
< 0  0  1  -1 >:  -0.447213595500
< 0  0  2  -2 >:  0.447213595500
ctilde_basis_func: rank=4 ndens=1 mu0=0 mu=(  0  0  0  0  )
n=( 1  2  2  2 )
l=( 1  1  1  1 )
num_ms=19
< -1  -1  1  1 >:  0.707106781187
< -1  0  0  1 >:  -0.353553390593
< -1  0  1  0 >:  -0.353553390593
< -1  1  -1  1 >:  0.353553390593
< -1  1  0  0 >:  0.000000000000
< -1  1  1  -1 >:  0.353553390593
< 0  -1  0  1 >:  -0.353553390593
< 0  -1  1  0 >:  -0.353553390593
< 0  0  -1  1 >:  0.000000000000
< 0  0  0  0 >:  0.707106781187
< 0  0  1  -1 >:  0.000000000000
< 0  1  -1  0 >:  -0.353553390593
< 0  1  0  -1 >:  -0.353553390593
< 1  -1  -1  1 >:  0.353553390593
< 1  -1  0  0 >:  0.000000000000
< 1  -1  1  -1 >:  0.353553390593
< 1  0  -1  0 >:  -0.353553390593
< 1  0  0  -1 >:  -0.353553390593
< 1  1  -1  -1 >:  0.707106781187
ctilde_basis_func: rank=4 ndens=1 mu0=0 mu=(  0  0  0  0  )
n=( 1  2  2  2 )
l=( 1  1  2  2 )
num_ms=37
< -1  -1  0  2 >:  0.377964473009
< -1  -1  1  1 >:  -0.462910049886
< -1  -1  2  0 >:  0.377964473009
< -1  0  -1  2 >:  -0.327326835354
< -1  0  0  1 >:  0.133630620956
< -1  0  1  0 >:  0.133630620956
< -1  0  2  -1 >:  -0.327326835354
< -1  1  -2  2 >:  0.336877535797
< -1  1  -1  1 >:  -0.105422510854
< -1  1  0  0 >:  0.028270835873
< -1  1  1  -1 >:  -0.105422510854
< -1  1  2  -2 >:  0.336877535797
< 0  -1  -1  2 >:  -0.327326835354
< 0  -1  0  1 >:  0.133630620956
< 0  -1  1  0 >:  0.133630620956
< 0  -1  2  -1 >:  -0.327326835354
< 0  0  -2  2 >:  0.126032514089
< 0  0  -1  1 >:  0.336877535797
< 0  0  0  0 >:  -0.491180885759
< 0  0  1  -1 >:  0.336877535797
< 0  0  2  -2 >:  0.126032514089
< 0  1  -2  1 >:  -0.327326835354
< 0  1  -1  0 >:  0.133630620956
< 0  1  0  -1 >:  0.133630620956
< 0  1  1  -2 >:  -0.327326835354
< 1  -1  -2  2 >:  0.336877535797
< 1  -1  -1  1 >:  -0.105422510854
< 1  -1  0  0 >:  0.028270835873
< 1  -1  1  -1 >:  -0.105422510854
< 1  -1  2  -2 >:  0.336877535797
< 1  0  -2  1 >:  -0.327326835354
< 1  0  -1  0 >:  0.133630620956
< 1  0  0  -1 >:  0.133630620956
< 1  0  1  -2 >:  -0.327326835354
< 1  1  -2  0 >:  0.377964473009
< 1  1  -1  -1 >:  -0.462910049886
< 1  1  0  -2 >:  0.377964473009
ctilde_basis_func: rank=4 ndens=1 mu0=0 mu=(  0  0  0  0  )
n=( 1  2  2  2 )
l=( 2  2  2  2 )
num_ms=85
< -2  -2  2  2 >:  0.577350269190
< -2  -1  1  2 >:  -0.288675134595
< -2  -1  2  1 >:  -0.288675134595
< -2  0  0  2 >:  0.288675134595
< -2  0  1  1 >:  0.000000000000
< -2  0  2  0 >:  0.288675134595
< -2  1  -1  2 >:  -0.288675134595
< -2  1  0  1 >:  0.000000000000
< -2  1  1  0 >:  0.000000000000
< -2  1  2  -1 >:  -0.288675134595
< -2  2  -2  2 >:  0.288675134595
< -2  2  -1  1 >:  0.000000000000
< -2  2  0  0 >:  -0.000000000000
< -2  2  1  -1 >:  0.000000000000
< -2  2  2  -2 >:  0.288675134595
< -1  -2  1  2 >:  -0.288675134595
< -1  -2  2  1 >:  -0.288675134595
< -1  -1  0  2 >:  0.000000000000
< -1  -1  1  1 >:  0.577350269190
< -1  -1  2  0 >:  0.000000000000
< -1  0  -1  2 >:  0.000000000000
< -1  0  0  1 >:  -0.288675134595
< -1  0  1  0 >:  -0.288675134595
< -1  0  2  -1 >:  0.000000000000
< -1  1  -2  2 >:  0.000000000000
< -1  1  -1  1 >:  0.288675134595
< -1  1  0  0 >:  -0.000000000000
< -1  1  1  -1 >:  0.288675134595
< -1  1  2  -2 >:  0.000000000000
< -1  2  -2  1 >:  -0.288675134595
< -1  2  -1  0 >:  0.000000000000
< -1  2  0  -1 >:  0.000000000000
< -1  2  1  -2 >:  -0.288675134595
< 0  -2  0  2 >:  0.288675134595
< 0  -2  1  1 >:  0.000000000000
< 0  -2  2  0 >:  0.288675134595
< 0  -1  -1  2 >:  0.000000000000
< 0  -1  0  1 >:  -0.288675134595
< 0  -1  1  0 >:  -0.288675134595
< 0  -1  2  -1 >:  0.000000000000
< 0  0  -2  2 >:  -0.000000000000
< 0  0  -1  1 >:  -0.000000000000
< 0  0  0  0 >:  0.577350269190
< 0  0  1  -1 >:  -0.000000000000
< 0  0  2  -2 >:  -0.000000000000
< 0  1  -2  1 >:  0.000000000000
< 0  1  -1  0 >:  -0.288675134595
< 0  1  0  -1 >:  -0.288675134595
< 0  1  1  -2 >:  0.000000000000
< 0  2  -2  0 >:  0.288675134595
< 0  2  -1  -1 >:  0.000000000000
< 0  2  0  -2 >:  0.288675134595
< 1  -2  -1  2 >:  -0.288675134595
< 1  -2  0  1 >:  0.000000000000
< 1  -2  1  0 >:  0.000000000000
< 1  -2  2  -1 >:  -0.288675134595
< 1  -1  -2  2 >:  0.000000000000
< 1  -1  -1  1 >:  0.288675134595
< 1  -1  0  0 >:  -0.000000000000
< 1  -1  1  -1 >:  0.288675134595
< 1  -1  2  -2 >:  0.000000000000
< 1  0  -2  1 >:  0.000000000000
< 1  0  -1  0 >:  -0.288675134595
< 1  0  0  -1 >:  -0.288675134595
< 1  0  1  -2 >:  0.000000000000
< 1  1  -2  0 >:  0.000000000000
< 1  1  -1  -1 >:  0.577350269190
< 1  1  0  -2 >:  0.000000000000
< 1  2  -2  -1 >:  -0.288675134595
< 1  2  -1  -2 >:  -0.288675134595
< 2  -2  -2  2 >:  0.288675134595
< 2  -2  -1  1 >:  0.000000000000
< 2  -2  0  0 >:  -0.000000000000
< 2  -2  1  -1 >:  0.000000000000
< 2  -2  2  -2 >:  0.288675134595
< 2  -1  -2  1 >:  -0.288675134595
< 2  -1  -1  0 >:  0.000000000000
< 2  -1  0  -1 >:  0.000000000000
< 2  -1  1  -2 >:  -0.288675134595
< 2  0  -2  0 >:  0.288675134595
< 2  0  -1  -1 >:  0.000000000000
< 2  0  0  -2 >:  0.288675134595
< 2  1  -2  -1 >:  -0.288675134595
< 2  1  -1  -2 >:  -0.288675134595
< 2  2  -2  -2 >:  0.577350269190
ctilde_basis_func: rank=4 ndens=1 mu0=0 mu=(  0  0  0  0  )
n=( 2  2  1  1 )
l=( 0  0  1  1 )
num_ms=3
< 0  0  -1  1 >:  0.577350269190
< 0  0  0  0 >:  -0.577350269190
< 0  0  1  -1 >:  0.577350269190
ctilde_basis_func: rank=4 ndens=1 mu0=0 mu=(  0  0  0  0  )
n=( 2  2  1  1 )
l=( 0  0  2  2 )
num_ms=5
< 0  0  -2  2 >:  0.447213595500
< 0  0  -1  1 >:  -0.447213595500
< 0  0  0  0 >:  0.447213595500
< 0  0  1  -1 >:  -0.447213595500
< 0  0  2  -2 >:  0.447213595500
ctilde_basis_func: rank=4 ndens=1 mu0=0 mu=(  0  0  0  0  )
n=( 2  2  1  1 )
l=( 1  1  2  2 )
num_ms=37
< -1  -1  0  2 >:  0.377964473009
< -1  -1  1  1 >:  -0.462910049886
< -1  -1  2  0 >:  0.377964473009
< -1  0  -1  2 >:  -0.327326835354
< -1  0  0  1 >:  0.133630620956
< -1  0  1  0 >:  0.133630620956
< -1  0  2  -1 >:  -0.327326835354
< -1  1  -2  2 >:  0.336877535797
< -1  1  -1  1 >:  -0.105422510854
< -1  1  0  0 >:  0.028270835873
< -1  1  1  -1 >:  -0.105422510854
< -1  1  2  -2 >:  0.336877535797
< 0  -1  -1  2 >:  -0.327326835354
< 0  -1  0  1 >:  0.133630620956
< 0  -1  1  0 >:  0.133630620956
< 0  -1  2  -1 >:  -0.327326835354
< 0  0  -2  2 >:  0.126032514089
< 0  0  -1  1 >:  0.336877535797
< 0  0  0  0 >:  -0.491180885759
< 0  0  1  -1 >:  0.336877535797
< 0  0  2  -2 >:  0.126032514089
< 0  1  -2  1 >:  -0.327326835354
< 0  1  -1  0 >:  0.133630620956
< 0  1  0  -1 >:  0.133630620956
< 0  1  1  -2 >:  -0.327326835354
< 1  -1  -2  2 >:  0.336877535797
< 1  -1  -1  1 >:  -0.105422510854
< 1  -1  0  0 >:  0.028270835873
< 1  -1  1  -1 >:  -0.105422510854
< 1  -1  2  -2 >:  0.336877535797
< 1  0  -2  1 >:  -0.327326835354
< 1  0  -1  0 >:  0.133630620956
< 1  0  0  -1 >:  0.133630620956
< 1  0  1  -2 >:  -0.327326835354
< 1  1  -2  0 >:  0.377964473009
< 1  1  -1  -1 >:  -0.462910049886
< 1  1  0  -2 >:  0.377964473009
ctilde_basis_func: rank=4 ndens=1 mu0=0 mu=(  0  0  0  0  )
n=( 2  2  1  2 )
l=( 0  0  1  1 )
num_ms=3
< 0  0  -1  1 >:  0.577350269190
< 0  0  0  0 >:  -0.577350269190
< 0  0  1  -1 >:  0.577350269190
ctilde_basis_func: rank=4 ndens=1 mu0=0 mu=(  0  0  0  0  )
n=( 2  2  1  2 )
l=( 0  0  2  2 )
num_ms=5
< 0  0  -2  2 >:  0.447213595500
< 0  0  -1  1 >:  -0.447213595500
< 0  0  0  0 >:  0.447213595500
< 0  0  1  -1 >:  -0.447213595500
< 0  0  2  -2 >:  0.447213595500
ctilde_basis_func: rank=4 ndens=1 mu0=0 mu=(  0  0  0  0  )
n=( 2  2  1  2 )
l=( 1  1  2  2 )
num_ms=37
< -1  -1  0  2 >:  0.377964473009
< -1  -1  1  1 >:  -0.462910049886
< -1  -1  2  0 >:  0.377964473009
< -1  0  -1  2 >:  -0.327326835354
< -1  0  0  1 >:  0.133630620956
< -1  0  1  0 >:  0.133630620956
< -1  0  2  -1 >:  -0.327326835354
< -1  1  -2  2 >:  0.336877535797
< -1  1  -1  1 >:  -0.105422510854
< -1  1  0  0 >:  0.028270835873
< -1  1  1  -1 >:  -0.105422510854
< -1  1  2  -2 >:  0.336877535797
< 0  -1  -1  2 >:  -0.327326835354
< 0  -1  0  1 >:  0.133630620956
< 0  -1  1  0 >:  0.133630620956
< 0  -1  2  -1 >:  -0.327326835354
< 0  0  -2  2 >:  0.126032514089
< 0  0  -1  1 >:  0.336877535797
< 0  0  0  0 >:  -0.491180885759
< 0  0  1  -1 >:  0.336877535797
< 0  0  2  -2 >:  0.126032514089
< 0  1  -2  1 >:  -0.327326835354
< 0  1  -1  0 >:  0.133630620956
< 0  1  0  -1 >:  0.133630620956
< 0  1  1  -2 >:  -0.327326835354
< 1  -1  -2  2 >:  0.336877535797
< 1  -1  -1  1 >:  -0.105422510854
< 1  -1  0  0 >:  0.028270835873
< 1  -1  1  -1 >:  -0.105422510854
< 1  -1  2  -2 >:  0.336877535797
< 1  0  -2  1 >:  -0.327326835354
< 1  0  -1  0 >:  0.133630620956
< 1  0  0  -1 >:  0.133630620956
< 1  0  1  -2 >:  -0.327326835354
< 1  1  -2  0 >:  0.377964473009
< 1  1  -1  -1 >:  -0.462910049886
< 1  1  0  -2 >:  0.377964473009
ctilde_basis_func: rank=4 ndens=1 mu0=0 mu=(  0  0  0  0  )
n=( 2  2  2  2 )
l=( 0  0  0  0 )
num_ms=1
< 0  0  0  0 >:  1.000000000000
ctilde_basis_func: rank=4 ndens=1 mu0=0 mu=(  0  0  0  0  )
n=( 2  2  2  2 )
l=( 0  0  1  1 )
num_ms=3
< 0  0  -1  1 >:  0.577350269190
< 0  0  0  0 >:  -0.577350269190
< 0  0  1  -1 >:  0.577350269190
ctilde_basis_func: rank=4 ndens=1 mu0=0 mu=(  0  0  0  0  )
n=( 2  2  2  2 )
l=( 0  0  2  2 )
num_ms=5
< 0  0  -2  2 >:  0.447213595500
< 0  0  -1  1 >:  -0.447213595500
< 0  0  0  0 >:  0.447213595500
< 0  0  1  -1 >:  -0.447213595500
< 0  0  2  -2 >:  0.447213595500
ctilde_basis_func: rank=4 ndens=1 mu0=0 mu=(  0  0  0  0  )
n=( 2  2  2  2 )
l=( 1  1  1  1 )
num_ms=19
< -1  -1  1  1 >:  0.707106781187
< -1  0  0  1 >:  -0.353553390593
< -1  0  1  0 >:  -0.353553390593
< -1  1  -1  1 >:  0.353553390593
< -1  1  0  0 >:  0.000000000000
< -1  1  1  -1 >:  0.353553390593
< 0  -1  0  1 >:  -0.353553390593
< 0  -1  1  0 >:  -0.353553390593
< 0  0  -1  1 >:  0.000000000000
< 0  0  0  0 >:  0.707106781187
< 0  0  1  -1 >:  0.000000000000
< 0  1  -1  0 >:  -0.353553390593
< 0  1  0  -1 >:  -0.353553390593
< 1  -1  -1  1 >:  0.353553390593
< 1  -1  0  0 >:  0.000000000000
< 1  -1  1  -1 >:  0.353553390593
< 1  0  -1  0 >:  -0.353553390593
< 1  0  0  -1 >:  -0.353553390593
< 1  1  -1  -1 >:  0.707106781187
ctilde_basis_func: rank=4 ndens=1 mu0=0 mu=(  0  0  0  0  )
n=( 2  2  2  2 )
l=( 1  1  2  2 )
num_ms=37
< -1  -1  0  2 >:  0.377964473009
< -1  -1  1  1 >:  -0.462910049886
< -1  -1  2  0 >:  0.377964473009
< -1  0  -1  2 >:  -0.327326835354
< -1  0  0  1 >:  0.133630620956
< -1  0  1  0 >:  0.133630620956
< -1  0  2  -1 >:  -0.327326835354
< -1  1  -2  2 >:  0.336877535797
< -1  1  -1  1 >:  -0.105422510854
< -1  1  0  0 >:  0.028270835873
< -1  1  1  -1 >:  -0.105422510854
< -1  1  2  -2 >:  0.336877535797
< 0  -1  -1  2 >:  -0.327326835354
< 0  -1  0  1 >:  0.133630620956
< 0  -1  1  0 >:  0.133630620956
< 0  -1  2  -1 >:  -0.327326835354
< 0  0  -2  2 >:  0.126032514089
< 0  0  -1  1 >:  0.336877535797
< 0  0  0  0 >:  -0.491180885759
< 0  0  1  -1 >:  0.336877535797
< 0  0  2  -2 >:  0.126032514089
< 0  1  -2  1 >:  -0.327326835354
< 0  1  -1  0 >:  0.133630620956
< 0  1  0  -1 >:  0.133630620956
< 0  1  1  -2 >:  -0.327326835354
< 1  -1  -2  2 >:  0.336877535797
< 1  -1  -1  1 >:  -0.105422510854
< 1  -1  0  0 >:  0.028270835873
< 1  -1  1  -1 >:  -0.105422510854
< 1  -1  2  -2 >:  0.336877535797
< 1  0  -2  1 >:  -0.327326835354
< 1  0  -1  0 >:  0.133630620956
< 1  0  0  -1 >:  0.133630620956
< 1  0  1  -2 >:  -0.327326835354
< 1  1  -2  0 >:  0.377964473009
< 1  1  -1  -1 >:  -0.462910049886
< 1  1  0  -2 >:  0.377964473009
ctilde_basis_func: rank=4 ndens=1 mu0=0 mu=(  0  0  0  0  )
n=( 2  2  2  2 )
l=( 2  2  2  2 )
num_ms=85
< -2  -2  2  2 >:  0.577350269190
< -2  -1  1  2 >:  -0.288675134595
< -2  -1  2  1 >:  -0.288675134595
< -2  0  0  2 >:  0.288675134595
< -2  0  1  1 >:  0.000000000000
< -2  0  2  0 >:  0.288675134595
< -2  1  -1  2 >:  -0.288675134595
< -2  1  0  1 >:  0.000000000000
< -2  1  1  0 >:  0.000000000000
< -2  1  2  -1 >:  -0.288675134595
< -2  2  -2  2 >:  0.288675134595
< -2  2  -1  1 >:  0.000000000000
< -2  2  0  0 >:  -0.000000000000
< -2  2  1  -1 >:  0.000000000000
< -2  2  2  -2 >:  0.288675134595
< -1  -2  1  2 >:  -0.288675134595
< -1  -2  2  1 >:  -0.288675134595
< -1  -1  0  2 >:  0.000000000000
< -1  -1  1  1 >:  0.577350269190
< -1  -1  2  0 >:  0.000000000000
< -1  0  -1  2 >:  0.000000000000
< -1  0  0  1 >:  -0.288675134595
< -1  0  1  0 >:  -0.288675134595
< -1  0  2  -1 >:  0.000000000000
< -1  1  -2  2 >:  0.000000000000
< -1  1  -1  1 >:  0.288675134595
< -1  1  0  0 >:  -0.000000000000
< -1  1  1  -1 >:  0.288675134595
< -1  1  2  -2 >:  0.000000000000
< -1  2  -2  1 >:  -0.288675134595
< -1  2  -1  0 >:  0.000000000000
< -1  2  0  -1 >:  0.000000000000
< -1  2  1  -2 >:  -0.288675134595
< 0  -2  0  2 >:  0.288675134595
< 0  -2  1  1 >:  0.000000000000
< 0  -2  2  0 >:  0.288675134595
< 0  -1  -1  2 >:  0.000000000000
< 0  -1  0  1 >:  -0.288675134595
< 0  -1  1  0 >:  -0.288675134595
< 0  -1  2  -1 >:  0.000000000000
< 0  0  -2  2 >:  -0.000000000000
< 0  0  -1  1 >:  -0.000000000000
< 0  0  0  0 >:  0.577350269190
< 0  0  1  -1 >:  -0.000000000000
< 0  0  2  -2 >:  -0.000000000000
< 0  1  -2  1 >:  0.000000000000
< 0  1  -1  0 >:  -0.288675134595
< 0  1  0  -1 >:  -0.288675134595
< 0  1  1  -2 >:  0.000000000000
< 0  2  -2  0 >:  0.288675134595
< 0  2  -1  -1 >:  0.000000000000
< 0  2  0  -2 >:  0.288675134595
< 1  -2  -1  2 >:  -0.288675134595
< 1  -2  0  1 >:  0.000000000000
< 1  -2  1  0 >:  0.000000000000
< 1  -2  2  -1 >:  -0.288675134595
< 1  -1  -2  2 >:  0.000000000000
< 1  -1  -1  1 >:  0.288675134595
< 1  -1  0  0 >:  -0.000000000000
< 1  -1  1  -1 >:  0.288675134595
< 1  -1  2  -2 >:  0.000000000000
< 1  0  -2  1 >:  0.000000000000
< 1  0  -1  0 >:  -0.288675134595
< 1  0  0  -1 >:  -0.288675134595
< 1  0  1  -2 >:  0.000000000000
< 1  1  -2  0 >:  0.000000000000
< 1  1  -1  -1 >:  0.577350269190
< 1  1  0  -2 >:  0.000000000000
< 1  2  -2  -1 >:  -0.288675134595
< 1  2  -1  -2 >:  -0.288675134595
< 2  -2  -2  2 >:  0.288675134595
< 2  -2  -1  1 >:  0.000000000000
< 2  -2  0  0 >:  -0.000000000000
< 2  -2  1  -1 >:  0.000000000000
< 2  -2  2  -2 >:  0.288675134595
< 2  -1  -2  1 >:  -0.288675134595
< 2  -1  -1  0 >:  0.000000000000
< 2  -1  0  -1 >:  0.000000000000
< 2  -1  1  -2 >:  -0.288675134595
< 2  0  -2  0 >:  0.288675134595
< 2  0  -1  -1 >:  0.000000000000
< 2  0  0  -2 >:  0.288675134595
< 2  1  -2  -1 >:  -0.288675134595
< 2  1  -1  -2 >:  -0.288675134595
< 2  2  -2  -2 >:  0.577350269190
ctilde_basis_func: rank=5 ndens=1 mu0=0 mu=(  0  0  0  0  0  )
n=( 1  1  1  1  1 )
l=( 0  0  0  0  0 )
num_ms=1
< 0  0  0  0  0 >:  1.000000000000
ctilde_basis_func: rank=5 ndens=1 mu0=0 mu=(  0  0  0  0  0  )
n=( 1  1  1  1  1 )
l=( 0  0  0  1  1 )
num_ms=3
< 0  0  0  -1  1 >:  0.577350269190
< 0  0  0  0  0 >:  -0.577350269190
< 0  0  0  1  -1 >:  0.577350269190
ctilde_basis_func: rank=5 ndens=1 mu0=0 mu=(  0  0  0  0  0  )
n=( 1  1  1  1  1 )
l=( 0  0  0  2  2 )
num_ms=5
< 0  0  0  -2  2 >:  0.447213595500
< 0  0  0  -1  1 >:  -0.447213595500
< 0  0  0  0  0 >:  0.447213595500
< 0  0  0  1  -1 >:  -0.447213595500
< 0  0  0  2  -2 >:  0.447213595500
ctilde_basis_func: rank=5 ndens=1 mu0=0 mu=(  0  0  0  0  0  )
n=( 1  1  1  1  1 )
l=( 1  1  1  1  2 )
num_ms=71
< -1  -1  -1  1  2 >:  -1.000000000000
< -1  -1  0  0  2 >:  0.333333333333
< -1  -1  0  1  1 >:  0.471404520791
< -1  -1  1  -1  2 >:  -0.066666666667
< -1  -1  1  0  1 >:  -0.188561808316
< -1  -1  1  1  0 >:  -0.163299316186
< -1  0  -1  0  2 >:  0.333333333333
< -1  0  -1  1  1 >:  0.471404520791
< -1  0  0  -1  2 >:  -0.133333333333
< -1  0  0  0  1 >:  -0.377123616633
< -1  0  0  1  0 >:  -0.326598632371
< -1  0  1  -1  1 >:  0.141421356237
< -1  0  1  0  0 >:  0.244948974278
< -1  0  1  1  -1 >:  0.141421356237
< -1  1  -1  -1  2 >:  -0.066666666667
< -1  1  -1  0  1 >:  -0.188561808316
< -1  1  -1  1  0 >:  -0.163299316186
< -1  1  0  -1  1 >:  0.141421356237
< -1  1  0  0  0 >:  0.244948974278
< -1  1  0  1  -1 >:  0.141421356237
< -1  1  1  -1  0 >:  -0.163299316186
< -1  1  1  0  -1 >:  -0.188561808316
< -1  1  1  1  -2 >:  -0.066666666667
< 0  -1  -1  0  2 >:  0.333333333333
< 0  -1  -1  1  1 >:  0.471404520791
< 0  -1  0  -1  2 >:  -0.133333333333
< 0  -1  0  0  1 >:  -0.377123616633
< 0  -1  0  1  0 >:  -0.326598632371
< 0  -1  1  -1  1 >:  0.141421356237
< 0  -1  1  0  0 >:  0.244948974278
< 0  -1  1  1  -1 >:  0.141421356237
< 0  0  -1  -1  2 >:  -0.133333333333
< 0  0  -1  0  1 >:  -0.377123616633
< 0  0  -1  1  0 >:  -0.326598632371
< 0  0  0  -1  1 >:  0.282842712475
< 0  0  0  0  0 >:  0.489897948557
< 0  0  0  1  -1 >:  0.282842712475
< 0  0  1  -1  0 >:  -0.326598632371
< 0  0  1  0  -1 >:  -0.377123616633
< 0  0  1  1  -2 >:  -0.133333333333
< 0  1  -1  -1  1 >:  0.141421356237
< 0  1  -1  0  0 >:  0.244948974278
< 0  1  -1  1  -1 >:  0.141421356237
< 0  1  0  -1  0 >:  -0.326598632371
< 0  1  0  0  -1 >:  -0.377123616633
< 0  1  0  1  -2 >:  -0.133333333333
< 0  1  1  -1  -1 >:  0.471404520791
< 0  1  1  0  -2 >:  0.333333333333
< 1  -1  -1  -1  2 >:  -0.066666666667
< 1  -1  -1  0  1 >:  -0.188561808316
< 1  -1  -1  1  0 >:  -0.163299316186
< 1  -1  0  -1  1 >:  0.141421356237
< 1  -1  0  0  0 >:  0.244948974278
< 1  -1  0  1  -1 >:  0.141421356237
< 1  -1  1  -1  0 >:  -0.163299316186
< 1  -1  1  0  -1 >:  -0.188561808316
< 1  -1  1  1  -2 >:  -0.066666666667
< 1  0  -1  -1  1 >:  0.141421356237
< 1  0  -1  0  0 >:  0.244948974278
< 1  0  -1  1  -1 >:  0.141421356237
< 1  0  0  -1  0 >:  -0.326598632371
< 1  0  0  0  -1 >:  -0.377123616633
< 1  0  0  1  -2 >:  -0.133333333333
< 1  0  1  -1  -1 >:  0.471404520791
< 1  0  1  0  -2 >:  0.333333333333
< 1  1  -1  -1  0 >:  -0.163299316186
< 1  1  -1  0  -1 >:  -0.188561808316
< 1  1  -1  1  -2 >:  -0.066666666667
< 1  1  0  -1  -1 >:  0.471404520791
< 1  1  0  0  -2 >:  0.333333333333
< 1  1  1  -1  -2 >:  -1.000000000000
ctilde_basis_func: rank=5 ndens=1 mu0=0 mu=(  0  0  0  0  0  )
n=( 1  1  1  1  1 )
l=( 1  1  2  2  2 )
num_ms=159
< -1  -1  -2  2  2 >:  0.577350269190
< -1  -1  -1  1  2 >:  -0.288675134595
< -1  -1  -1  2  1 >:  -0.288675134595
< -1  -1  0  0  2 >:  0.288675134595
< -1  -1  0  1  1 >:  0.000000000000
< -1  -1  0  2  0 >:  0.288675134595
< -1  -1  1  -1  2 >:  -0.288675134595
< -1  -1  1  0  1 >:  0.000000000000
< -1  -1  1  1  0 >:  0.000000000000
< -1  -1  1  2  -1 >:  -0.288675134595
< -1  -1  2  -2  2 >:  0.288675134595
< -1  -1  2  -1  1 >:  0.000000000000
< -1  -1  2  0  0 >:  -0.000000000000
< -1  -1  2  1  -1 >:  0.000000000000
< -1  -1  2  2  -2 >:  0.288675134595
< -1  0  -2  1  2 >:  -0.204124145232
< -1  0  -2  2  1 >:  -0.204124145232
< -1  0  -1  0  2 >:  0.000000000000
< -1  0  -1  1  1 >:  0.408248290464
< -1  0  -1  2  0 >:  0.000000000000
< -1  0  0  -1  2 >:  0.000000000000
< -1  0  0  0  1 >:  -0.204124145232
< -1  0  0  1  0 >:  -0.204124145232
< -1  0  0  2  -1 >:  0.000000000000
< -1  0  1  -2  2 >:  0.000000000000
< -1  0  1  -1  1 >:  0.204124145232
< -1  0  1  0  0 >:  0.000000000000
< -1  0  1  1  -1 >:  0.204124145232
< -1  0  1  2  -2 >:  0.000000000000
< -1  0  2  -2  1 >:  -0.204124145232
< -1  0  2  -1  0 >:  0.000000000000
< -1  0  2  0  -1 >:  0.000000000000
< -1  0  2  1  -2 >:  -0.204124145232
< -1  1  -2  0  2 >:  0.117851130198
< -1  1  -2  1  1 >:  -0.000000000000
< -1  1  -2  2  0 >:  0.117851130198
< -1  1  -1  -1  2 >:  0.000000000000
< -1  1  -1  0  1 >:  -0.117851130198
< -1  1  -1  1  0 >:  -0.117851130198
< -1  1  -1  2  -1 >:  0.000000000000
< -1  1  0  -2  2 >:  0.000000000000
< -1  1  0  -1  1 >:  0.000000000000
< -1  1  0  0  0 >:  0.235702260396
< -1  1  0  1  -1 >:  0.000000000000
< -1  1  0  2  -2 >:  0.000000000000
< -1  1  1  -2  1 >:  0.000000000000
< -1  1  1  -1  0 >:  -0.117851130198
< -1  1  1  0  -1 >:  -0.117851130198
< -1  1  1  1  -2 >:  0.000000000000
< -1  1  2  -2  0 >:  0.117851130198
< -1  1  2  -1  -1 >:  -0.000000000000
< -1  1  2  0  -2 >:  0.117851130198
< 0  -1  -2  1  2 >:  -0.204124145232
< 0  -1  -2  2  1 >:  -0.204124145232
< 0  -1  -1  0  2 >:  0.000000000000
< 0  -1  -1  1  1 >:  0.408248290464
< 0  -1  -1  2  0 >:  0.000000000000
< 0  -1  0  -1  2 >:  0.000000000000
< 0  -1  0  0  1 >:  -0.204124145232
< 0  -1  0  1  0 >:  -0.204124145232
< 0  -1  0  2  -1 >:  0.000000000000
< 0  -1  1  -2  2 >:  0.000000000000
< 0  -1  1  -1  1 >:  0.204124145232
< 0  -1  1  0  0 >:  0.000000000000
< 0  -1  1  1  -1 >:  0.204124145232
< 0  -1  1  2  -2 >:  0.000000000000
< 0  -1  2  -2  1 >:  -0.204124145232
< 0  -1  2  -1  0 >:  0.000000000000
< 0  -1  2  0  -1 >:  0.000000000000
< 0  -1  2  1  -2 >:  -0.204124145232
< 0  0  -2  0  2 >:  0.235702260396
< 0  0  -2  1  1 >:  -0.000000000000
< 0  0  -2  2  0 >:  0.235702260396
< 0  0  -1  -1  2 >:  0.000000000000
< 0  0  -1  0  1 >:  -0.235702260396
< 0  0  -1  1  0 >:  -0.235702260396
< 0  0  -1  2  -1 >:  0.000000000000
< 0  0  0  -2  2 >:  0.000000000000
< 0  0  0  -1  1 >:  0.000000000000
< 0  0  0  0  0 >:  0.471404520791
< 0  0  0  1  -1 >:  0.000000000000
< 0  0  0  2  -2 >:  0.000000000000
< 0  0  1  -2  1 >:  0.000000000000
< 0  0  1  -1  0 >:  -0.235702260396
< 0  0  1  0  -1 >:  -0.235702260396
< 0  0  1  1  -2 >:  0.000000000000
< 0  0  2  -2  0 >:  0.235702260396
< 0  0  2  -1  -1 >:  -0.000000000000
< 0  0  2  0  -2 >:  0.235702260396
< 0  1  -2  -1  2 >:  -0.204124145232
< 0  1  -2  0  1 >:  0.000000000000
< 0  1  -2  1  0 >:  0.000000000000
< 0  1  -2  2  -1 >:  -0.204124145232
< 0  1  -1  -2  2 >:  0.000000000000
< 0  1  -1  -1  1 >:  0.204124145232
< 0  1  -1  0  0 >:  0.000000000000
< 0  1  -1  1  -1 >:  0.204124145232
< 0  1  -1  2  -2 >:  0.000000000000
< 0  1  0  -2  1 >:  0.000000000000
< 0  1  0  -1  0 >:  -0.204124145232
< 0  1  0  0  -1 >:  -0.204124145232
< 0  1  0  1  -2 >:  0.000000000000
< 0  1  1  -2  0 >:  0.000000000000
< 0  1  1  -1  -1 >:  0.408248290464
< 0  1  1  0  -2 >:  0.000000000000
< 0  1  2  -2  -1 >:  -0.204124145232
< 0  1  2  -1  -2 >:  -0.204124145232
< 1  -1  -2  0  2 >:  0.117851130198
< 1  -1  -2  1  1 >:  -0.000000000000
< 1  -1  -2  2  0 >:  0.117851130198
< 1  -1  -1  -1  2 >:  0.000000000000
< 1  -1  -1  0  1 >:  -0.117851130198
< 1  -1  -1  1  0 >:  -0.117851130198
< 1  -1  -1  2  -1 >:  0.000000000000
< 1  -1  0  -2  2 >:  0.000000000000
< 1  -1  0  -1  1 >:  0.000000000000
< 1  -1  0  0  0 >:  0.235702260396
< 1  -1  0  1  -1 >:  0.000000000000
< 1  -1  0  2  -2 >:  0.000000000000
< 1  -1  1  -2  1 >:  0.000000000000
< 1  -1  1  -1  0 >:  -0.117851130198
< 1  -1  1  0  -1 >:  -0.117851130198
< 1  -1  1  1  -2 >:  0.000000000000
< 1  -1  2  -2  0 >:  0.117851130198
< 1  -1  2  -1  -1 >:  -0.000000000000
< 1  -1  2  0  -2 >:  0.117851130198
< 1  0  -2  -1  2 >:  -0.204124145232
< 1  0  -2  0  1 >:  0.000000000000
< 1  0  -2  1  0 >:  0.000000000000
< 1  0  -2  2  -1 >:  -0.204124145232
< 1  0  -1  -2  2 >:  0.000000000000
< 1  0  -1  -1  1 >:  0.204124145232
< 1  0  -1  0  0 >:  0.000000000000
< 1  0  -1  1  -1 >:  0.204124145232
< 1  0  -1  2  -2 >:  0.000000000000
< 1  0  0  -2  1 >:  0.000000000000
< 1  0  0  -1  0 >:  -0.204124145232
< 1  0  0  0  -1 >:  -0.204124145232
< 1  0  0  1  -2 >:  0.000000000000
< 1  0  1  -2  0 >:  0.000000000000
< 1  0  1  -1  -1 >:  0.408248290464
< 1  0  1  0  -2 >:  0.000000000000
< 1  0  2  -2  -1 >:  -0.204124145232
< 1  0  2  -1  -2 >:  -0.204124145232
< 1  1  -2  -2  2 >:  0.288675134595
< 1  1  -2  -1  1 >:  0.000000000000
< 1  1  -2  0  0 >:  -0.000000000000
< 1  1  -2  1  -1 >:  0.000000000000
< 1  1  -2  2  -2 >:  0.288675134595
< 1  1  -1  -2  1 >:  -0.288675134595
< 1  1  -1  -1  0 >:  0.000000000000
< 1  1  -1  0  -1 >:  0.000000000000
< 1  1  -1  1  -2 >:  -0.288675134595
< 1  1  0  -2  0 >:  0.288675134595
< 1  1  0  -1  -1 >:  0.000000000000
< 1  1  0  0  -2 >:  0.288675134595
< 1  1  1  -2  -1 >:  -0.288675134595
< 1  1  1  -1  -2 >:  -0.288675134595
< 1  1  2  -2  -2 >:  0.577350269190
ctilde_basis_func: rank=5 ndens=1 mu0=0 mu=(  0  0  0  0  0  )
n=( 1  1  1  1  1 )
l=( 2  2  2  2  2 )
num_ms=381
< -2  -2  0  2  2 >:  0.319089614087
< -2  -2  1  1  2 >:  -0.195401684184
< -2  -2  1  2  1 >:  -0.195401684184
< -2  -2  2  0  2 >:  0.068376345876
< -2  -2  2  1  1 >:  0.111658105248
< -2  -2  2  2  0 >:  0.068376345876
< -2  -1  -1  2  2 >:  -0.195401684184
< -2  -1  0  1  2 >:  -0.039886201761
< -2  -1  0  2  1 >:  -0.039886201761
< -2  -1  1  0  2 >:  0.085470432345
< -2  -1  1  1  1 >:  0.139572631560
< -2  -1  1  2  0 >:  0.085470432345
< -2  -1  2  -1  2 >:  -0.041871789468
< -2  -1  2  0  1 >:  -0.102564518814
< -2  -1  2  1  0 >:  -0.102564518814
< -2  -1  2  2  -1 >:  -0.041871789468
< -2  0  -2  2  2 >:  0.307422067743
< -2  0  -1  1  2 >:  -0.034052428589
< -2  0  -1  2  1 >:  -0.034052428589
< -2  0  0  0  2 >:  0.099986762112
< -2  0  0  1  1 >:  -0.031902315785
< -2  0  0  2  0 >:  0.099986762112
< -2  0  1  -1  2 >:  -0.141500972108
< -2  0  1  0  1 >:  -0.053835157887
< -2  0  1  1  0 >:  -0.053835157887
< -2  0  1  2  -1 >:  -0.141500972108
< -2  0  2  -2  2 >:  0.134174935050
< -2  0  2  -1  1 >:  0.058608296465
< -2  0  2  0  0 >:  0.087912444697
< -2  0  2  1  -1 >:  0.058608296465
< -2  0  2  2  -2 >:  0.134174935050
< -2  1  -2  1  2 >:  -0.188256800410
< -2  1  -2  2  1 >:  -0.188256800410
< -2  1  -1  0  2 >:  -0.021978111174
< -2  1  -1  1  1 >:  0.256879916626
< -2  1  -1  2  0 >:  -0.021978111174
< -2  1  0  -1  2 >:  0.013838069999
< -2  1  0  0  1 >:  -0.112488800421
< -2  1  0  1  0 >:  -0.112488800421
< -2  1  0  2  -1 >:  0.013838069999
< -2  1  1  -2  2 >:  0.001993894737
< -2  1  1  -1  1 >:  0.154360589889
< -2  1  1  0  0 >:  0.011963368419
< -2  1  1  1  -1 >:  0.154360589889
< -2  1  1  2  -2 >:  0.001993894737
< -2  1  2  -2  1 >:  -0.166323958308
< -2  1  2  -1  0 >:  -0.048840247054
< -2  1  2  0  -1 >:  -0.048840247054
< -2  1  2  1  -2 >:  -0.166323958308
< -2  2  -2  0  2 >:  0.134174935050
< -2  2  -2  1  1 >:  0.023926736839
< -2  2  -2  2  0 >:  0.134174935050
< -2  2  -1  -1  2 >:  0.001993894737
< -2  2  -1  0  1 >:  -0.114638836228
< -2  2  -1  1  0 >:  -0.114638836228
< -2  2  -1  2  -1 >:  0.001993894737
< -2  2  0  -2  2 >:  -0.003256016470
< -2  2  0  -1  1 >:  -0.013024065881
< -2  2  0  0  0 >:  0.219509623045
< -2  2  0  1  -1 >:  -0.013024065881
< -2  2  0  2  -2 >:  -0.003256016470
< -2  2  1  -2  1 >:  0.001993894737
< -2  2  1  -1  0 >:  -0.114638836228
< -2  2  1  0  -1 >:  -0.114638836228
< -2  2  1  1  -2 >:  0.001993894737
< -2  2  2  -2  0 >:  0.134174935050
< -2  2  2  -1  -1 >:  0.023926736839
< -2  2  2  0  -2 >:  0.134174935050
< -1  -2  -1  2  2 >:  -0.195401684184
< -1  -2  0  1  2 >:  -0.039886201761
< -1  -2  0  2  1 >:  -0.039886201761
< -1  -2  1  0  2 >:  0.085470432345
< -1  -2  1  1  1 >:  0.139572631560
< -1  -2  1  2  0 >:  0.085470432345
< -1  -2  2  -1  2 >:  -0.041871789468
< -1  -2  2  0  1 >:  -0.102564518814
< -1  -2  2  1  0 >:  -0.102564518814
< -1  -2  2  2  -1 >:  -0.041871789468
< -1  -1  -2  2  2 >:  -0.181111916637
< -1  -1  -1  1  2 >:  0.285957642502
< -1  -1  -1  2  1 >:  0.285957642502
< -1  -1  0  0  2 >:  -0.178287326727
< -1  -1  0  1  1 >:  -0.052096263524
< -1  -1  0  2  0 >:  -0.178287326727
< -1  -1  1  -1  2 >:  0.110494905684
< -1  -1  1  0  1 >:  -0.087912444697
< -1  -1  1  1  0 >:  -0.087912444697
< -1  -1  1  2  -1 >:  0.110494905684
< -1  -1  2  -2  2 >:  -0.122458274103
< -1  -1  2  -1  1 >:  0.095706947355
< -1  -1  2  0  0 >:  0.143560421033
< -1  -1  2  1  -1 >:  0.095706947355
< -1  -1  2  2  -2 >:  -0.122458274103
< -1  0  -2  1  2 >:  -0.042803088347
< -1  0  -2  2  1 >:  -0.042803088347
< -1  0  -1  0  2 >:  -0.053835157887
< -1  0  -1  1  1 >:  -0.207435305631
< -1  0  -1  2  0 >:  -0.053835157887
< -1  0  0  -1  2 >:  0.033896210522
< -1  0  0  0  1 >:  0.142789850459
< -1  0  0  1  0 >:  0.142789850459
< -1  0  0  2  -1 >:  0.033896210522
< -1  0  1  -2  2 >:  0.004884024705
< -1  0  1  -1  1 >:  -0.040225331645
< -1  0  1  0  0 >:  0.029304148232
< -1  0  1  1  -1 >:  -0.040225331645
< -1  0  1  2  -2 >:  0.004884024705
< -1  0  2  -2  1 >:  0.010921183413
< -1  0  2  -1  0 >:  -0.119633684194
< -1  0  2  0  -1 >:  -0.119633684194
< -1  0  2  1  -2 >:  0.010921183413
< -1  1  -2  0  2 >:  0.118369726932
< -1  1  -2  1  1 >:  0.095706947355
< -1  1  -2  2  0 >:  0.118369726932
< -1  1  -1  -1  2 >:  0.007975578946
< -1  1  -1  0  1 >:  -0.040225331645
< -1  1  -1  1  0 >:  -0.040225331645
< -1  1  -1  2  -1 >:  0.007975578946
< -1  1  0  -2  2 >:  -0.013024065881
< -1  1  0  -1  1 >:  -0.052096263524
< -1  1  0  0  0 >:  0.041378465647
< -1  1  0  1  -1 >:  -0.052096263524
< -1  1  0  2  -2 >:  -0.013024065881
< -1  1  1  -2  1 >:  0.007975578946
< -1  1  1  -1  0 >:  -0.040225331645
< -1  1  1  0  -1 >:  -0.040225331645
< -1  1  1  1  -2 >:  0.007975578946
< -1  1  2  -2  0 >:  0.118369726932
< -1  1  2  -1  -1 >:  0.095706947355
< -1  1  2  0  -2 >:  0.118369726932
< -1  2  -2  -1  2 >:  -0.166323958308
< -1  2  -2  0  1 >:  -0.048840247054
< -1  2  -2  1  0 >:  -0.048840247054
< -1  2  -2  2  -1 >:  -0.166323958308
< -1  2  -1  -2  2 >:  0.001993894737
< -1  2  -1  -1  1 >:  0.154360589889
< -1  2  -1  0  0 >:  0.011963368419
< -1  2  -1  1  -1 >:  0.154360589889
< -1  2  -1  2  -2 >:  0.001993894737
< -1  2  0  -2  1 >:  0.013838069999
< -1  2  0  -1  0 >:  -0.112488800421
< -1  2  0  0  -1 >:  -0.112488800421
< -1  2  0  1  -2 >:  0.013838069999
< -1  2  1  -2  0 >:  -0.021978111174
< -1  2  1  -1  -1 >:  0.256879916626
< -1  2  1  0  -2 >:  -0.021978111174
< -1  2  2  -2  -1 >:  -0.188256800410
< -1  2  2  -1  -2 >:  -0.188256800410
< 0  -2  -2  2  2 >:  0.307422067743
< 0  -2  -1  1  2 >:  -0.034052428589
< 0  -2  -1  2  1 >:  -0.034052428589
< 0  -2  0  0  2 >:  0.099986762112
< 0  -2  0  1  1 >:  -0.031902315785
< 0  -2  0  2  0 >:  0.099986762112
< 0  -2  1  -1  2 >:  -0.141500972108
< 0  -2  1  0  1 >:  -0.053835157887
< 0  -2  1  1  0 >:  -0.053835157887
< 0  -2  1  2  -1 >:  -0.141500972108
< 0  -2  2  -2  2 >:  0.134174935050
< 0  -2  2  -1  1 >:  0.058608296465
< 0  -2  2  0  0 >:  0.087912444697
< 0  -2  2  1  -1 >:  0.058608296465
< 0  -2  2  2  -2 >:  0.134174935050
< 0  -1  -2  1  2 >:  -0.042803088347
< 0  -1  -2  2  1 >:  -0.042803088347
< 0  -1  -1  0  2 >:  -0.053835157887
< 0  -1  -1  1  1 >:  -0.207435305631
< 0  -1  -1  2  0 >:  -0.053835157887
< 0  -1  0  -1  2 >:  0.033896210522
< 0  -1  0  0  1 >:  0.142789850459
< 0  -1  0  1  0 >:  0.142789850459
< 0  -1  0  2  -1 >:  0.033896210522
< 0  -1  1  -2  2 >:  0.004884024705
< 0  -1  1  -1  1 >:  -0.040225331645
< 0  -1  1  0  0 >:  0.029304148232
< 0  -1  1  1  -1 >:  -0.040225331645
< 0  -1  1  2  -2 >:  0.004884024705
< 0  -1  2  -2  1 >:  0.010921183413
< 0  -1  2  -1  0 >:  -0.119633684194
< 0  -1  2  0  -1 >:  -0.119633684194
< 0  -1  2  1  -2 >:  0.010921183413
< 0  0  -2  0  2 >:  -0.031610416236
< 0  0  -2  1  1 >:  0.143560421033
< 0  0  -2  2  0 >:  -0.031610416236
< 0  0  -1  -1  2 >:  0.011963368419
< 0  0  -1  0  1 >:  0.148827009166
< 0  0  -1  1  0 >:  0.148827009166
< 0  0  -1  2  -1 >:  0.011963368419
< 0  0  0  -2  2 >:  -0.019536098822
< 0  0  0  -1  1 >:  -0.078144395287
< 0  0  0  0  0 >:  -0.356262314797
< 0  0  0  1  -1 >:  -0.078144395287
< 0  0  0  2  -2 >:  -0.019536098822
< 0  0  1  -2  1 >:  0.011963368419
< 0  0  1  -1  0 >:  0.148827009166
< 0  0  1  0  -1 >:  0.148827009166
< 0  0  1  1  -2 >:  0.011963368419
< 0  0  2  -2  0 >:  -0.031610416236
< 0  0  2  -1  -1 >:  0.143560421033
< 0  0  2  0  -2 >:  -0.031610416236
< 0  1  -2  -1  2 >:  0.010921183413
< 0  1  -2  0  1 >:  -0.119633684194
< 0  1  -2  1  0 >:  -0.119633684194
< 0  1  -2  2  -1 >:  0.010921183413
< 0  1  -1  -2  2 >:  0.004884024705
< 0  1  -1  -1  1 >:  -0.040225331645
< 0  1  -1  0  0 >:  0.029304148232
< 0  1  -1  1  -1 >:  -0.040225331645
< 0  1  -1  2  -2 >:  0.004884024705
< 0  1  0  -2  1 >:  0.033896210522
< 0  1  0  -1  0 >:  0.142789850459
< 0  1  0  0  -1 >:  0.142789850459
< 0  1  0  1  -2 >:  0.033896210522
< 0  1  1  -2  0 >:  -0.053835157887
< 0  1  1  -1  -1 >:  -0.207435305631
< 0  1  1  0  -2 >:  -0.053835157887
< 0  1  2  -2  -1 >:  -0.042803088347
< 0  1  2  -1  -2 >:  -0.042803088347
< 0  2  -2  -2  2 >:  0.134174935050
< 0  2  -2  -1  1 >:  0.058608296465
< 0  2  -2  0  0 >:  0.087912444697
< 0  2  -2  1  -1 >:  0.058608296465
< 0  2  -2  2  -2 >:  0.134174935050
< 0  2  -1  -2  1 >:  -0.141500972108
< 0  2  -1  -1  0 >:  -0.053835157887
< 0  2  -1  0  -1 >:  -0.053835157887
< 0  2  -1  1  -2 >:  -0.141500972108
< 0  2  0  -2  0 >:  0.099986762112
< 0  2  0  -1  -1 >:  -0.031902315785
< 0  2  0  0  -2 >:  0.099986762112
< 0  2  1  -2  -1 >:  -0.034052428589
< 0  2  1  -1  -2 >:  -0.034052428589
< 0  2  2  -2  -2 >:  0.307422067743
< 1  -2  -2  1  2 >:  -0.188256800410
< 1  -2  -2  2  1 >:  -0.188256800410
< 1  -2  -1  0  2 >:  -0.021978111174
< 1  -2  -1  1  1 >:  0.256879916626
< 1  -2  -1  2  0 >:  -0.021978111174
< 1  -2  0  -1  2 >:  0.013838069999
< 1  -2  0  0  1 >:  -0.112488800421
< 1  -2  0  1  0 >:  -0.112488800421
< 1  -2  0  2  -1 >:  0.013838069999
< 1  -2  1  -2  2 >:  0.001993894737
< 1  -2  1  -1  1 >:  0.154360589889
< 1  -2  1  0  0 >:  0.011963368419
< 1  -2  1  1  -1 >:  0.154360589889
< 1  -2  1  2  -2 >:  0.001993894737
< 1  -2  2  -2  1 >:  -0.166323958308
< 1  -2  2  -1  0 >:  -0.048840247054
< 1  -2  2  0  -1 >:  -0.048840247054
< 1  -2  2  1  -2 >:  -0.166323958308
< 1  -1  -2  0  2 >:  0.118369726932
< 1  -1  -2  1  1 >:  0.095706947355
< 1  -1  -2  2  0 >:  0.118369726932
< 1  -1  -1  -1  2 >:  0.007975578946
< 1  -1  -1  0  1 >:  -0.040225331645
< 1  -1  -1  1  0 >:  -0.040225331645
< 1  -1  -1  2  -1 >:  0.007975578946
< 1  -1  0  -2  2 >:  -0.013024065881
< 1  -1  0  -1  1 >:  -0.052096263524
< 1  -1  0  0  0 >:  0.041378465647
< 1  -1  0  1  -1 >:  -0.052096263524
< 1  -1  0  2  -2 >:  -0.013024065881
< 1  -1  1  -2  1 >:  0.007975578946
< 1  -1  1  -1  0 >:  -0.040225331645
< 1  -1  1  0  -1 >:  -0.040225331645
< 1  -1  1  1  -2 >:  0.007975578946
< 1  -1  2  -2  0 >:  0.118369726932
< 1  -1  2  -1  -1 >:  0.095706947355
< 1  -1  2  0  -2 >:  0.118369726932
< 1  0  -2  -1  2 >:  0.010921183413
< 1  0  -2  0  1 >:  -0.119633684194
< 1  0  -2  1  0 >:  -0.119633684194
< 1  0  -2  2  -1 >:  0.010921183413
< 1  0  -1  -2  2 >:  0.004884024705
< 1  0  -1  -1  1 >:  -0.040225331645
< 1  0  -1  0  0 >:  0.029304148232
< 1  0  -1  1  -1 >:  -0.040225331645
< 1  0  -1  2  -2 >:  0.004884024705
< 1  0  0  -2  1 >:  0.033896210522
< 1  0  0  -1  0 >:  0.142789850459
< 1  0  0  0  -1 >:  0.142789850459
< 1  0  0  1  -2 >:  0.033896210522
< 1  0  1  -2  0 >:  -0.053835157887
< 1  0  1  -1  -1 >:  -0.207435305631
< 1  0  1  0  -2 >:  -0.053835157887
< 1  0  2  -2  -1 >:  -0.042803088347
< 1  0  2  -1  -2 >:  -0.042803088347
< 1  1  -2  -2  2 >:  -0.122458274103
< 1  1  -2  -1  1 >:  0.095706947355
< 1  1  -2  0  0 >:  0.143560421033
< 1  1  -2  1  -1 >:  0.095706947355
< 1  1  -2  2  -2 >:  -0.122458274103
< 1  1  -1  -2  1 >:  0.110494905684
< 1  1  -1  -1  0 >:  -0.087912444697
< 1  1  -1  0  -1 >:  -0.087912444697
< 1  1  -1  1  -2 >:  0.110494905684
< 1  1  0  -2  0 >:  -0.178287326727
< 1  1  0  -1  -1 >:  -0.052096263524
< 1  1  0  0  -2 >:  -0.178287326727
< 1  1  1  -2  -1 >:  0.285957642502
< 1  1  1  -1  -2 >:  0.285957642502
< 1  1  2  -2  -2 >:  -0.181111916637
< 1  2  -2  -2  1 >:  -0.041871789468
< 1  2  -2  -1  0 >:  -0.102564518814
< 1  2  -2  0  -1 >:  -0.102564518814
< 1  2  -2  1  -2 >:  -0.041871789468
< 1  2  -1  -2  0 >:  0.085470432345
< 1  2  -1  -1  -1 >:  0.139572631560
< 1  2  -1  0  -2 >:  0.085470432345
< 1  2  0  -2  -1 >:  -0.039886201761
< 1  2  0  -1  -2 >:  -0.039886201761
< 1  2  1  -2  -2 >:  -0.195401684184
< 2  -2  -2  0  2 >:  0.134174935050
< 2  -2  -2  1  1 >:  0.023926736839
< 2  -2  -2  2  0 >:  0.134174935050
< 2  -2  -1  -1  2 >:  0.001993894737
< 2  -2  -1  0  1 >:  -0.114638836228
< 2  -2  -1  1  0 >:  -0.114638836228
< 2  -2  -1  2  -1 >:  0.001993894737
< 2  -2  0  -2  2 >:  -0.003256016470
< 2  -2  0  -1  1 >:  -0.013024065881
< 2  -2  0  0  0 >:  0.219509623045
< 2  -2  0  1  -1 >:  -0.013024065881
< 2  -2  0  2  -2 >:  -0.003256016470
< 2  -2  1  -2  1 >:  0.001993894737
< 2  -2  1  -1  0 >:  -0.114638836228
< 2  -2  1  0  -1 >:  -0.114638836228
< 2  -2  1  1  -2 >:  0.001993894737
< 2  -2  2  -2  0 >:  0.134174935050
< 2  -2  2  -1  -1 >:  0.023926736839
< 2  -2  2  0  -2 >:  0.134174935050
< 2  -1  -2  -1  2 >:  -0.166323958308
< 2  -1  -2  0  1 >:  -0.048840247054
< 2  -1  -2  1  0 >:  -0.048840247054
< 2  -1  -2  2  -1 >:  -0.166323958308
< 2  -1  -1  -2  2 >:  0.001993894737
< 2  -1  -1  -1  1 >:  0.154360589889
< 2  -1  -1  0  0 >:  0.011963368419
< 2  -1  -1  1  -1 >:  0.154360589889
< 2  -1  -1  2  -2 >:  0.001993894737
< 2  -1  0  -2  1 >:  0.013838069999
< 2  -1  0  -1  0 >:  -0.112488800421
< 2  -1  0  0  -1 >:  -0.112488800421
< 2  -1  0  1  -2 >:  0.013838069999
< 2  -1  1  -2  0 >:  -0.021978111174
< 2  -1  1  -1  -1 >:  0.256879916626
< 2  -1  1  0  -2 >:  -0.021978111174
< 2  -1  2  -2  -1 >:  -0.188256800410
< 2  -1  2  -1  -2 >:  -0.188256800410
< 2  0  -2  -2  2 >:  0.134174935050
< 2  0  -2  -1  1 >:  0.058608296465
< 2  0  -2  0  0 >:  0.087912444697
< 2  0  -2  1  -1 >:  0.058608296465
< 2  0  -2  2  -2 >:  0.134174935050
< 2  0  -1  -2  1 >:  -0.141500972108
< 2  0  -1  -1  0 >:  -0.053835157887
< 2  0  -1  0  -1 >:  -0.053835157887
< 2  0  -1  1  -2 >:  -0.141500972108
< 2  0  0  -2  0 >:  0.099986762112
< 2  0  0  -1  -1 >:  -0.031902315785
< 2  0  0  0  -2 >:  0.099986762112
< 2  0  1  -2  -1 >:  -0.034052428589
< 2  0  1  -1  -2 >:  -0.034052428589
< 2  0  2  -2  -2 >:  0.307422067743
< 2  1  -2  -2  1 >:  -0.041871789468
< 2  1  -2  -1  0 >:  -0.102564518814
< 2  1  -2  0  -1 >:  -0.102564518814
< 2  1  -2  1  -2 >:  -0.041871789468
< 2  1  -1  -2  0 >:  0.085470432345
< 2  1  -1  -1  -1 >:  0.139572631560
< 2  1  -1  0  -2 >:  0.085470432345
< 2  1  0  -2  -1 >:  -0.039886201761
< 2  1  0  -1  -2 >:  -0.039886201761
< 2  1  1  -2  -2 >:  -0.195401684184
< 2  2  -2  -2  0 >:  0.068376345876
< 2  2  -2  -1  -1 >:  0.111658105248
< 2  2  -2  0  -2 >:  0.068376345876
< 2  2  -1  -2  -1 >:  -0.195401684184
< 2  2  -1  -1  -2 >:  -0.195401684184
< 2  2  0  -2  -2 >:  0.319089614087
ctilde_basis_func: rank=5 ndens=1 mu0=0 mu=(  0  0  0  0  0  )
n=( 1  1  1  1  2 )
l=( 0  0  0  0  0 )
num_ms=1
< 0  0  0  0  0 >:  1.000000000000
ctilde_basis_func: rank=5 ndens=1 mu0=0 mu=(  0  0  0  0  0  )
n=( 1  1  1  1  2 )
l=( 0  0  0  1  1 )
num_ms=3
< 0  0  0  -1  1 >:  0.577350269190
< 0  0  0  0  0 >:  -0.577350269190
< 0  0  0  1  -1 >:  0.577350269190
ctilde_basis_func: rank=5 ndens=1 mu0=0 mu=(  0  0  0  0  0  )
n=( 1  1  1  1  2 )
l=( 0  0  0  2  2 )
num_ms=5
< 0  0  0  -2  2 >:  0.447213595500
< 0  0  0  -1  1 >:  -0.447213595500
< 0  0  0  0  0 >:  0.447213595500
< 0  0  0  1  -1 >:  -0.447213595500
< 0  0  0  2  -2 >:  0.447213595500
ctilde_basis_func: rank=5 ndens=1 mu0=0 mu=(  0  0  0  0  0  )
n=( 1  1  1  1  2 )
l=( 1  1  1  1  2 )
num_ms=71
< -1  -1  -1  1  2 >:  -1.000000000000
< -1  -1  0  0  2 >:  0.333333333333
< -1  -1  0  1  1 >:  0.471404520791
< -1  -1  1  -1  2 >:  -0.066666666667
< -1  -1  1  0  1 >:  -0.188561808316
< -1  -1  1  1  0 >:  -0.163299316186
< -1  0  -1  0  2 >:  0.333333333333
< -1  0  -1  1  1 >:  0.471404520791
< -1  0  0  -1  2 >:  -0.133333333333
< -1  0  0  0  1 >:  -0.377123616633
< -1  0  0  1  0 >:  -0.326598632371
< -1  0  1  -1  1 >:  0.141421356237
< -1  0  1  0  0 >:  0.244948974278
< -1  0  1  1  -1 >:  0.141421356237
< -1  1  -1  -1  2 >:  -0.066666666667
< -1  1  -1  0  1 >:  -0.188561808316
< -1  1  -1  1  0 >:  -0.163299316186
< -1  1  0  -1  1 >:  0.141421356237
< -1  1  0  0  0 >:  0.244948974278
< -1  1  0  1  -1 >:  0.141421356237
< -1  1  1  -1  0 >:  -0.163299316186
< -1  1  1  0  -1 >:  -0.188561808316
< -1  1  1  1  -2 >:  -0.066666666667
< 0  -1  -1  0  2 >:  0.333333333333
< 0  -1  -1  1  1 >:  0.471404520791
< 0  -1  0  -1  2 >:  -0.133333333333
< 0  -1  0  0  1 >:  -0.377123616633
< 0  -1  0  1  0 >:  -0.326598632371
< 0  -1  1  -1  1 >:  0.141421356237
< 0  -1  1  0  0 >:  0.244948974278
< 0  -1  1  1  -1 >:  0.141421356237
< 0  0  -1  -1  2 >:  -0.133333333333
< 0  0  -1  0  1 >:  -0.377123616633
< 0  0  -1  1  0 >:  -0.326598632371
< 0  0  0  -1  1 >:  0.282842712475
< 0  0  0  0  0 >:  0.489897948557
< 0  0  0  1  -1 >:  0.282842712475
< 0  0  1  -1  0 >:  -0.326598632371
< 0  0  1  0  -1 >:  -0.377123616633
< 0  0  1  1  -2 >:  -0.133333333333
< 0  1  -1  -1  1 >:  0.141421356237
< 0  1  -1  0  0 >:  0.244948974278
< 0  1  -1  1  -1 >:  0.141421356237
< 0  1  0  -1  0 >:  -0.326598632371
< 0  1  0  0  -1 >:  -0.377123616633
< 0  1  0  1  -2 >:  -0.133333333333
< 0  1  1  -1  -1 >:  0.471404520791
< 0  1  1  0  -2 >:  0.333333333333
< 1  -1  -1  -1  2 >:  -0.066666666667
< 1  -1  -1  0  1 >:  -0.188561808316
< 1  -1  -1  1  0 >:  -0.163299316186
< 1  -1  0  -1  1 >:  0.141421356237
< 1  -1  0  0  0 >:  0.244948974278
< 1  -1  0  1  -1 >:  0.141421356237
< 1  -1  1  -1  0 >:  -0.163299316186
< 1  -1  1  0  -1 >:  -0.188561808316
< 1  -1  1  1  -2 >:  -0.066666666667
< 1  0  -1  -1  1 >:  0.141421356237
< 1  0  -1  0  0 >:  0.244948974278
< 1  0  -1  1  -1 >:  0.141421356237
< 1  0  0  -1  0 >:  -0.326598632371
< 1  0  0  0  -1 >:  -0.377123616633
< 1  0  0  1  -2 >:  -0.133333333333
< 1  0  1  -1  -1 >:  0.471404520791
< 1  0  1  0  -2 >:  0.333333333333
< 1  1  -1  -1  0 >:  -0.163299316186
< 1  1  -1  0  -1 >:  -0.188561808316
< 1  1  -1  1  -2 >:  -0.066666666667
< 1  1  0  -1  -1 >:  0.471404520791
< 1  1  0  0  -2 >:  0.333333333333
< 1  1  1  -1  -2 >:  -1.000000000000
ctilde_basis_func: rank=5 ndens=1 mu0=0 mu=(  0  0  0  0  0  )
n=( 1  1  1  1  2 )
l=( 1  1  2  2  2 )
num_ms=159
< -1  -1  -2  2  2 >:  0.577350269190
< -1  -1  -1  1  2 >:  -0.288675134595
< -1  -1  -1  2  1 >:  -0.288675134595
< -1  -1  0  0  2 >:  0.288675134595
< -1  -1  0  1  1 >:  0.000000000000
< -1  -1  0  2  0 >:  0.288675134595
< -1  -1  1  -1  2 >:  -0.288675134595
< -1  -1  1  0  1 >:  0.000000000000
< -1  -1  1  1  0 >:  0.000000000000
< -1  -1  1  2  -1 >:  -0.288675134595
< -1  -1  2  -2  2 >:  0.288675134595
< -1  -1  2  -1  1 >:  0.000000000000
< -1  -1  2  0  0 >:  -0.000000000000
< -1  -1  2  1  -1 >:  0.000000000000
< -1  -1  2  2  -2 >:  0.288675134595
< -1  0  -2  1  2 >:  -0.204124145232
< -1  0  -2  2  1 >:  -0.204124145232
< -1  0  -1  0  2 >:  0.000000000000
< -1  0  -1  1  1 >:  0.408248290464
< -1  0  -1  2  0 >:  0.000000000000
< -1  0  0  -1  2 >:  0.000000000000
< -1  0  0  0  1 >:  -0.204124145232
< -1  0  0  1  0 >:  -0.204124145232
< -1  0  0  2  -1 >:  0.000000000000
< -1  0  1  -2  2 >:  0.000000000000
< -1  0  1  -1  1 >:  0.204124145232
< -1  0  1  0  0 >:  0.000000000000
< -1  0  1  1  -1 >:  0.204124145232
< -1  0  1  2  -2 >:  0.000000000000
< -1  0  2  -2  1 >:  -0.204124145232
< -1  0  2  -1  0 >:  0.000000000000
< -1  0  2  0  -1 >:  0.000000000000
< -1  0  2  1  -2 >:  -0.204124145232
< -1  1  -2  0  2 >:  0.117851130198
< -1  1  -2  1  1 >:  -0.000000000000
< -1  1  -2  2  0 >:  0.117851130198
< -1  1  -1  -1  2 >:  0.000000000000
< -1  1  -1  0  1 >:  -0.117851130198
< -1  1  -1  1  0 >:  -0.117851130198
< -1  1  -1  2  -1 >:  0.000000000000
< -1  1  0  -2  2 >:  0.000000000000
< -1  1  0  -1  1 >:  0.000000000000
< -1  1  0  0  0 >:  0.235702260396
< -1  1  0  1  -1 >:  0.000000000000
< -1  1  0  2  -2 >:  0.000000000000
< -1  1  1  -2  1 >:  0.000000000000
< -1  1  1  -1  0 >:  -0.117851130198
< -1  1  1  0  -1 >:  -0.117851130198
< -1  1  1  1  -2 >:  0.000000000000
< -1  1  2  -2  0 >:  0.117851130198
< -1  1  2  -1  -1 >:  -0.000000000000
< -1  1  2  0  -2 >:  0.117851130198
< 0  -1  -2  1  2 >:  -0.204124145232
< 0  -1  -2  2  1 >:  -0.204124145232
< 0  -1  -1  0  2 >:  0.000000000000
< 0  -1  -1  1  1 >:  0.408248290464
< 0  -1  -1  2  0 >:  0.000000000000
< 0  -1  0  -1  2 >:  0.000000000000
< 0  -1  0  0  1 >:  -0.204124145232
< 0  -1  0  1  0 >:  -0.204124145232
< 0  -1  0  2  -1 >:  0.000000000000
< 0  -1  1  -2  2 >:  0.000000000000
< 0  -1  1  -1  1 >:  0.204124145232
< 0  -1  1  0  0 >:  0.000000000000
< 0  -1  1  1  -1 >:  0.204124145232
< 0  -1  1  2  -2 >:  0.000000000000
< 0  -1  2  -2  1 >:  -0.204124145232
< 0  -1  2  -1  0 >:  0.000000000000
< 0  -1  2  0  -1 >:  0.000000000000
< 0  -1  2  1  -2 >:  -0.204124145232
< 0  0  -2  0  2 >:  0.235702260396
< 0  0  -2  1  1 >:  -0.000000000000
< 0  0  -2  2  0 >:  0.235702260396
< 0  0  -1  -1  2 >:  0.000000000000
< 0  0  -1  0  1 >:  -0.235702260396
< 0  0  -1  1  0 >:  -0.235702260396
< 0  0  -1  2  -1 >:  0.000000000000
< 0  0  0  -2  2 >:  0.000000000000
< 0  0  0  -1  1 >:  0.000000000000
< 0  0  0  0  0 >:  0.471404520791
< 0  0  0  1  -1 >:  0.000000000000
< 0  0  0  2  -2 >:  0.000000000000
< 0  0  1  -2  1 >:  0.000000000000
< 0  0  1  -1  0 >:  -0.235702260396
< 0  0  1  0  -1 >:  -0.235702260396
< 0  0  1  1  -2 >:  0.000000000000
< 0  0  2  -2  0 >:  0.235702260396
< 0  0  2  -1  -1 >:  -0.000000000000
< 0  0  2  0  -2 >:  0.235702260396
< 0  1  -2  -1  2 >:  -0.204124145232
< 0  1  -2  0  1 >:  0.000000000000
< 0  1  -2  1  0 >:  0.000000000000
< 0  1  -2  2  -1 >:  -0.204124145232
< 0  1  -1  -2  2 >:  0.000000000000
< 0  1  -1  -1  1 >:  0.204124145232
< 0  1  -1  0  0 >:  0.000000000000
< 0  1  -1  1  -1 >:  0.204124145232
< 0  1  -1  2  -2 >:  0.000000000000
< 0  1  0  -2  1 >:  0.000000000000
< 0  1  0  -1  0 >:  -0.204124145232
< 0  1  0  0  -1 >:  -0.204124145232
< 0  1  0  1  -2 >:  0.000000000000
< 0  1  1  -2  0 >:  0.000000000000
< 0  1  1  -1  -1 >:  0.408248290464
< 0  1  1  0  -2 >:  0.000000000000
< 0  1  2  -2  -1 >:  -0.204124145232
< 0  1  2  -1  -2 >:  -0.204124145232
< 1  -1  -2  0  2 >:  0.117851130198
< 1  -1  -2  1  1 >:  -0.000000000000
< 1  -1  -2  2  0 >:  0.117851130198
< 1  -1  -1  -1  2 >:  0.000000000000
< 1  -1  -1  0  1 >:  -0.117851130198
< 1  -1  -1  1  0 >:  -0.117851130198
< 1  -1  -1  2  -1 >:  0.000000000000
< 1  -1  0  -2  2 >:  0.000000000000
< 1  -1  0  -1  1 >:  0.000000000000
< 1  -1  0  0  0 >:  0.235702260396
< 1  -1  0  1  -1 >:  0.000000000000
< 1  -1  0  2  -2 >:  0.000000000000
< 1  -1  1  -2  1 >:  0.000000000000
< 1  -1  1  -1  0 >:  -0.117851130198
< 1  -1  1  0  -1 >:  -0.117851130198
< 1  -1  1  1  -2 >:  0.000000000000
< 1  -1  2  -2  0 >:  0.117851130198
< 1  -1  2  -1  -1 >:  -0.000000000000
< 1  -1  2  0  -2 >:  0.117851130198
< 1  0  -2  -1  2 >:  -0.204124145232
< 1  0  -2  0  1 >:  0.000000000000
< 1  0  -2  1  0 >:  0.000000000000
< 1  0  -2  2  -1 >:  -0.204124145232
< 1  0  -1  -2  2 >:  0.000000000000
< 1  0  -1  -1  1 >:  0.204124145232
< 1  0  -1  0  0 >:  0.000000000000
< 1  0  -1  1  -1 >:  0.204124145232
< 1  0  -1  2  -2 >:  0.000000000000
< 1  0  0  -2  1 >:  0.000000000000
< 1  0  0  -1  0 >:  -0.204124145232
< 1  0  0  0  -1 >:  -0.204124145232
< 1  0  0  1  -2 >:  0.000000000000
< 1  0  1  -2  0 >:  0.000000000000
< 1  0  1  -1  -1 >:  0.408248290464
< 1  0  1  0  -2 >:  0.000000000000
< 1  0  2  -2  -1 >:  -0.204124145232
< 1  0  2  -1  -2 >:  -0.204124145232
< 1  1  -2  -2  2 >:  0.288675134595
< 1  1  -2  -1  1 >:  0.000000000000
< 1  1  -2  0  0 >:  -0.000000000000
< 1  1  -2  1  -1 >:  0.000000000000
< 1  1  -2  2  -2 >:  0.288675134595
< 1  1  -1  -2  1 >:  -0.288675134595
< 1  1  -1  -1  0 >:  0.000000000000
< 1  1  -1  0  -1 >:  0.000000000000
< 1  1  -1  1  -2 >:  -0.288675134595
< 1  1  0  -2  0 >:  0.288675134595
< 1  1  0  -1  -1 >:  0.000000000000
< 1  1  0  0  -2 >:  0.288675134595
< 1  1  1  -2  -1 >:  -0.288675134595
< 1  1  1  -1  -2 >:  -0.288675134595
< 1  1  2  -2  -2 >:  0.577350269190
ctilde_basis_func: rank=5 ndens=1 mu0=0 mu=(  0  0  0  0  0  )
n=( 1  1  1  1  2 )
l=( 2  2  2  2  2 )
num_ms=381
< -2  -2  0  2  2 >:  0.319089614087
< -2  -2  1  1  2 >:  -0.195401684184
< -2  -2  1  2  1 >:  -0.195401684184
< -2  -2  2  0  2 >:  0.068376345876
< -2  -2  2  1  1 >:  0.111658105248
< -2  -2  2  2  0 >:  0.068376345876
< -2  -1  -1  2  2 >:  -0.195401684184
< -2  -1  0  1  2 >:  -0.039886201761
< -2  -1  0  2  1 >:  -0.039886201761
< -2  -1  1  0  2 >:  0.085470432345
< -2  -1  1  1  1 >:  0.139572631560
< -2  -1  1  2  0 >:  0.085470432345
< -2  -1  2  -1  2 >:  -0.041871789468
< -2  -1  2  0  1 >:  -0.102564518814
< -2  -1  2  1  0 >:  -0.102564518814
< -2  -1  2  2  -1 >:  -0.041871789468
< -2  0  -2  2  2 >:  0.307422067743
< -2  0  -1  1  2 >:  -0.034052428589
< -2  0  -1  2  1 >:  -0.034052428589
< -2  0  0  0  2 >:  0.099986762112
< -2  0  0  1  1 >:  -0.031902315785
< -2  0  0  2  0 >:  0.099986762112
< -2  0  1  -1  2 >:  -0.141500972108
< -2  0  1  0  1 >:  -0.053835157887
< -2  0  1  1  0 >:  -0.053835157887
< -2  0  1  2  -1 >:  -0.141500972108
< -2  0  2  -2  2 >:  0.134174935050
< -2  0  2  -1  1 >:  0.058608296465
< -2  0  2  0  0 >:  0.087912444697
< -2  0  2  1  -1 >:  0.058608296465
< -2  0  2  2  -2 >:  0.134174935050
< -2  1  -2  1  2 >:  -0.188256800410
< -2  1  -2  2  1 >:  -0.188256800410
< -2  1  -1  0  2 >:  -0.021978111174
< -2  1  -1  1  1 >:  0.256879916626
< -2  1  -1  2  0 >:  -0.021978111174
< -2  1  0  -1  2 >:  0.013838069999
< -2  1  0  0  1 >:  -0.112488800421
< -2  1  0  1  0 >:  -0.112488800421
< -2  1  0  2  -1 >:  0.013838069999
< -2  1  1  -2  2 >:  0.001993894737
< -2  1  1  -1  1 >:  0.154360589889
< -2  1  1  0  0 >:  0.011963368419
< -2  1  1  1  -1 >:  0.154360589889
< -2  1  1  2  -2 >:  0.001993894737
< -2  1  2  -2  1 >:  -0.166323958308
< -2  1  2  -1  0 >:  -0.048840247054
< -2  1  2  0  -1 >:  -0.048840247054
< -2  1  2  1  -2 >:  -0.166323958308
< -2  2  -2  0  2 >:  0.134174935050
< -2  2  -2  1  1 >:  0.023926736839
< -2  2  -2  2  0 >:  0.134174935050
< -2  2  -1  -1  2 >:  0.001993894737
< -2  2  -1  0  1 >:  -0.114638836228
< -2  2  -1  1  0 >:  -0.114638836228
< -2  2  -1  2  -1 >:  0.001993894737
< -2  2  0  -2  2 >:  -0.003256016470
< -2  2  0  -1  1 >:  -0.013024065881
< -2  2  0  0  0 >:  0.219509623045
< -2  2  0  1  -1 >:  -0.013024065881
< -2  2  0  2  -2 >:  -0.003256016470
< -2  2  1  -2  1 >:  0.001993894737
< -2  2  1  -1  0 >:  -0.114638836228
< -2  2  1  0  -1 >:  -0.114638836228
< -2  2  1  1  -2 >:  0.001993894737
< -2  2  2  -2  0 >:  0.134174935050
< -2  2  2  -1  -1 >:  0.023926736839
< -2  2  2  0  -2 >:  0.134174935050
< -1  -2  -1  2  2 >:  -0.195401684184
< -1  -2  0  1  2 >:  -0.039886201761
< -1  -2  0  2  1 >:  -0.039886201761
< -1  -2  1  0  2 >:  0.085470432345
< -1  -2  1  1  1 >:  0.139572631560
< -1  -2  1  2  0 >:  0.085470432345
< -1  -2  2  -1  2 >:  -0.041871789468
< -1  -2  2  0  1 >:  -0.102564518814
< -1  -2  2  1  0 >:  -0.102564518814
< -1  -2  2  2  -1 >:  -0.041871789468
< -1  -1  -2  2  2 >:  -0.181111916637
< -1  -1  -1  1  2 >:  0.285957642502
< -1  -1  -1  2  1 >:  0.285957642502
< -1  -1  0  0  2 >:  -0.178287326727
< -1  -1  0  1  1 >:  -0.052096263524
< -1  -1  0  2  0 >:  -0.178287326727
< -1  -1  1  -1  2 >:  0.110494905684
< -1  -1  1  0  1 >:  -0.087912444697
< -1  -1  1  1  0 >:  -0.087912444697
< -1  -1  1  2  -1 >:  0.110494905684
< -1  -1  2  -2  2 >:  -0.122458274103
< -1  -1  2  -1  1 >:  0.095706947355
< -1  -1  2  0  0 >:  0.143560421033
< -1  -1  2  1  -1 >:  0.095706947355
< -1  -1  2  2  -2 >:  -0.122458274103
< -1  0  -2  1  2 >:  -0.042803088347
< -1  0  -2  2  1 >:  -0.042803088347
< -1  0  -1  0  2 >:  -0.053835157887
< -1  0  -1  1  1 >:  -0.207435305631
< -1  0  -1  2  0 >:  -0.053835157887
< -1  0  0  -1  2 >:  0.033896210522
< -1  0  0  0  1 >:  0.142789850459
< -1  0  0  1  0 >:  0.142789850459
< -1  0  0  2  -1 >:  0.033896210522
< -1  0  1  -2  2 >:  0.004884024705
< -1  0  1  -1  1 >:  -0.040225331645
< -1  0  1  0  0 >:  0.029304148232
< -1  0  1  1  -1 >:  -0.040225331645
< -1  0  1  2  -2 >:  0.004884024705
< -1  0  2  -2  1 >:  0.010921183413
< -1  0  2  -1  0 >:  -0.119633684194
< -1  0  2  0  -1 >:  -0.119633684194
< -1  0  2  1  -2 >:  0.010921183413
< -1  1  -2  0  2 >:  0.118369726932
< -1  1  -2  1  1 >:  0.095706947355
< -1  1  -2  2  0 >:  0.118369726932
< -1  1  -1  -1  2 >:  0.007975578946
< -1  1  -1  0  1 >:  -0.040225331645
< -1  1  -1  1  0 >:  -0.040225331645
< -1  1  -1  2  -1 >:  0.007975578946
< -1  1  0  -2  2 >:  -0.013024065881
< -1  1  0  -1  1 >:  -0.052096263524
< -1  1  0  0  0 >:  0.041378465647
< -1  1  0  1  -1 >:  -0.052096263524
< -1  1  0  2  -2 >:  -0.013024065881
< -1  1  1  -2  1 >:  0.007975578946
< -1  1  1  -1  0 >:  -0.040225331645
< -1  1  1  0  -1 >:  -0.040225331645
< -1  1  1  1  -2 >:  0.007975578946
< -1  1  2  -2  0 >:  0.118369726932
< -1  1  2  -1  -1 >:  0.095706947355
< -1  1  2  0  -2 >:  0.118369726932
< -1  2  -2  -1  2 >:  -0.166323958308
< -1  2  -2  0  1 >:  -0.048840247054
< -1  2  -2  1  0 >:  -0.048840247054
< -1  2  -2  2  -1 >:  -0.166323958308
< -1  2  -1  -2  2 >:  0.001993894737
< -1  2  -1  -1  1 >:  0.154360589889
< -1  2  -1  0  0 >:  0.011963368419
< -1  2  -1  1  -1 >:  0.154360589889
< -1  2  -1  2  -2 >:  0.001993894737
< -1  2  0  -2  1 >:  0.013838069999
< -1  2  0  -1  0 >:  -0.112488800421
< -1  2  0  0  -1 >:  -0.112488800421
< -1  2  0  1  -2 >:  0.013838069999
< -1  2  1  -2  0 >:  -0.021978111174
< -1  2  1  -1  -1 >:  0.256879916626
< -1  2  1  0  -2 >:  -0.021978111174
< -1  2  2  -2  -1 >:  -0.188256800410
< -1  2  2  -1  -2 >:  -0.188256800410
< 0  -2  -2  2  2 >:  0.307422067743
< 0  -2  -1  1  2 >:  -0.034052428589
< 0  -2  -1  2  1 >:  -0.034052428589
< 0  -2  0  0  2 >:  0.099986762112
< 0  -2  0  1  1 >:  -0.031902315785
< 0  -2  0  2  0 >:  0.099986762112
< 0  -2  1  -1  2 >:  -0.141500972108
< 0  -2  1  0  1 >:  -0.053835157887
< 0  -2  1  1  0 >:  -0.053835157887
< 0  -2  1  2  -1 >:  -0.141500972108
< 0  -2  2  -2  2 >:  0.134174935050
< 0  -2  2  -1  1 >:  0.058608296465
< 0  -2  2  0  0 >:  0.087912444697
< 0  -2  2  1  -1 >:  0.058608296465
< 0  -2  2  2  -2 >:  0.134174935050
< 0  -1  -2  1  2 >:  -0.042803088347
< 0  -1  -2  2  1 >:  -0.042803088347
< 0  -1  -1  0  2 >:  -0.053835157887
< 0  -1  -1  1  1 >:  -0.207435305631
< 0  -1  -1  2  0 >:  -0.053835157887
< 0  -1  0  -1  2 >:  0.033896210522
< 0  -1  0  0  1 >:  0.142789850459
< 0  -1  0  1  0 >:  0.142789850459
< 0  -1  0  2  -1 >:  0.033896210522
< 0  -1  1  -2  2 >:  0.004884024705
< 0  -1  1  -1  1 >:  -0.040225331645
< 0  -1  1  0  0 >:  0.029304148232
< 0  -1  1  1  -1 >:  -0.040225331645
< 0  -1  1  2  -2 >:  0.004884024705
< 0  -1  2  -2  1 >:  0.010921183413
< 0  -1  2  -1  0 >:  -0.119633684194
< 0  -1  2  0  -1 >:  -0.119633684194
< 0  -1  2  1  -2 >:  0.010921183413
< 0  0  -2  0  2 >:  -0.031610416236
< 0  0  -2  1  1 >:  0.143560421033
< 0  0  -2  2  0 >:  -0.031610416236
< 0  0  -1  -1  2 >:  0.011963368419
< 0  0  -1  0  1 >:  0.148827009166
< 0  0  -1  1  0 >:  0.148827009166
< 0  0  -1  2  -1 >:  0.011963368419
< 0  0  0  -2  2 >:  -0.019536098822
< 0  0  0  -1  1 >:  -0.078144395287
< 0  0  0  0  0 >:  -0.356262314797
< 0  0  0  1  -1 >:  -0.078144395287
< 0  0  0  2  -2 >:  -0.019536098822
< 0  0  1  -2  1 >:  0.011963368419
< 0  0  1  -1  0 >:  0.148827009166
< 0  0  1  0  -1 >:  0.148827009166
< 0  0  1  1  -2 >:  0.011963368419
< 0  0  2  -2  0 >:  -0.031610416236
< 0  0  2  -1  -1 >:  0.143560421033
< 0  0  2  0  -2 >:  -0.031610416236
< 0  1  -2  -1  2 >:  0.010921183413
< 0  1  -2  0  1 >:  -0.119633684194
< 0  1  -2  1  0 >:  -0.119633684194
< 0  1  -2  2  -1 >:  0.010921183413
< 0  1  -1  -2  2 >:  0.004884024705
< 0  1  -1  -1  1 >:  -0.040225331645
< 0  1  -1  0  0 >:  0.029304148232
< 0  1  -1  1  -1 >:  -0.040225331645
< 0  1  -1  2  -2 >:  0.004884024705
< 0  1  0  -2  1 >:  0.033896210522
< 0  1  0  -1  0 >:  0.142789850459
< 0  1  0  0  -1 >:  0.142789850459
< 0  1  0  1  -2 >:  0.033896210522
< 0  1  1  -2  0 >:  -0.053835157887
< 0  1  1  -1  -1 >:  -0.207435305631
< 0  1  1  0  -2 >:  -0.053835157887
< 0  1  2  -2  -1 >:  -0.042803088347
< 0  1  2  -1  -2 >:  -0.042803088347
< 0  2  -2  -2  2 >:  0.134174935050
< 0  2  -2  -1  1 >:  0.058608296465
< 0  2  -2  0  0 >:  0.087912444697
< 0  2  -2  1  -1 >:  0.058608296465
< 0  2  -2  2  -2 >:  0.134174935050
< 0  2  -1  -2  1 >:  -0.141500972108
< 0  2  -1  -1  0 >:  -0.053835157887
< 0  2  -1  0  -1 >:  -0.053835157887
< 0  2  -1  1  -2 >:  -0.141500972108
< 0  2  0  -2  0 >:  0.099986762112
< 0  2  0  -1  -1 >:  -0.031902315785
< 0  2  0  0  -2 >:  0.099986762112
< 0  2  1  -2  -1 >:  -0.034052428589
< 0  2  1  -1  -2 >:  -0.034052428589
< 0  2  2  -2  -2 >:  0.307422067743
< 1  -2  -2  1  2 >:  -0.188256800410
< 1  -2  -2  2  1 >:  -0.188256800410
< 1  -2  -1  0  2 >:  -0.021978111174
< 1  -2  -1  1  1 >:  0.256879916626
< 1  -2  -1  2  0 >:  -0.021978111174
< 1  -2  0  -1  2 >:  0.013838069999
< 1  -2  0  0  1 >:  -0.112488800421
< 1  -2  0  1  0 >:  -0.112488800421
< 1  -2  0  2  -1 >:  0.013838069999
< 1  -2  1  -2  2 >:  0.001993894737
< 1  -2  1  -1  1 >:  0.154360589889
< 1  -2  1  0  0 >:  0.011963368419
< 1  -2  1  1  -1 >:  0.154360589889
< 1  -2  1  2  -2 >:  0.001993894737
< 1  -2  2  -2  1 >:  -0.166323958308
< 1  -2  2  -1  0 >:  -0.048840247054
< 1  -2  2  0  -1 >:  -0.048840247054
< 1  -2  2  1  -2 >:  -0.166323958308
< 1  -1  -2  0  2 >:  0.118369726932
< 1  -1  -2  1  1 >:  0.095706947355
< 1  -1  -2  2  0 >:  0.118369726932
< 1  -1  -1  -1  2 >:  0.007975578946
< 1  -1  -1  0  1 >:  -0.040225331645
< 1  -1  -1  1  0 >:  -0.040225331645
< 1  -1  -1  2  -1 >:  0.007975578946
< 1  -1  0  -2  2 >:  -0.013024065881
< 1  -1  0  -1  1 >:  -0.052096263524
< 1  -1  0  0  0 >:  0.041378465647
< 1  -1  0  1  -1 >:  -0.052096263524
< 1  -1  0  2  -2 >:  -0.013024065881
< 1  -1  1  -2  1 >:  0.007975578946
< 1  -1  1  -1  0 >:  -0.040225331645
< 1  -1  1  0  -1 >:  -0.040225331645
< 1  -1  1  1  -2 >:  0.007975578946
< 1  -1  2  -2  0 >:  0.118369726932
< 1  -1  2  -1  -1 >:  0.095706947355
< 1  -1  2  0  -2 >:  0.118369726932
< 1  0  -2  -1  2 >:  0.010921183413
< 1  0  -2  0  1 >:  -0.119633684194
< 1  0  -2  1  0 >:  -0.119633684194
< 1  0  -2  2  -1 >:  0.010921183413
< 1  0  -1  -2  2 >:  0.004884024705
< 1  0  -1  -1  1 >:  -0.040225331645
< 1  0  -1  0  0 >:  0.029304148232
< 1  0  -1  1  -1 >:  -0.040225331645
< 1  0  -1  2  -2 >:  0.004884024705
< 1  0  0  -2  1 >:  0.033896210522
< 1  0  0  -1  0 >:  0.142789850459
< 1  0  0  0  -1 >:  0.142789850459
< 1  0  0  1  -2 >:  0.033896210522
< 1  0  1  -2  0 >:  -0.053835157887
< 1  0  1  -1  -1 >:  -0.207435305631
< 1  0  1  0  -2 >:  -0.053835157887
< 1  0  2  -2  -1 >:  -0.042803088347
< 1  0  2  -1  -2 >:  -0.042803088347
< 1  1  -2  -2  2 >:  -0.122458274103
< 1  1  -2  -1  1 >:  0.095706947355
< 1  1  -2  0  0 >:  0.143560421033
< 1  1  -2  1  -1 >:  0.095706947355
< 1  1  -2  2  -2 >:  -0.122458274103
< 1  1  -1  -2  1 >:  0.110494905684
< 1  1  -1  -1  0 >:  -0.087912444697
< 1  1  -1  0  -1 >:  -0.087912444697
< 1  1  -1  1  -2 >:  0.110494905684
< 1  1  0  -2  0 >:  -0.178287326727
< 1  1  0  -1  -1 >:  -0.052096263524
< 1  1  0  0  -2 >:  -0.178287326727
< 1  1  1  -2  -1 >:  0.285957642502
< 1  1  1  -1  -2 >:  0.285957642502
< 1  1  2  -2  -2 >:  -0.181111916637
< 1  2  -2  -2  1 >:  -0.041871789468
< 1  2  -2  -1  0 >:  -0.102564518814
< 1  2  -2  0  -1 >:  -0.102564518814
< 1  2  -2  1  -2 >:  -0.041871789468
< 1  2  -1  -2  0 >:  0.085470432345
< 1  2  -1  -1  -1 >:  0.139572631560
< 1  2  -1  0  -2 >:  0.085470432345
< 1  2  0  -2  -1 >:  -0.039886201761
< 1  2  0  -1  -2 >:  -0.039886201761
< 1  2  1  -2  -2 >:  -0.195401684184
< 2  -2  -2  0  2 >:  0.134174935050
< 2  -2  -2  1  1 >:  0.023926736839
< 2  -2  -2  2  0 >:  0.134174935050
< 2  -2  -1  -1  2 >:  0.001993894737
< 2  -2  -1  0  1 >:  -0.114638836228
< 2  -2  -1  1  0 >:  -0.114638836228
< 2  -2  -1  2  -1 >:  0.001993894737
< 2  -2  0  -2  2 >:  -0.003256016470
< 2  -2  0  -1  1 >:  -0.013024065881
< 2  -2  0  0  0 >:  0.219509623045
< 2  -2  0  1  -1 >:  -0.013024065881
< 2  -2  0  2  -2 >:  -0.003256016470
< 2  -2  1  -2  1 >:  0.001993894737
< 2  -2  1  -1  0 >:  -0.114638836228
< 2  -2  1  0  -1 >:  -0.114638836228
< 2  -2  1  1  -2 >:  0.001993894737
< 2  -2  2  -2  0 >:  0.134174935050
< 2  -2  2  -1  -1 >:  0.023926736839
< 2  -2  2  0  -2 >:  0.134174935050
< 2  -1  -2  -1  2 >:  -0.166323958308
< 2  -1  -2  0  1 >:  -0.048840247054
< 2  -1  -2  1  0 >:  -0.048840247054
< 2  -1  -2  2  -1 >:  -0.166323958308
< 2  -1  -1  -2  2 >:  0.001993894737
< 2  -1  -1  -1  1 >:  0.154360589889
< 2  -1  -1  0  0 >:  0.011963368419
< 2  -1  -1  1  -1 >:  0.154360589889
< 2  -1  -1  2  -2 >:  0.001993894737
< 2  -1  0  -2  1 >:  0.013838069999
< 2  -1  0  -1  0 >:  -0.112488800421
< 2  -1  0  0  -1 >:  -0.112488800421
< 2  -1  0  1  -2 >:  0.013838069999
< 2  -1  1  -2  0 >:  -0.021978111174
< 2  -1  1  -1  -1 >:  0.256879916626
< 2  -1  1  0  -2 >:  -0.021978111174
< 2  -1  2  -2  -1 >:  -0.188256800410
< 2  -1  2  -1  -2 >:  -0.188256800410
< 2  0  -2  -2  2 >:  0.134174935050
< 2  0  -2  -1  1 >:  0.058608296465
< 2  0  -2  0  0 >:  0.087912444697
< 2  0  -2  1  -1 >:  0.058608296465
< 2  0  -2  2  -2 >:  0.134174935050
< 2  0  -1  -2  1 >:  -0.141500972108
< 2  0  -1  -1  0 >:  -0.053835157887
< 2  0  -1  0  -1 >:  -0.053835157887
< 2  0  -1  1  -2 >:  -0.141500972108
< 2  0  0  -2  0 >:  0.099986762112
< 2  0  0  -1  -1 >:  -0.031902315785
< 2  0  0  0  -2 >:  0.099986762112
< 2  0  1  -2  -1 >:  -0.034052428589
< 2  0  1  -1  -2 >:  -0.034052428589
< 2  0  2  -2  -2 >:  0.307422067743
< 2  1  -2  -2  1 >:  -0.041871789468
< 2  1  -2  -1  0 >:  -0.102564518814
< 2  1  -2  0  -1 >:  -0.102564518814
< 2  1  -2  1  -2 >:  -0.041871789468
< 2  1  -1  -2  0 >:  0.085470432345
< 2  1  -1  -1  -1 >:  0.139572631560
< 2  1  -1  0  -2 >:  0.085470432345
< 2  1  0  -2  -1 >:  -0.039886201761
< 2  1  0  -1  -2 >:  -0.039886201761
< 2  1  1  -2  -2 >:  -0.195401684184
< 2  2  -2  -2  0 >:  0.068376345876
< 2  2  -2  -1  -1 >:  0.111658105248
< 2  2  -2  0  -2 >:  0.068376345876
< 2  2  -1  -2  -1 >:  -0.195401684184
< 2  2  -1  -1  -2 >:  -0.195401684184
< 2  2  0  -2  -2 >:  0.319089614087
ctilde_basis_func: rank=5 ndens=1 mu0=0 mu=(  0  0  0  0  0  )
n=( 1  1  1  2  1 )
l=( 1  1  1  1  2 )
num_ms=71
< -1  -1  -1  1  2 >:  -1.000000000000
< -1  -1  0  0  2 >:  0.333333333333
< -1  -1  0  1  1 >:  0.471404520791
< -1  -1  1  -1  2 >:  -0.066666666667
< -1  -1  1  0  1 >:  -0.188561808316
< -1  -1  1  1  0 >:  -0.163299316186
< -1  0  -1  0  2 >:  0.333333333333
< -1  0  -1  1  1 >:  0.471404520791
< -1  0  0  -1  2 >:  -0.133333333333
< -1  0  0  0  1 >:  -0.377123616633
< -1  0  0  1  0 >:  -0.326598632371
< -1  0  1  -1  1 >:  0.141421356237
< -1  0  1  0  0 >:  0.244948974278
< -1  0  1  1  -1 >:  0.141421356237
< -1  1  -1  -1  2 >:  -0.066666666667
< -1  1  -1  0  1 >:  -0.188561808316
< -1  1  -1  1  0 >:  -0.163299316186
< -1  1  0  -1  1 >:  0.141421356237
< -1  1  0  0  0 >:  0.244948974278
< -1  1  0  1  -1 >:  0.141421356237
< -1  1  1  -1  0 >:  -0.163299316186
< -1  1  1  0  -1 >:  -0.188561808316
< -1  1  1  1  -2 >:  -0.066666666667
< 0  -1  -1  0  2 >:  0.333333333333
< 0  -1  -1  1  1 >:  0.471404520791
< 0  -1  0  -1  2 >:  -0.133333333333
< 0  -1  0  0  1 >:  -0.377123616633
< 0  -1  0  1  0 >:  -0.326598632371
< 0  -1  1  -1  1 >:  0.141421356237
< 0  -1  1  0  0 >:  0.244948974278
< 0  -1  1  1  -1 >:  0.141421356237
< 0  0  -1  -1  2 >:  -0.133333333333
< 0  0  -1  0  1 >:  -0.377123616633
< 0  0  -1  1  0 >:  -0.326598632371
< 0  0  0  -1  1 >:  0.282842712475
< 0  0  0  0  0 >:  0.489897948557
< 0  0  0  1  -1 >:  0.282842712475
< 0  0  1  -1  0 >:  -0.326598632371
< 0  0  1  0  -1 >:  -0.377123616633
< 0  0  1  1  -2 >:  -0.133333333333
< 0  1  -1  -1  1 >:  0.141421356237
< 0  1  -1  0  0 >:  0.244948974278
< 0  1  -1  1  -1 >:  0.141421356237
< 0  1  0  -1  0 >:  -0.326598632371
< 0  1  0  0  -1 >:  -0.377123616633
< 0  1  0  1  -2 >:  -0.133333333333
< 0  1  1  -1  -1 >:  0.471404520791
< 0  1  1  0  -2 >:  0.333333333333
< 1  -1  -1  -1  2 >:  -0.066666666667
< 1  -1  -1  0  1 >:  -0.188561808316
< 1  -1  -1  1  0 >:  -0.163299316186
< 1  -1  0  -1  1 >:  0.141421356237
< 1  -1  0  0  0 >:  0.244948974278
< 1  -1  0  1  -1 >:  0.141421356237
< 1  -1  1  -1  0 >:  -0.163299316186
< 1  -1  1  0  -1 >:  -0.188561808316
< 1  -1  1  1  -2 >:  -0.066666666667
< 1  0  -1  -1  1 >:  0.141421356237
< 1  0  -1  0  0 >:  0.244948974278
< 1  0  -1  1  -1 >:  0.141421356237
< 1  0  0  -1  0 >:  -0.326598632371
< 1  0  0  0  -1 >:  -0.377123616633
< 1  0  0  1  -2 >:  -0.133333333333
< 1  0  1  -1  -1 >:  0.471404520791
< 1  0  1  0  -2 >:  0.333333333333
< 1  1  -1  -1  0 >:  -0.163299316186
< 1  1  -1  0  -1 >:  -0.188561808316
< 1  1  -1  1  -2 >:  -0.066666666667
< 1  1  0  -1  -1 >:  0.471404520791
< 1  1  0  0  -2 >:  0.333333333333
