# DATE: 21-10-26 UNITS: metal CONTRIBUTOR: James Goff <jmgoff@sandia.gov> CITATION: py_PACE

nelements=1
elements: Cu

lmax=6

2 FS parameters:  1.000000 1.000000
core energy-cutoff parameters: 100000.000000000000000000 250.000000000000000000
E0:1.000000

radbasename=ChebExpCos
nradbase=16
nradmax=5
cutoffmax=7.500001
deltaSplineBins=0.001000
core repulsion parameters: 0.000000000000000000 1.000000000000000000
radparameter= 5.000000000000000000
cutoff= 7.500000000000000000
dcut= 0.010000000000000000
crad= 1.0 1.0 1.0 1.0 1.0 1.0 1.0
0.0 0.0 0.0 0.0 0.0 0.0 0.0
0.0 0.0 0.0 0.0 0.0 0.0 0.0
0.0 0.0 0.0 0.0 0.0 0.0 0.0
0.0 0.0 0.0 0.0 0.0 0.0 0.0
0.0 0.0 0.0 0.0 0.0 0.0 0.0
1.0 1.0 1.0 1.0 1.0 1.0 1.0
0.0 0.0 0.0 0.0 0.0 0.0 0.0
0.0 0.0 0.0 0.0 0.0 0.0 0.0
0.0 0.0 0.0 0.0 0.0 0.0 0.0
0.0 0.0 0.0 0.0 0.0 0.0 0.0
0.0 0.0 0.0 0.0 0.0 0.0 0.0
1.0 1.0 1.0 1.0 1.0 1.0 1.0
0.0 0.0 0.0 0.0 0.0 0.0 0.0
0.0 0.0 0.0 0.0 0.0 0.0 0.0
0.0 0.0 0.0 0.0 0.0 0.0 0.0
0.0 0.0 0.0 0.0 0.0 0.0 0.0
0.0 0.0 0.0 0.0 0.0 0.0 0.0
1.0 1.0 1.0 1.0 1.0 1.0 1.0
0.0 0.0 0.0 0.0 0.0 0.0 0.0
0.0 0.0 0.0 0.0 0.0 0.0 0.0
0.0 0.0 0.0 0.0 0.0 0.0 0.0
0.0 0.0 0.0 0.0 0.0 0.0 0.0
0.0 0.0 0.0 0.0 0.0 0.0 0.0
1.0 1.0 1.0 1.0 1.0 1.0 1.0
0.0 0.0 0.0 0.0 0.0 0.0 0.0
0.0 0.0 0.0 0.0 0.0 0.0 0.0
0.0 0.0 0.0 0.0 0.0 0.0 0.0
0.0 0.0 0.0 0.0 0.0 0.0 0.0
0.0 0.0 0.0 0.0 0.0 0.0 0.0
0.0 0.0 0.0 0.0 0.0 0.0 0.0
0.0 0.0 0.0 0.0 0.0 0.0 0.0
0.0 0.0 0.0 0.0 0.0 0.0 0.0
0.0 0.0 0.0 0.0 0.0 0.0 0.0
0.0 0.0 0.0 0.0 0.0 0.0 0.0
0.0 0.0 0.0 0.0 0.0 0.0 0.0
0.0 0.0 0.0 0.0 0.0 0.0 0.0
0.0 0.0 0.0 0.0 0.0 0.0 0.0
0.0 0.0 0.0 0.0 0.0 0.0 0.0
0.0 0.0 0.0 0.0 0.0 0.0 0.0
0.0 0.0 0.0 0.0 0.0 0.0 0.0
0.0 0.0 0.0 0.0 0.0 0.0 0.0
0.0 0.0 0.0 0.0 0.0 0.0 0.0
0.0 0.0 0.0 0.0 0.0 0.0 0.0
0.0 0.0 0.0 0.0 0.0 0.0 0.0
0.0 0.0 0.0 0.0 0.0 0.0 0.0
0.0 0.0 0.0 0.0 0.0 0.0 0.0
0.0 0.0 0.0 0.0 0.0 0.0 0.0
0.0 0.0 0.0 0.0 0.0 0.0 0.0
0.0 0.0 0.0 0.0 0.0 0.0 0.0
0.0 0.0 0.0 0.0 0.0 0.0 0.0
0.0 0.0 0.0 0.0 0.0 0.0 0.0
0.0 0.0 0.0 0.0 0.0 0.0 0.0
0.0 0.0 0.0 0.0 0.0 0.0 0.0
0.0 0.0 0.0 0.0 0.0 0.0 0.0
0.0 0.0 0.0 0.0 0.0 0.0 0.0
0.0 0.0 0.0 0.0 0.0 0.0 0.0
0.0 0.0 0.0 0.0 0.0 0.0 0.0
0.0 0.0 0.0 0.0 0.0 0.0 0.0
0.0 0.0 0.0 0.0 0.0 0.0 0.0
0.0 0.0 0.0 0.0 0.0 0.0 0.0
0.0 0.0 0.0 0.0 0.0 0.0 0.0
0.0 0.0 0.0 0.0 0.0 0.0 0.0
0.0 0.0 0.0 0.0 0.0 0.0 0.0
0.0 0.0 0.0 0.0 0.0 0.0 0.0
0.0 0.0 0.0 0.0 0.0 0.0 0.0
0.0 0.0 0.0 0.0 0.0 0.0 0.0
0.0 0.0 0.0 0.0 0.0 0.0 0.0
0.0 0.0 0.0 0.0 0.0 0.0 0.0
0.0 0.0 0.0 0.0 0.0 0.0 0.0
0.0 0.0 0.0 0.0 0.0 0.0 0.0
0.0 0.0 0.0 0.0 0.0 0.0 0.0
0.0 0.0 0.0 0.0 0.0 0.0 0.0
0.0 0.0 0.0 0.0 0.0 0.0 0.0
0.0 0.0 0.0 0.0 0.0 0.0 0.0
0.0 0.0 0.0 0.0 0.0 0.0 0.0
0.0 0.0 0.0 0.0 0.0 0.0 0.0
0.0 0.0 0.0 0.0 0.0 0.0 0.0
0.0 0.0 0.0 0.0 0.0 0.0 0.0
0.0 0.0 0.0 0.0 0.0 0.0 0.0

rankmax=6
ndensitymax=1

num_c_tilde_max=742
num_ms_combinations_max=141
total_basis_size_rank1: 16
ctilde_basis_func: rank=1 ndens=1 mu0=0 mu=( 0 )
n=( 1 )
l=( 0 )
num_ms=1
< 0 >:  1.0000000000
ctilde_basis_func: rank=1 ndens=1 mu0=0 mu=( 0 )
n=( 2 )
l=( 0 )
num_ms=1
< 0 >:  1.0000000000
ctilde_basis_func: rank=1 ndens=1 mu0=0 mu=( 0 )
n=( 3 )
l=( 0 )
num_ms=1
< 0 >:  1.0000000000
ctilde_basis_func: rank=1 ndens=1 mu0=0 mu=( 0 )
n=( 4 )
l=( 0 )
num_ms=1
< 0 >:  1.0000000000
ctilde_basis_func: rank=1 ndens=1 mu0=0 mu=( 0 )
n=( 5 )
l=( 0 )
num_ms=1
< 0 >:  1.0000000000
ctilde_basis_func: rank=1 ndens=1 mu0=0 mu=( 0 )
n=( 6 )
l=( 0 )
num_ms=1
< 0 >:  1.0000000000
ctilde_basis_func: rank=1 ndens=1 mu0=0 mu=( 0 )
n=( 7 )
l=( 0 )
num_ms=1
< 0 >:  1.0000000000
ctilde_basis_func: rank=1 ndens=1 mu0=0 mu=( 0 )
n=( 8 )
l=( 0 )
num_ms=1
< 0 >:  1.0000000000
ctilde_basis_func: rank=1 ndens=1 mu0=0 mu=( 0 )
n=( 9 )
l=( 0 )
num_ms=1
< 0 >:  1.0000000000
ctilde_basis_func: rank=1 ndens=1 mu0=0 mu=( 0 )
n=( 10 )
l=( 0 )
num_ms=1
< 0 >:  1.0000000000
ctilde_basis_func: rank=1 ndens=1 mu0=0 mu=( 0 )
n=( 11 )
l=( 0 )
num_ms=1
< 0 >:  1.0000000000
ctilde_basis_func: rank=1 ndens=1 mu0=0 mu=( 0 )
n=( 12 )
l=( 0 )
num_ms=1
< 0 >:  1.0000000000
ctilde_basis_func: rank=1 ndens=1 mu0=0 mu=( 0 )
n=( 13 )
l=( 0 )
num_ms=1
< 0 >:  1.0000000000
ctilde_basis_func: rank=1 ndens=1 mu0=0 mu=( 0 )
n=( 14 )
l=( 0 )
num_ms=1
< 0 >:  1.0000000000
ctilde_basis_func: rank=1 ndens=1 mu0=0 mu=( 0 )
n=( 15 )
l=( 0 )
num_ms=1
< 0 >:  1.0000000000
ctilde_basis_func: rank=1 ndens=1 mu0=0 mu=( 0 )
n=( 16 )
l=( 0 )
num_ms=1
< 0 >:  1.0000000000
total_basis_size: 726
ctilde_basis_func: rank=2 ndens=1 mu0=0 mu=(  0  0  )
n=( 1  1 )
l=( 0  0 )
num_ms=1
< 0  0 >:  0.079577471546
ctilde_basis_func: rank=2 ndens=1 mu0=0 mu=(  0  0  )
n=( 1  1 )
l=( 1  1 )
num_ms=3
< -1  1 >:  -0.079577471546
< 0  0 >:  0.079577471546
< 1  -1 >:  -0.079577471546
ctilde_basis_func: rank=2 ndens=1 mu0=0 mu=(  0  0  )
n=( 1  1 )
l=( 2  2 )
num_ms=5
< -2  2 >:  0.079577471546
< -1  1 >:  -0.079577471546
< 0  0 >:  0.079577471546
< 1  -1 >:  -0.079577471546
< 2  -2 >:  0.079577471546
ctilde_basis_func: rank=2 ndens=1 mu0=0 mu=(  0  0  )
n=( 1  1 )
l=( 3  3 )
num_ms=7
< -3  3 >:  -0.079577471546
< -2  2 >:  0.079577471546
< -1  1 >:  -0.079577471546
< 0  0 >:  0.079577471546
< 1  -1 >:  -0.079577471546
< 2  -2 >:  0.079577471546
< 3  -3 >:  -0.079577471546
ctilde_basis_func: rank=2 ndens=1 mu0=0 mu=(  0  0  )
n=( 1  1 )
l=( 4  4 )
num_ms=9
< -4  4 >:  0.079577471546
< -3  3 >:  -0.079577471546
< -2  2 >:  0.079577471546
< -1  1 >:  -0.079577471546
< 0  0 >:  0.079577471546
< 1  -1 >:  -0.079577471546
< 2  -2 >:  0.079577471546
< 3  -3 >:  -0.079577471546
< 4  -4 >:  0.079577471546
ctilde_basis_func: rank=2 ndens=1 mu0=0 mu=(  0  0  )
n=( 1  1 )
l=( 5  5 )
num_ms=11
< -5  5 >:  -0.079577471546
< -4  4 >:  0.079577471546
< -3  3 >:  -0.079577471546
< -2  2 >:  0.079577471546
< -1  1 >:  -0.079577471546
< 0  0 >:  0.079577471546
< 1  -1 >:  -0.079577471546
< 2  -2 >:  0.079577471546
< 3  -3 >:  -0.079577471546
< 4  -4 >:  0.079577471546
< 5  -5 >:  -0.079577471546
ctilde_basis_func: rank=2 ndens=1 mu0=0 mu=(  0  0  )
n=( 1  1 )
l=( 6  6 )
num_ms=13
< -6  6 >:  0.079577471546
< -5  5 >:  -0.079577471546
< -4  4 >:  0.079577471546
< -3  3 >:  -0.079577471546
< -2  2 >:  0.079577471546
< -1  1 >:  -0.079577471546
< 0  0 >:  0.079577471546
< 1  -1 >:  -0.079577471546
< 2  -2 >:  0.079577471546
< 3  -3 >:  -0.079577471546
< 4  -4 >:  0.079577471546
< 5  -5 >:  -0.079577471546
< 6  -6 >:  0.079577471546
ctilde_basis_func: rank=2 ndens=1 mu0=0 mu=(  0  0  )
n=( 2  1 )
l=( 0  0 )
num_ms=1
< 0  0 >:  0.079577471546
ctilde_basis_func: rank=2 ndens=1 mu0=0 mu=(  0  0  )
n=( 2  1 )
l=( 1  1 )
num_ms=3
< -1  1 >:  -0.079577471546
< 0  0 >:  0.079577471546
< 1  -1 >:  -0.079577471546
ctilde_basis_func: rank=2 ndens=1 mu0=0 mu=(  0  0  )
n=( 2  1 )
l=( 2  2 )
num_ms=5
< -2  2 >:  0.079577471546
< -1  1 >:  -0.079577471546
< 0  0 >:  0.079577471546
< 1  -1 >:  -0.079577471546
< 2  -2 >:  0.079577471546
ctilde_basis_func: rank=2 ndens=1 mu0=0 mu=(  0  0  )
n=( 2  1 )
l=( 3  3 )
num_ms=7
< -3  3 >:  -0.079577471546
< -2  2 >:  0.079577471546
< -1  1 >:  -0.079577471546
< 0  0 >:  0.079577471546
< 1  -1 >:  -0.079577471546
< 2  -2 >:  0.079577471546
< 3  -3 >:  -0.079577471546
ctilde_basis_func: rank=2 ndens=1 mu0=0 mu=(  0  0  )
n=( 2  1 )
l=( 4  4 )
num_ms=9
< -4  4 >:  0.079577471546
< -3  3 >:  -0.079577471546
< -2  2 >:  0.079577471546
< -1  1 >:  -0.079577471546
< 0  0 >:  0.079577471546
< 1  -1 >:  -0.079577471546
< 2  -2 >:  0.079577471546
< 3  -3 >:  -0.079577471546
< 4  -4 >:  0.079577471546
ctilde_basis_func: rank=2 ndens=1 mu0=0 mu=(  0  0  )
n=( 2  1 )
l=( 5  5 )
num_ms=11
< -5  5 >:  -0.079577471546
< -4  4 >:  0.079577471546
< -3  3 >:  -0.079577471546
< -2  2 >:  0.079577471546
< -1  1 >:  -0.079577471546
< 0  0 >:  0.079577471546
< 1  -1 >:  -0.079577471546
< 2  -2 >:  0.079577471546
< 3  -3 >:  -0.079577471546
< 4  -4 >:  0.079577471546
< 5  -5 >:  -0.079577471546
ctilde_basis_func: rank=2 ndens=1 mu0=0 mu=(  0  0  )
n=( 2  1 )
l=( 6  6 )
num_ms=13
< -6  6 >:  0.079577471546
< -5  5 >:  -0.079577471546
< -4  4 >:  0.079577471546
< -3  3 >:  -0.079577471546
< -2  2 >:  0.079577471546
< -1  1 >:  -0.079577471546
< 0  0 >:  0.079577471546
< 1  -1 >:  -0.079577471546
< 2  -2 >:  0.079577471546
< 3  -3 >:  -0.079577471546
< 4  -4 >:  0.079577471546
< 5  -5 >:  -0.079577471546
< 6  -6 >:  0.079577471546
ctilde_basis_func: rank=2 ndens=1 mu0=0 mu=(  0  0  )
n=( 2  2 )
l=( 0  0 )
num_ms=1
< 0  0 >:  0.079577471546
ctilde_basis_func: rank=2 ndens=1 mu0=0 mu=(  0  0  )
n=( 2  2 )
l=( 1  1 )
num_ms=3
< -1  1 >:  -0.079577471546
< 0  0 >:  0.079577471546
< 1  -1 >:  -0.079577471546
ctilde_basis_func: rank=2 ndens=1 mu0=0 mu=(  0  0  )
n=( 2  2 )
l=( 2  2 )
num_ms=5
< -2  2 >:  0.079577471546
< -1  1 >:  -0.079577471546
< 0  0 >:  0.079577471546
< 1  -1 >:  -0.079577471546
< 2  -2 >:  0.079577471546
ctilde_basis_func: rank=2 ndens=1 mu0=0 mu=(  0  0  )
n=( 2  2 )
l=( 3  3 )
num_ms=7
< -3  3 >:  -0.079577471546
< -2  2 >:  0.079577471546
< -1  1 >:  -0.079577471546
< 0  0 >:  0.079577471546
< 1  -1 >:  -0.079577471546
< 2  -2 >:  0.079577471546
< 3  -3 >:  -0.079577471546
ctilde_basis_func: rank=2 ndens=1 mu0=0 mu=(  0  0  )
n=( 2  2 )
l=( 4  4 )
num_ms=9
< -4  4 >:  0.079577471546
< -3  3 >:  -0.079577471546
< -2  2 >:  0.079577471546
< -1  1 >:  -0.079577471546
< 0  0 >:  0.079577471546
< 1  -1 >:  -0.079577471546
< 2  -2 >:  0.079577471546
< 3  -3 >:  -0.079577471546
< 4  -4 >:  0.079577471546
ctilde_basis_func: rank=2 ndens=1 mu0=0 mu=(  0  0  )
n=( 2  2 )
l=( 5  5 )
num_ms=11
< -5  5 >:  -0.079577471546
< -4  4 >:  0.079577471546
< -3  3 >:  -0.079577471546
< -2  2 >:  0.079577471546
< -1  1 >:  -0.079577471546
< 0  0 >:  0.079577471546
< 1  -1 >:  -0.079577471546
< 2  -2 >:  0.079577471546
< 3  -3 >:  -0.079577471546
< 4  -4 >:  0.079577471546
< 5  -5 >:  -0.079577471546
ctilde_basis_func: rank=2 ndens=1 mu0=0 mu=(  0  0  )
n=( 2  2 )
l=( 6  6 )
num_ms=13
< -6  6 >:  0.079577471546
< -5  5 >:  -0.079577471546
< -4  4 >:  0.079577471546
< -3  3 >:  -0.079577471546
< -2  2 >:  0.079577471546
< -1  1 >:  -0.079577471546
< 0  0 >:  0.079577471546
< 1  -1 >:  -0.079577471546
< 2  -2 >:  0.079577471546
< 3  -3 >:  -0.079577471546
< 4  -4 >:  0.079577471546
< 5  -5 >:  -0.079577471546
< 6  -6 >:  0.079577471546
ctilde_basis_func: rank=2 ndens=1 mu0=0 mu=(  0  0  )
n=( 3  1 )
l=( 0  0 )
num_ms=1
< 0  0 >:  0.079577471546
ctilde_basis_func: rank=2 ndens=1 mu0=0 mu=(  0  0  )
n=( 3  1 )
l=( 1  1 )
num_ms=3
< -1  1 >:  -0.079577471546
< 0  0 >:  0.079577471546
< 1  -1 >:  -0.079577471546
ctilde_basis_func: rank=2 ndens=1 mu0=0 mu=(  0  0  )
n=( 3  1 )
l=( 2  2 )
num_ms=5
< -2  2 >:  0.079577471546
< -1  1 >:  -0.079577471546
< 0  0 >:  0.079577471546
< 1  -1 >:  -0.079577471546
< 2  -2 >:  0.079577471546
ctilde_basis_func: rank=2 ndens=1 mu0=0 mu=(  0  0  )
n=( 3  1 )
l=( 3  3 )
num_ms=7
< -3  3 >:  -0.079577471546
< -2  2 >:  0.079577471546
< -1  1 >:  -0.079577471546
< 0  0 >:  0.079577471546
< 1  -1 >:  -0.079577471546
< 2  -2 >:  0.079577471546
< 3  -3 >:  -0.079577471546
ctilde_basis_func: rank=2 ndens=1 mu0=0 mu=(  0  0  )
n=( 3  1 )
l=( 4  4 )
num_ms=9
< -4  4 >:  0.079577471546
< -3  3 >:  -0.079577471546
< -2  2 >:  0.079577471546
< -1  1 >:  -0.079577471546
< 0  0 >:  0.079577471546
< 1  -1 >:  -0.079577471546
< 2  -2 >:  0.079577471546
< 3  -3 >:  -0.079577471546
< 4  -4 >:  0.079577471546
ctilde_basis_func: rank=2 ndens=1 mu0=0 mu=(  0  0  )
n=( 3  1 )
l=( 5  5 )
num_ms=11
< -5  5 >:  -0.079577471546
< -4  4 >:  0.079577471546
< -3  3 >:  -0.079577471546
< -2  2 >:  0.079577471546
< -1  1 >:  -0.079577471546
< 0  0 >:  0.079577471546
< 1  -1 >:  -0.079577471546
< 2  -2 >:  0.079577471546
< 3  -3 >:  -0.079577471546
< 4  -4 >:  0.079577471546
< 5  -5 >:  -0.079577471546
ctilde_basis_func: rank=2 ndens=1 mu0=0 mu=(  0  0  )
n=( 3  1 )
l=( 6  6 )
num_ms=13
< -6  6 >:  0.079577471546
< -5  5 >:  -0.079577471546
< -4  4 >:  0.079577471546
< -3  3 >:  -0.079577471546
< -2  2 >:  0.079577471546
< -1  1 >:  -0.079577471546
< 0  0 >:  0.079577471546
< 1  -1 >:  -0.079577471546
< 2  -2 >:  0.079577471546
< 3  -3 >:  -0.079577471546
< 4  -4 >:  0.079577471546
< 5  -5 >:  -0.079577471546
< 6  -6 >:  0.079577471546
ctilde_basis_func: rank=2 ndens=1 mu0=0 mu=(  0  0  )
n=( 3  2 )
l=( 0  0 )
num_ms=1
< 0  0 >:  0.079577471546
ctilde_basis_func: rank=2 ndens=1 mu0=0 mu=(  0  0  )
n=( 3  2 )
l=( 1  1 )
num_ms=3
< -1  1 >:  -0.079577471546
< 0  0 >:  0.079577471546
< 1  -1 >:  -0.079577471546
ctilde_basis_func: rank=2 ndens=1 mu0=0 mu=(  0  0  )
n=( 3  2 )
l=( 2  2 )
num_ms=5
< -2  2 >:  0.079577471546
< -1  1 >:  -0.079577471546
< 0  0 >:  0.079577471546
< 1  -1 >:  -0.079577471546
< 2  -2 >:  0.079577471546
ctilde_basis_func: rank=2 ndens=1 mu0=0 mu=(  0  0  )
n=( 3  2 )
l=( 3  3 )
num_ms=7
< -3  3 >:  -0.079577471546
< -2  2 >:  0.079577471546
< -1  1 >:  -0.079577471546
< 0  0 >:  0.079577471546
< 1  -1 >:  -0.079577471546
< 2  -2 >:  0.079577471546
< 3  -3 >:  -0.079577471546
ctilde_basis_func: rank=2 ndens=1 mu0=0 mu=(  0  0  )
n=( 3  2 )
l=( 4  4 )
num_ms=9
< -4  4 >:  0.079577471546
< -3  3 >:  -0.079577471546
< -2  2 >:  0.079577471546
< -1  1 >:  -0.079577471546
< 0  0 >:  0.079577471546
< 1  -1 >:  -0.079577471546
< 2  -2 >:  0.079577471546
< 3  -3 >:  -0.079577471546
< 4  -4 >:  0.079577471546
ctilde_basis_func: rank=2 ndens=1 mu0=0 mu=(  0  0  )
n=( 3  2 )
l=( 5  5 )
num_ms=11
< -5  5 >:  -0.079577471546
< -4  4 >:  0.079577471546
< -3  3 >:  -0.079577471546
< -2  2 >:  0.079577471546
< -1  1 >:  -0.079577471546
< 0  0 >:  0.079577471546
< 1  -1 >:  -0.079577471546
< 2  -2 >:  0.079577471546
< 3  -3 >:  -0.079577471546
< 4  -4 >:  0.079577471546
< 5  -5 >:  -0.079577471546
ctilde_basis_func: rank=2 ndens=1 mu0=0 mu=(  0  0  )
n=( 3  2 )
l=( 6  6 )
num_ms=13
< -6  6 >:  0.079577471546
< -5  5 >:  -0.079577471546
< -4  4 >:  0.079577471546
< -3  3 >:  -0.079577471546
< -2  2 >:  0.079577471546
< -1  1 >:  -0.079577471546
< 0  0 >:  0.079577471546
< 1  -1 >:  -0.079577471546
< 2  -2 >:  0.079577471546
< 3  -3 >:  -0.079577471546
< 4  -4 >:  0.079577471546
< 5  -5 >:  -0.079577471546
< 6  -6 >:  0.079577471546
ctilde_basis_func: rank=2 ndens=1 mu0=0 mu=(  0  0  )
n=( 3  3 )
l=( 0  0 )
num_ms=1
< 0  0 >:  0.079577471546
ctilde_basis_func: rank=2 ndens=1 mu0=0 mu=(  0  0  )
n=( 3  3 )
l=( 1  1 )
num_ms=3
< -1  1 >:  -0.079577471546
< 0  0 >:  0.079577471546
< 1  -1 >:  -0.079577471546
ctilde_basis_func: rank=2 ndens=1 mu0=0 mu=(  0  0  )
n=( 3  3 )
l=( 2  2 )
num_ms=5
< -2  2 >:  0.079577471546
< -1  1 >:  -0.079577471546
< 0  0 >:  0.079577471546
< 1  -1 >:  -0.079577471546
< 2  -2 >:  0.079577471546
ctilde_basis_func: rank=2 ndens=1 mu0=0 mu=(  0  0  )
n=( 3  3 )
l=( 3  3 )
num_ms=7
< -3  3 >:  -0.079577471546
< -2  2 >:  0.079577471546
< -1  1 >:  -0.079577471546
< 0  0 >:  0.079577471546
< 1  -1 >:  -0.079577471546
< 2  -2 >:  0.079577471546
< 3  -3 >:  -0.079577471546
ctilde_basis_func: rank=2 ndens=1 mu0=0 mu=(  0  0  )
n=( 3  3 )
l=( 4  4 )
num_ms=9
< -4  4 >:  0.079577471546
< -3  3 >:  -0.079577471546
< -2  2 >:  0.079577471546
< -1  1 >:  -0.079577471546
< 0  0 >:  0.079577471546
< 1  -1 >:  -0.079577471546
< 2  -2 >:  0.079577471546
< 3  -3 >:  -0.079577471546
< 4  -4 >:  0.079577471546
ctilde_basis_func: rank=2 ndens=1 mu0=0 mu=(  0  0  )
n=( 3  3 )
l=( 5  5 )
num_ms=11
< -5  5 >:  -0.079577471546
< -4  4 >:  0.079577471546
< -3  3 >:  -0.079577471546
< -2  2 >:  0.079577471546
< -1  1 >:  -0.079577471546
< 0  0 >:  0.079577471546
< 1  -1 >:  -0.079577471546
< 2  -2 >:  0.079577471546
< 3  -3 >:  -0.079577471546
< 4  -4 >:  0.079577471546
< 5  -5 >:  -0.079577471546
ctilde_basis_func: rank=2 ndens=1 mu0=0 mu=(  0  0  )
n=( 3  3 )
l=( 6  6 )
num_ms=13
< -6  6 >:  0.079577471546
< -5  5 >:  -0.079577471546
< -4  4 >:  0.079577471546
< -3  3 >:  -0.079577471546
< -2  2 >:  0.079577471546
< -1  1 >:  -0.079577471546
< 0  0 >:  0.079577471546
< 1  -1 >:  -0.079577471546
< 2  -2 >:  0.079577471546
< 3  -3 >:  -0.079577471546
< 4  -4 >:  0.079577471546
< 5  -5 >:  -0.079577471546
< 6  -6 >:  0.079577471546
ctilde_basis_func: rank=2 ndens=1 mu0=0 mu=(  0  0  )
n=( 4  1 )
l=( 0  0 )
num_ms=1
< 0  0 >:  0.079577471546
ctilde_basis_func: rank=2 ndens=1 mu0=0 mu=(  0  0  )
n=( 4  1 )
l=( 1  1 )
num_ms=3
< -1  1 >:  -0.079577471546
< 0  0 >:  0.079577471546
< 1  -1 >:  -0.079577471546
ctilde_basis_func: rank=2 ndens=1 mu0=0 mu=(  0  0  )
n=( 4  1 )
l=( 2  2 )
num_ms=5
< -2  2 >:  0.079577471546
< -1  1 >:  -0.079577471546
< 0  0 >:  0.079577471546
< 1  -1 >:  -0.079577471546
< 2  -2 >:  0.079577471546
ctilde_basis_func: rank=2 ndens=1 mu0=0 mu=(  0  0  )
n=( 4  1 )
l=( 3  3 )
num_ms=7
< -3  3 >:  -0.079577471546
< -2  2 >:  0.079577471546
< -1  1 >:  -0.079577471546
< 0  0 >:  0.079577471546
< 1  -1 >:  -0.079577471546
< 2  -2 >:  0.079577471546
< 3  -3 >:  -0.079577471546
ctilde_basis_func: rank=2 ndens=1 mu0=0 mu=(  0  0  )
n=( 4  1 )
l=( 4  4 )
num_ms=9
< -4  4 >:  0.079577471546
< -3  3 >:  -0.079577471546
< -2  2 >:  0.079577471546
< -1  1 >:  -0.079577471546
< 0  0 >:  0.079577471546
< 1  -1 >:  -0.079577471546
< 2  -2 >:  0.079577471546
< 3  -3 >:  -0.079577471546
< 4  -4 >:  0.079577471546
ctilde_basis_func: rank=2 ndens=1 mu0=0 mu=(  0  0  )
n=( 4  1 )
l=( 5  5 )
num_ms=11
< -5  5 >:  -0.079577471546
< -4  4 >:  0.079577471546
< -3  3 >:  -0.079577471546
< -2  2 >:  0.079577471546
< -1  1 >:  -0.079577471546
< 0  0 >:  0.079577471546
< 1  -1 >:  -0.079577471546
< 2  -2 >:  0.079577471546
< 3  -3 >:  -0.079577471546
< 4  -4 >:  0.079577471546
< 5  -5 >:  -0.079577471546
ctilde_basis_func: rank=2 ndens=1 mu0=0 mu=(  0  0  )
n=( 4  1 )
l=( 6  6 )
num_ms=13
< -6  6 >:  0.079577471546
< -5  5 >:  -0.079577471546
< -4  4 >:  0.079577471546
< -3  3 >:  -0.079577471546
< -2  2 >:  0.079577471546
< -1  1 >:  -0.079577471546
< 0  0 >:  0.079577471546
< 1  -1 >:  -0.079577471546
< 2  -2 >:  0.079577471546
< 3  -3 >:  -0.079577471546
< 4  -4 >:  0.079577471546
< 5  -5 >:  -0.079577471546
< 6  -6 >:  0.079577471546
ctilde_basis_func: rank=2 ndens=1 mu0=0 mu=(  0  0  )
n=( 4  2 )
l=( 0  0 )
num_ms=1
< 0  0 >:  0.079577471546
ctilde_basis_func: rank=2 ndens=1 mu0=0 mu=(  0  0  )
n=( 4  2 )
l=( 1  1 )
num_ms=3
< -1  1 >:  -0.079577471546
< 0  0 >:  0.079577471546
< 1  -1 >:  -0.079577471546
ctilde_basis_func: rank=2 ndens=1 mu0=0 mu=(  0  0  )
n=( 4  2 )
l=( 2  2 )
num_ms=5
< -2  2 >:  0.079577471546
< -1  1 >:  -0.079577471546
< 0  0 >:  0.079577471546
< 1  -1 >:  -0.079577471546
< 2  -2 >:  0.079577471546
ctilde_basis_func: rank=2 ndens=1 mu0=0 mu=(  0  0  )
n=( 4  2 )
l=( 3  3 )
num_ms=7
< -3  3 >:  -0.079577471546
< -2  2 >:  0.079577471546
< -1  1 >:  -0.079577471546
< 0  0 >:  0.079577471546
< 1  -1 >:  -0.079577471546
< 2  -2 >:  0.079577471546
< 3  -3 >:  -0.079577471546
ctilde_basis_func: rank=2 ndens=1 mu0=0 mu=(  0  0  )
n=( 4  2 )
l=( 4  4 )
num_ms=9
< -4  4 >:  0.079577471546
< -3  3 >:  -0.079577471546
< -2  2 >:  0.079577471546
< -1  1 >:  -0.079577471546
< 0  0 >:  0.079577471546
< 1  -1 >:  -0.079577471546
< 2  -2 >:  0.079577471546
< 3  -3 >:  -0.079577471546
< 4  -4 >:  0.079577471546
ctilde_basis_func: rank=2 ndens=1 mu0=0 mu=(  0  0  )
n=( 4  2 )
l=( 5  5 )
num_ms=11
< -5  5 >:  -0.079577471546
< -4  4 >:  0.079577471546
< -3  3 >:  -0.079577471546
< -2  2 >:  0.079577471546
< -1  1 >:  -0.079577471546
< 0  0 >:  0.079577471546
< 1  -1 >:  -0.079577471546
< 2  -2 >:  0.079577471546
< 3  -3 >:  -0.079577471546
< 4  -4 >:  0.079577471546
< 5  -5 >:  -0.079577471546
ctilde_basis_func: rank=2 ndens=1 mu0=0 mu=(  0  0  )
n=( 4  2 )
l=( 6  6 )
num_ms=13
< -6  6 >:  0.079577471546
< -5  5 >:  -0.079577471546
< -4  4 >:  0.079577471546
< -3  3 >:  -0.079577471546
< -2  2 >:  0.079577471546
< -1  1 >:  -0.079577471546
< 0  0 >:  0.079577471546
< 1  -1 >:  -0.079577471546
< 2  -2 >:  0.079577471546
< 3  -3 >:  -0.079577471546
< 4  -4 >:  0.079577471546
< 5  -5 >:  -0.079577471546
< 6  -6 >:  0.079577471546
ctilde_basis_func: rank=2 ndens=1 mu0=0 mu=(  0  0  )
n=( 4  3 )
l=( 0  0 )
num_ms=1
< 0  0 >:  0.079577471546
ctilde_basis_func: rank=2 ndens=1 mu0=0 mu=(  0  0  )
n=( 4  3 )
l=( 1  1 )
num_ms=3
< -1  1 >:  -0.079577471546
< 0  0 >:  0.079577471546
< 1  -1 >:  -0.079577471546
ctilde_basis_func: rank=2 ndens=1 mu0=0 mu=(  0  0  )
n=( 4  3 )
l=( 2  2 )
num_ms=5
< -2  2 >:  0.079577471546
< -1  1 >:  -0.079577471546
< 0  0 >:  0.079577471546
< 1  -1 >:  -0.079577471546
< 2  -2 >:  0.079577471546
ctilde_basis_func: rank=2 ndens=1 mu0=0 mu=(  0  0  )
n=( 4  3 )
l=( 3  3 )
num_ms=7
< -3  3 >:  -0.079577471546
< -2  2 >:  0.079577471546
< -1  1 >:  -0.079577471546
< 0  0 >:  0.079577471546
< 1  -1 >:  -0.079577471546
< 2  -2 >:  0.079577471546
< 3  -3 >:  -0.079577471546
ctilde_basis_func: rank=2 ndens=1 mu0=0 mu=(  0  0  )
n=( 4  3 )
l=( 4  4 )
num_ms=9
< -4  4 >:  0.079577471546
< -3  3 >:  -0.079577471546
< -2  2 >:  0.079577471546
< -1  1 >:  -0.079577471546
< 0  0 >:  0.079577471546
< 1  -1 >:  -0.079577471546
< 2  -2 >:  0.079577471546
< 3  -3 >:  -0.079577471546
< 4  -4 >:  0.079577471546
ctilde_basis_func: rank=2 ndens=1 mu0=0 mu=(  0  0  )
n=( 4  3 )
l=( 5  5 )
num_ms=11
< -5  5 >:  -0.079577471546
< -4  4 >:  0.079577471546
< -3  3 >:  -0.079577471546
< -2  2 >:  0.079577471546
< -1  1 >:  -0.079577471546
< 0  0 >:  0.079577471546
< 1  -1 >:  -0.079577471546
< 2  -2 >:  0.079577471546
< 3  -3 >:  -0.079577471546
< 4  -4 >:  0.079577471546
< 5  -5 >:  -0.079577471546
ctilde_basis_func: rank=2 ndens=1 mu0=0 mu=(  0  0  )
n=( 4  3 )
l=( 6  6 )
num_ms=13
< -6  6 >:  0.079577471546
< -5  5 >:  -0.079577471546
< -4  4 >:  0.079577471546
< -3  3 >:  -0.079577471546
< -2  2 >:  0.079577471546
< -1  1 >:  -0.079577471546
< 0  0 >:  0.079577471546
< 1  -1 >:  -0.079577471546
< 2  -2 >:  0.079577471546
< 3  -3 >:  -0.079577471546
< 4  -4 >:  0.079577471546
< 5  -5 >:  -0.079577471546
< 6  -6 >:  0.079577471546
ctilde_basis_func: rank=2 ndens=1 mu0=0 mu=(  0  0  )
n=( 4  4 )
l=( 0  0 )
num_ms=1
< 0  0 >:  0.079577471546
ctilde_basis_func: rank=2 ndens=1 mu0=0 mu=(  0  0  )
n=( 4  4 )
l=( 1  1 )
num_ms=3
< -1  1 >:  -0.079577471546
< 0  0 >:  0.079577471546
< 1  -1 >:  -0.079577471546
ctilde_basis_func: rank=2 ndens=1 mu0=0 mu=(  0  0  )
n=( 4  4 )
l=( 2  2 )
num_ms=5
< -2  2 >:  0.079577471546
< -1  1 >:  -0.079577471546
< 0  0 >:  0.079577471546
< 1  -1 >:  -0.079577471546
< 2  -2 >:  0.079577471546
ctilde_basis_func: rank=2 ndens=1 mu0=0 mu=(  0  0  )
n=( 4  4 )
l=( 3  3 )
num_ms=7
< -3  3 >:  -0.079577471546
< -2  2 >:  0.079577471546
< -1  1 >:  -0.079577471546
< 0  0 >:  0.079577471546
< 1  -1 >:  -0.079577471546
< 2  -2 >:  0.079577471546
< 3  -3 >:  -0.079577471546
ctilde_basis_func: rank=2 ndens=1 mu0=0 mu=(  0  0  )
n=( 4  4 )
l=( 4  4 )
num_ms=9
< -4  4 >:  0.079577471546
< -3  3 >:  -0.079577471546
< -2  2 >:  0.079577471546
< -1  1 >:  -0.079577471546
< 0  0 >:  0.079577471546
< 1  -1 >:  -0.079577471546
< 2  -2 >:  0.079577471546
< 3  -3 >:  -0.079577471546
< 4  -4 >:  0.079577471546
ctilde_basis_func: rank=2 ndens=1 mu0=0 mu=(  0  0  )
n=( 4  4 )
l=( 5  5 )
num_ms=11
< -5  5 >:  -0.079577471546
< -4  4 >:  0.079577471546
< -3  3 >:  -0.079577471546
< -2  2 >:  0.079577471546
< -1  1 >:  -0.079577471546
< 0  0 >:  0.079577471546
< 1  -1 >:  -0.079577471546
< 2  -2 >:  0.079577471546
< 3  -3 >:  -0.079577471546
< 4  -4 >:  0.079577471546
< 5  -5 >:  -0.079577471546
ctilde_basis_func: rank=2 ndens=1 mu0=0 mu=(  0  0  )
n=( 4  4 )
l=( 6  6 )
num_ms=13
< -6  6 >:  0.079577471546
< -5  5 >:  -0.079577471546
< -4  4 >:  0.079577471546
< -3  3 >:  -0.079577471546
< -2  2 >:  0.079577471546
< -1  1 >:  -0.079577471546
< 0  0 >:  0.079577471546
< 1  -1 >:  -0.079577471546
< 2  -2 >:  0.079577471546
< 3  -3 >:  -0.079577471546
< 4  -4 >:  0.079577471546
< 5  -5 >:  -0.079577471546
< 6  -6 >:  0.079577471546
ctilde_basis_func: rank=2 ndens=1 mu0=0 mu=(  0  0  )
n=( 5  1 )
l=( 0  0 )
num_ms=1
< 0  0 >:  0.079577471546
ctilde_basis_func: rank=2 ndens=1 mu0=0 mu=(  0  0  )
n=( 5  1 )
l=( 1  1 )
num_ms=3
< -1  1 >:  -0.079577471546
< 0  0 >:  0.079577471546
< 1  -1 >:  -0.079577471546
ctilde_basis_func: rank=2 ndens=1 mu0=0 mu=(  0  0  )
n=( 5  1 )
l=( 2  2 )
num_ms=5
< -2  2 >:  0.079577471546
< -1  1 >:  -0.079577471546
< 0  0 >:  0.079577471546
< 1  -1 >:  -0.079577471546
< 2  -2 >:  0.079577471546
ctilde_basis_func: rank=2 ndens=1 mu0=0 mu=(  0  0  )
n=( 5  1 )
l=( 3  3 )
num_ms=7
< -3  3 >:  -0.079577471546
< -2  2 >:  0.079577471546
< -1  1 >:  -0.079577471546
< 0  0 >:  0.079577471546
< 1  -1 >:  -0.079577471546
< 2  -2 >:  0.079577471546
< 3  -3 >:  -0.079577471546
ctilde_basis_func: rank=2 ndens=1 mu0=0 mu=(  0  0  )
n=( 5  1 )
l=( 4  4 )
num_ms=9
< -4  4 >:  0.079577471546
< -3  3 >:  -0.079577471546
< -2  2 >:  0.079577471546
< -1  1 >:  -0.079577471546
< 0  0 >:  0.079577471546
< 1  -1 >:  -0.079577471546
< 2  -2 >:  0.079577471546
< 3  -3 >:  -0.079577471546
< 4  -4 >:  0.079577471546
ctilde_basis_func: rank=2 ndens=1 mu0=0 mu=(  0  0  )
n=( 5  1 )
l=( 5  5 )
num_ms=11
< -5  5 >:  -0.079577471546
< -4  4 >:  0.079577471546
< -3  3 >:  -0.079577471546
< -2  2 >:  0.079577471546
< -1  1 >:  -0.079577471546
< 0  0 >:  0.079577471546
< 1  -1 >:  -0.079577471546
< 2  -2 >:  0.079577471546
< 3  -3 >:  -0.079577471546
< 4  -4 >:  0.079577471546
< 5  -5 >:  -0.079577471546
ctilde_basis_func: rank=2 ndens=1 mu0=0 mu=(  0  0  )
n=( 5  1 )
l=( 6  6 )
num_ms=13
< -6  6 >:  0.079577471546
< -5  5 >:  -0.079577471546
< -4  4 >:  0.079577471546
< -3  3 >:  -0.079577471546
< -2  2 >:  0.079577471546
< -1  1 >:  -0.079577471546
< 0  0 >:  0.079577471546
< 1  -1 >:  -0.079577471546
< 2  -2 >:  0.079577471546
< 3  -3 >:  -0.079577471546
< 4  -4 >:  0.079577471546
< 5  -5 >:  -0.079577471546
< 6  -6 >:  0.079577471546
ctilde_basis_func: rank=2 ndens=1 mu0=0 mu=(  0  0  )
n=( 5  2 )
l=( 0  0 )
num_ms=1
< 0  0 >:  0.079577471546
ctilde_basis_func: rank=2 ndens=1 mu0=0 mu=(  0  0  )
n=( 5  2 )
l=( 1  1 )
num_ms=3
< -1  1 >:  -0.079577471546
< 0  0 >:  0.079577471546
< 1  -1 >:  -0.079577471546
ctilde_basis_func: rank=2 ndens=1 mu0=0 mu=(  0  0  )
n=( 5  2 )
l=( 2  2 )
num_ms=5
< -2  2 >:  0.079577471546
< -1  1 >:  -0.079577471546
< 0  0 >:  0.079577471546
< 1  -1 >:  -0.079577471546
< 2  -2 >:  0.079577471546
ctilde_basis_func: rank=2 ndens=1 mu0=0 mu=(  0  0  )
n=( 5  2 )
l=( 3  3 )
num_ms=7
< -3  3 >:  -0.079577471546
< -2  2 >:  0.079577471546
< -1  1 >:  -0.079577471546
< 0  0 >:  0.079577471546
< 1  -1 >:  -0.079577471546
< 2  -2 >:  0.079577471546
< 3  -3 >:  -0.079577471546
ctilde_basis_func: rank=2 ndens=1 mu0=0 mu=(  0  0  )
n=( 5  2 )
l=( 4  4 )
num_ms=9
< -4  4 >:  0.079577471546
< -3  3 >:  -0.079577471546
< -2  2 >:  0.079577471546
< -1  1 >:  -0.079577471546
< 0  0 >:  0.079577471546
< 1  -1 >:  -0.079577471546
< 2  -2 >:  0.079577471546
< 3  -3 >:  -0.079577471546
< 4  -4 >:  0.079577471546
ctilde_basis_func: rank=2 ndens=1 mu0=0 mu=(  0  0  )
n=( 5  2 )
l=( 5  5 )
num_ms=11
< -5  5 >:  -0.079577471546
< -4  4 >:  0.079577471546
< -3  3 >:  -0.079577471546
< -2  2 >:  0.079577471546
< -1  1 >:  -0.079577471546
< 0  0 >:  0.079577471546
< 1  -1 >:  -0.079577471546
< 2  -2 >:  0.079577471546
< 3  -3 >:  -0.079577471546
< 4  -4 >:  0.079577471546
< 5  -5 >:  -0.079577471546
ctilde_basis_func: rank=2 ndens=1 mu0=0 mu=(  0  0  )
n=( 5  2 )
l=( 6  6 )
num_ms=13
< -6  6 >:  0.079577471546
< -5  5 >:  -0.079577471546
< -4  4 >:  0.079577471546
< -3  3 >:  -0.079577471546
< -2  2 >:  0.079577471546
< -1  1 >:  -0.079577471546
< 0  0 >:  0.079577471546
< 1  -1 >:  -0.079577471546
< 2  -2 >:  0.079577471546
< 3  -3 >:  -0.079577471546
< 4  -4 >:  0.079577471546
< 5  -5 >:  -0.079577471546
< 6  -6 >:  0.079577471546
ctilde_basis_func: rank=2 ndens=1 mu0=0 mu=(  0  0  )
n=( 5  3 )
l=( 0  0 )
num_ms=1
< 0  0 >:  0.079577471546
ctilde_basis_func: rank=2 ndens=1 mu0=0 mu=(  0  0  )
n=( 5  3 )
l=( 1  1 )
num_ms=3
< -1  1 >:  -0.079577471546
< 0  0 >:  0.079577471546
< 1  -1 >:  -0.079577471546
ctilde_basis_func: rank=2 ndens=1 mu0=0 mu=(  0  0  )
n=( 5  3 )
l=( 2  2 )
num_ms=5
< -2  2 >:  0.079577471546
< -1  1 >:  -0.079577471546
< 0  0 >:  0.079577471546
< 1  -1 >:  -0.079577471546
< 2  -2 >:  0.079577471546
ctilde_basis_func: rank=2 ndens=1 mu0=0 mu=(  0  0  )
n=( 5  3 )
l=( 3  3 )
num_ms=7
< -3  3 >:  -0.079577471546
< -2  2 >:  0.079577471546
< -1  1 >:  -0.079577471546
< 0  0 >:  0.079577471546
< 1  -1 >:  -0.079577471546
< 2  -2 >:  0.079577471546
< 3  -3 >:  -0.079577471546
ctilde_basis_func: rank=2 ndens=1 mu0=0 mu=(  0  0  )
n=( 5  3 )
l=( 4  4 )
num_ms=9
< -4  4 >:  0.079577471546
< -3  3 >:  -0.079577471546
< -2  2 >:  0.079577471546
< -1  1 >:  -0.079577471546
< 0  0 >:  0.079577471546
< 1  -1 >:  -0.079577471546
< 2  -2 >:  0.079577471546
< 3  -3 >:  -0.079577471546
< 4  -4 >:  0.079577471546
ctilde_basis_func: rank=2 ndens=1 mu0=0 mu=(  0  0  )
n=( 5  3 )
l=( 5  5 )
num_ms=11
< -5  5 >:  -0.079577471546
< -4  4 >:  0.079577471546
< -3  3 >:  -0.079577471546
< -2  2 >:  0.079577471546
< -1  1 >:  -0.079577471546
< 0  0 >:  0.079577471546
< 1  -1 >:  -0.079577471546
< 2  -2 >:  0.079577471546
< 3  -3 >:  -0.079577471546
< 4  -4 >:  0.079577471546
< 5  -5 >:  -0.079577471546
ctilde_basis_func: rank=2 ndens=1 mu0=0 mu=(  0  0  )
n=( 5  3 )
l=( 6  6 )
num_ms=13
< -6  6 >:  0.079577471546
< -5  5 >:  -0.079577471546
< -4  4 >:  0.079577471546
< -3  3 >:  -0.079577471546
< -2  2 >:  0.079577471546
< -1  1 >:  -0.079577471546
< 0  0 >:  0.079577471546
< 1  -1 >:  -0.079577471546
< 2  -2 >:  0.079577471546
< 3  -3 >:  -0.079577471546
< 4  -4 >:  0.079577471546
< 5  -5 >:  -0.079577471546
< 6  -6 >:  0.079577471546
ctilde_basis_func: rank=2 ndens=1 mu0=0 mu=(  0  0  )
n=( 5  4 )
l=( 0  0 )
num_ms=1
< 0  0 >:  0.079577471546
ctilde_basis_func: rank=2 ndens=1 mu0=0 mu=(  0  0  )
n=( 5  4 )
l=( 1  1 )
num_ms=3
< -1  1 >:  -0.079577471546
< 0  0 >:  0.079577471546
< 1  -1 >:  -0.079577471546
ctilde_basis_func: rank=2 ndens=1 mu0=0 mu=(  0  0  )
n=( 5  4 )
l=( 2  2 )
num_ms=5
< -2  2 >:  0.079577471546
< -1  1 >:  -0.079577471546
< 0  0 >:  0.079577471546
< 1  -1 >:  -0.079577471546
< 2  -2 >:  0.079577471546
ctilde_basis_func: rank=2 ndens=1 mu0=0 mu=(  0  0  )
n=( 5  4 )
l=( 3  3 )
num_ms=7
< -3  3 >:  -0.079577471546
< -2  2 >:  0.079577471546
< -1  1 >:  -0.079577471546
< 0  0 >:  0.079577471546
< 1  -1 >:  -0.079577471546
< 2  -2 >:  0.079577471546
< 3  -3 >:  -0.079577471546
ctilde_basis_func: rank=2 ndens=1 mu0=0 mu=(  0  0  )
n=( 5  4 )
l=( 4  4 )
num_ms=9
< -4  4 >:  0.079577471546
< -3  3 >:  -0.079577471546
< -2  2 >:  0.079577471546
< -1  1 >:  -0.079577471546
< 0  0 >:  0.079577471546
< 1  -1 >:  -0.079577471546
< 2  -2 >:  0.079577471546
< 3  -3 >:  -0.079577471546
< 4  -4 >:  0.079577471546
ctilde_basis_func: rank=2 ndens=1 mu0=0 mu=(  0  0  )
n=( 5  4 )
l=( 5  5 )
num_ms=11
< -5  5 >:  -0.079577471546
< -4  4 >:  0.079577471546
< -3  3 >:  -0.079577471546
< -2  2 >:  0.079577471546
< -1  1 >:  -0.079577471546
< 0  0 >:  0.079577471546
< 1  -1 >:  -0.079577471546
< 2  -2 >:  0.079577471546
< 3  -3 >:  -0.079577471546
< 4  -4 >:  0.079577471546
< 5  -5 >:  -0.079577471546
ctilde_basis_func: rank=2 ndens=1 mu0=0 mu=(  0  0  )
n=( 5  4 )
l=( 6  6 )
num_ms=13
< -6  6 >:  0.079577471546
< -5  5 >:  -0.079577471546
< -4  4 >:  0.079577471546
< -3  3 >:  -0.079577471546
< -2  2 >:  0.079577471546
< -1  1 >:  -0.079577471546
< 0  0 >:  0.079577471546
< 1  -1 >:  -0.079577471546
< 2  -2 >:  0.079577471546
< 3  -3 >:  -0.079577471546
< 4  -4 >:  0.079577471546
< 5  -5 >:  -0.079577471546
< 6  -6 >:  0.079577471546
ctilde_basis_func: rank=2 ndens=1 mu0=0 mu=(  0  0  )
n=( 5  5 )
l=( 0  0 )
num_ms=1
< 0  0 >:  0.079577471546
ctilde_basis_func: rank=2 ndens=1 mu0=0 mu=(  0  0  )
n=( 5  5 )
l=( 1  1 )
num_ms=3
< -1  1 >:  -0.079577471546
< 0  0 >:  0.079577471546
< 1  -1 >:  -0.079577471546
ctilde_basis_func: rank=2 ndens=1 mu0=0 mu=(  0  0  )
n=( 5  5 )
l=( 2  2 )
num_ms=5
< -2  2 >:  0.079577471546
< -1  1 >:  -0.079577471546
< 0  0 >:  0.079577471546
< 1  -1 >:  -0.079577471546
< 2  -2 >:  0.079577471546
ctilde_basis_func: rank=2 ndens=1 mu0=0 mu=(  0  0  )
n=( 5  5 )
l=( 3  3 )
num_ms=7
< -3  3 >:  -0.079577471546
< -2  2 >:  0.079577471546
< -1  1 >:  -0.079577471546
< 0  0 >:  0.079577471546
< 1  -1 >:  -0.079577471546
< 2  -2 >:  0.079577471546
< 3  -3 >:  -0.079577471546
ctilde_basis_func: rank=2 ndens=1 mu0=0 mu=(  0  0  )
n=( 5  5 )
l=( 4  4 )
num_ms=9
< -4  4 >:  0.079577471546
< -3  3 >:  -0.079577471546
< -2  2 >:  0.079577471546
< -1  1 >:  -0.079577471546
< 0  0 >:  0.079577471546
< 1  -1 >:  -0.079577471546
< 2  -2 >:  0.079577471546
< 3  -3 >:  -0.079577471546
< 4  -4 >:  0.079577471546
ctilde_basis_func: rank=2 ndens=1 mu0=0 mu=(  0  0  )
n=( 5  5 )
l=( 5  5 )
num_ms=11
< -5  5 >:  -0.079577471546
< -4  4 >:  0.079577471546
< -3  3 >:  -0.079577471546
< -2  2 >:  0.079577471546
< -1  1 >:  -0.079577471546
< 0  0 >:  0.079577471546
< 1  -1 >:  -0.079577471546
< 2  -2 >:  0.079577471546
< 3  -3 >:  -0.079577471546
< 4  -4 >:  0.079577471546
< 5  -5 >:  -0.079577471546
ctilde_basis_func: rank=2 ndens=1 mu0=0 mu=(  0  0  )
n=( 5  5 )
l=( 6  6 )
num_ms=13
< -6  6 >:  0.079577471546
< -5  5 >:  -0.079577471546
< -4  4 >:  0.079577471546
< -3  3 >:  -0.079577471546
< -2  2 >:  0.079577471546
< -1  1 >:  -0.079577471546
< 0  0 >:  0.079577471546
< 1  -1 >:  -0.079577471546
< 2  -2 >:  0.079577471546
< 3  -3 >:  -0.079577471546
< 4  -4 >:  0.079577471546
< 5  -5 >:  -0.079577471546
< 6  -6 >:  0.079577471546
ctilde_basis_func: rank=3 ndens=1 mu0=0 mu=(  0  0  0  )
n=( 1  1  1 )
l=( 0  0  0 )
num_ms=1
< 0  0  0 >:  0.022448390266
ctilde_basis_func: rank=3 ndens=1 mu0=0 mu=(  0  0  0  )
n=( 1  1  1 )
l=( 1  1  0 )
num_ms=3
< -1  1  0 >:  0.012960584163
< 0  0  0 >:  -0.012960584163
< 1  -1  0 >:  0.012960584163
ctilde_basis_func: rank=3 ndens=1 mu0=0 mu=(  0  0  0  )
n=( 1  1  1 )
l=( 1  1  2 )
num_ms=9
< -1  -1  2 >:  0.010039225324
< -1  0  1 >:  -0.007098804304
< -1  1  0 >:  0.004098496576
< 0  -1  1 >:  -0.007098804304
< 0  0  0 >:  0.008196993152
< 0  1  -1 >:  -0.007098804304
< 1  -1  0 >:  0.004098496576
< 1  0  -1 >:  -0.007098804304
< 1  1  -2 >:  0.010039225324
ctilde_basis_func: rank=3 ndens=1 mu0=0 mu=(  0  0  0  )
n=( 1  1  1 )
l=( 2  2  0 )
num_ms=5
< -2  2  0 >:  0.010039225324
< -1  1  0 >:  -0.010039225324
< 0  0  0 >:  0.010039225324
< 1  -1  0 >:  -0.010039225324
< 2  -2  0 >:  0.010039225324
ctilde_basis_func: rank=3 ndens=1 mu0=0 mu=(  0  0  0  )
n=( 1  1  1 )
l=( 2  2  2 )
num_ms=19
< -2  0  2 >:  0.005366191656
< -2  1  1 >:  -0.006572215709
< -2  2  0 >:  0.005366191656
< -1  -1  2 >:  -0.006572215709
< -1  0  1 >:  0.002683095828
< -1  1  0 >:  0.002683095828
< -1  2  -1 >:  -0.006572215709
< 0  -2  2 >:  0.005366191656
< 0  -1  1 >:  0.002683095828
< 0  0  0 >:  -0.005366191656
< 0  1  -1 >:  0.002683095828
< 0  2  -2 >:  0.005366191656
< 1  -2  1 >:  -0.006572215709
< 1  -1  0 >:  0.002683095828
< 1  0  -1 >:  0.002683095828
< 1  1  -2 >:  -0.006572215709
< 2  -2  0 >:  0.005366191656
< 2  -1  -1 >:  -0.006572215709
< 2  0  -2 >:  0.005366191656
ctilde_basis_func: rank=3 ndens=1 mu0=0 mu=(  0  0  0  )
n=( 1  1  1 )
l=( 2  2  4 )
num_ms=25
< -2  -2  4 >:  0.007482796755
< -2  -1  3 >:  -0.005291136328
< -2  0  2 >:  0.003463861819
< -2  1  1 >:  -0.001999861554
< -2  2  0 >:  0.000894365276
< -1  -2  3 >:  -0.005291136328
< -1  -1  2 >:  0.005656462664
< -1  0  1 >:  -0.004898640363
< -1  1  0 >:  0.003577461104
< -1  2  -1 >:  -0.001999861554
< 0  -2  2 >:  0.003463861819
< 0  -1  1 >:  -0.004898640363
< 0  0  0 >:  0.005366191656
< 0  1  -1 >:  -0.004898640363
< 0  2  -2 >:  0.003463861819
< 1  -2  1 >:  -0.001999861554
< 1  -1  0 >:  0.003577461104
< 1  0  -1 >:  -0.004898640363
< 1  1  -2 >:  0.005656462664
< 1  2  -3 >:  -0.005291136328
< 2  -2  0 >:  0.000894365276
< 2  -1  -1 >:  -0.001999861554
< 2  0  -2 >:  0.003463861819
< 2  1  -3 >:  -0.005291136328
< 2  2  -4 >:  0.007482796755
ctilde_basis_func: rank=3 ndens=1 mu0=0 mu=(  0  0  0  )
n=( 1  1  1 )
l=( 2  3  3 )
num_ms=29
< -2  -1  3 >:  0.003463861819
< -2  0  2 >:  -0.004898640363
< -2  1  1 >:  0.005366191656
< -2  2  0 >:  -0.004898640363
< -2  3  -1 >:  0.003463861819
< -1  -2  3 >:  -0.005476846424
< -1  -1  2 >:  0.004242346998
< -1  0  1 >:  -0.001549086098
< -1  1  0 >:  -0.001549086098
< -1  2  -1 >:  0.004242346998
< -1  3  -2 >:  -0.005476846424
< 0  -3  3 >:  0.005476846424
< 0  -2  2 >:  -0.000000000000
< 0  -1  1 >:  -0.003286107855
< 0  0  0 >:  0.004381477140
< 0  1  -1 >:  -0.003286107855
< 0  2  -2 >:  -0.000000000000
< 0  3  -3 >:  0.005476846424
< 1  -3  2 >:  -0.005476846424
< 1  -2  1 >:  0.004242346998
< 1  -1  0 >:  -0.001549086098
< 1  0  -1 >:  -0.001549086098
< 1  1  -2 >:  0.004242346998
< 1  2  -3 >:  -0.005476846424
< 2  -3  1 >:  0.003463861819
< 2  -2  0 >:  -0.004898640363
< 2  -1  -1 >:  0.005366191656
< 2  0  -2 >:  -0.004898640363
< 2  1  -3 >:  0.003463861819
ctilde_basis_func: rank=3 ndens=1 mu0=0 mu=(  0  0  0  )
n=( 1  1  1 )
l=( 2  4  4 )
num_ms=39
< -2  -2  4 >:  0.002471486427
< -2  -1  3 >:  -0.003707229640
< -2  0  2 >:  0.004430986927
< -2  1  1 >:  -0.004670670324
< -2  2  0 >:  0.004430986927
< -2  3  -1 >:  -0.003707229640
< -2  4  -2 >:  0.002471486427
< -1  -3  4 >:  -0.004623727723
< -1  -2  3 >:  0.004369012030
< -1  -1  2 >:  -0.002972396393
< -1  0  1 >:  0.001044393635
< -1  1  0 >:  0.001044393635
< -1  2  -1 >:  -0.002972396393
< -1  3  -2 >:  0.004369012030
< -1  4  -3 >:  -0.004623727723
< 0  -4  4 >:  0.005339020891
< 0  -3  3 >:  -0.001334755223
< 0  -2  2 >:  -0.001525434540
< 0  -1  1 >:  0.003241548398
< 0  0  0 >:  -0.003813586350
< 0  1  -1 >:  0.003241548398
< 0  2  -2 >:  -0.001525434540
< 0  3  -3 >:  -0.001334755223
< 0  4  -4 >:  0.005339020891
< 1  -4  3 >:  -0.004623727723
< 1  -3  2 >:  0.004369012030
< 1  -2  1 >:  -0.002972396393
< 1  -1  0 >:  0.001044393635
< 1  0  -1 >:  0.001044393635
< 1  1  -2 >:  -0.002972396393
< 1  2  -3 >:  0.004369012030
< 1  3  -4 >:  -0.004623727723
< 2  -4  2 >:  0.002471486427
< 2  -3  1 >:  -0.003707229640
< 2  -2  0 >:  0.004430986927
< 2  -1  -1 >:  -0.004670670324
< 2  0  -2 >:  0.004430986927
< 2  1  -3 >:  -0.003707229640
< 2  2  -4 >:  0.002471486427
ctilde_basis_func: rank=3 ndens=1 mu0=0 mu=(  0  0  0  )
n=( 1  1  1 )
l=( 3  2  1 )
num_ms=15
< -3  2  1 >:  0.008484693997
< -2  1  1 >:  -0.006927723638
< -2  2  0 >:  -0.004898640363
< -1  0  1 >:  0.005366191656
< -1  1  0 >:  0.006196344394
< -1  2  -1 >:  0.002190738570
< 0  -1  1 >:  -0.003794470509
< 0  0  0 >:  -0.006572215709
< 0  1  -1 >:  -0.003794470509
< 1  -2  1 >:  0.002190738570
< 1  -1  0 >:  0.006196344394
< 1  0  -1 >:  0.005366191656
< 2  -2  0 >:  -0.004898640363
< 2  -1  -1 >:  -0.006927723638
< 3  -2  -1 >:  0.008484693997
ctilde_basis_func: rank=3 ndens=1 mu0=0 mu=(  0  0  0  )
n=( 1  1  1 )
l=( 3  3  0 )
num_ms=7
< -3  3  0 >:  0.008484693997
< -2  2  0 >:  -0.008484693997
< -1  1  0 >:  0.008484693997
< 0  0  0 >:  -0.008484693997
< 1  -1  0 >:  0.008484693997
< 2  -2  0 >:  -0.008484693997
< 3  -3  0 >:  0.008484693997
ctilde_basis_func: rank=3 ndens=1 mu0=0 mu=(  0  0  0  )
n=( 1  1  1 )
l=( 3  3  4 )
num_ms=43
< -3  -1  4 >:  0.003907763157
< -3  0  3 >:  -0.004786012886
< -3  1  2 >:  0.004430986927
< -3  2  1 >:  -0.003302662659
< -3  3  0 >:  0.001808942838
< -2  -2  4 >:  -0.005044900543
< -2  -1  3 >:  0.002256148111
< -2  0  2 >:  0.001044393635
< -2  1  1 >:  -0.003410975327
< -2  2  0 >:  0.004220866622
< -2  3  -1 >:  -0.003302662659
< -1  -3  4 >:  0.003907763157
< -1  -2  3 >:  0.002256148111
< -1  -1  2 >:  -0.003813586350
< -1  0  1 >:  0.002335335162
< -1  1  0 >:  0.000602980946
< -1  2  -1 >:  -0.003410975327
< -1  3  -2 >:  0.004430986927
< 0  -3  3 >:  -0.004786012886
< 0  -2  2 >:  0.001044393635
< 0  -1  1 >:  0.002335335162
< 0  0  0 >:  -0.003617885676
< 0  1  -1 >:  0.002335335162
< 0  2  -2 >:  0.001044393635
< 0  3  -3 >:  -0.004786012886
< 1  -3  2 >:  0.004430986927
< 1  -2  1 >:  -0.003410975327
< 1  -1  0 >:  0.000602980946
< 1  0  -1 >:  0.002335335162
< 1  1  -2 >:  -0.003813586350
< 1  2  -3 >:  0.002256148111
< 1  3  -4 >:  0.003907763157
< 2  -3  1 >:  -0.003302662659
< 2  -2  0 >:  0.004220866622
< 2  -1  -1 >:  -0.003410975327
< 2  0  -2 >:  0.001044393635
< 2  1  -3 >:  0.002256148111
< 2  2  -4 >:  -0.005044900543
< 3  -3  0 >:  0.001808942838
< 3  -2  -1 >:  -0.003302662659
< 3  -1  -2 >:  0.004430986927
< 3  0  -3 >:  -0.004786012886
< 3  1  -4 >:  0.003907763157
ctilde_basis_func: rank=3 ndens=1 mu0=0 mu=(  0  0  0  )
n=( 1  1  1 )
l=( 4  3  1 )
num_ms=21
< -4  3  1 >:  0.007482796755
< -3  2  1 >:  -0.006480292081
< -3  3  0 >:  -0.003741398378
< -2  1  1 >:  0.005476846424
< -2  2  0 >:  0.004898640363
< -2  3  -1 >:  0.001414115666
< -1  0  1 >:  -0.004471826380
< -1  1  0 >:  -0.005476846424
< -1  2  -1 >:  -0.002449320181
< 0  -1  1 >:  0.003463861819
< 0  0  0 >:  0.005656462664
< 0  1  -1 >:  0.003463861819
< 1  -2  1 >:  -0.002449320181
< 1  -1  0 >:  -0.005476846424
< 1  0  -1 >:  -0.004471826380
< 2  -3  1 >:  0.001414115666
< 2  -2  0 >:  0.004898640363
< 2  -1  -1 >:  0.005476846424
< 3  -3  0 >:  -0.003741398378
< 3  -2  -1 >:  -0.006480292081
< 4  -3  -1 >:  0.007482796755
ctilde_basis_func: rank=3 ndens=1 mu0=0 mu=(  0  0  0  )
n=( 1  1  1 )
l=( 4  4  0 )
num_ms=9
< -4  4  0 >:  0.007482796755
< -3  3  0 >:  -0.007482796755
< -2  2  0 >:  0.007482796755
< -1  1  0 >:  -0.007482796755
< 0  0  0 >:  0.007482796755
< 1  -1  0 >:  -0.007482796755
< 2  -2  0 >:  0.007482796755
< 3  -3  0 >:  -0.007482796755
< 4  -4  0 >:  0.007482796755
ctilde_basis_func: rank=3 ndens=1 mu0=0 mu=(  0  0  0  )
n=( 1  1  1 )
l=( 4  4  4 )
num_ms=61
< -4  0  4 >:  0.002341315544
< -4  1  3 >:  -0.003701944920
< -4  2  2 >:  0.004197610982
< -4  3  1 >:  -0.003701944920
< -4  4  0 >:  0.002341315544
< -3  -1  4 >:  -0.003701944920
< -3  0  3 >:  0.003511973315
< -3  1  2 >:  -0.001399203661
< -3  2  1 >:  -0.001399203661
< -3  3  0 >:  0.003511973315
< -3  4  -1 >:  -0.003701944920
< -2  -2  4 >:  0.004197610982
< -2  -1  3 >:  -0.001399203661
< -2  0  2 >:  -0.001839605070
< -2  1  1 >:  0.003173095645
< -2  2  0 >:  -0.001839605070
< -2  3  -1 >:  -0.001399203661
< -2  4  -2 >:  0.004197610982
< -1  -3  4 >:  -0.003701944920
< -1  -2  3 >:  -0.001399203661
< -1  -1  2 >:  0.003173095645
< -1  0  1 >:  -0.001505131421
< -1  1  0 >:  -0.001505131421
< -1  2  -1 >:  0.003173095645
< -1  3  -2 >:  -0.001399203661
< -1  4  -3 >:  -0.003701944920
< 0  -4  4 >:  0.002341315544
< 0  -3  3 >:  0.003511973315
< 0  -2  2 >:  -0.001839605070
< 0  -1  1 >:  -0.001505131421
< 0  0  0 >:  0.003010262842
< 0  1  -1 >:  -0.001505131421
< 0  2  -2 >:  -0.001839605070
< 0  3  -3 >:  0.003511973315
< 0  4  -4 >:  0.002341315544
< 1  -4  3 >:  -0.003701944920
< 1  -3  2 >:  -0.001399203661
< 1  -2  1 >:  0.003173095645
< 1  -1  0 >:  -0.001505131421
< 1  0  -1 >:  -0.001505131421
< 1  1  -2 >:  0.003173095645
< 1  2  -3 >:  -0.001399203661
< 1  3  -4 >:  -0.003701944920
< 2  -4  2 >:  0.004197610982
< 2  -3  1 >:  -0.001399203661
< 2  -2  0 >:  -0.001839605070
< 2  -1  -1 >:  0.003173095645
< 2  0  -2 >:  -0.001839605070
< 2  1  -3 >:  -0.001399203661
< 2  2  -4 >:  0.004197610982
< 3  -4  1 >:  -0.003701944920
< 3  -3  0 >:  0.003511973315
< 3  -2  -1 >:  -0.001399203661
< 3  -1  -2 >:  -0.001399203661
< 3  0  -3 >:  0.003511973315
< 3  1  -4 >:  -0.003701944920
< 4  -4  0 >:  0.002341315544
< 4  -3  -1 >:  -0.003701944920
< 4  -2  -2 >:  0.004197610982
< 4  -1  -3 >:  -0.003701944920
< 4  0  -4 >:  0.002341315544
ctilde_basis_func: rank=3 ndens=1 mu0=0 mu=(  0  0  0  )
n=( 1  1  2 )
l=( 1  1  0 )
num_ms=3
< -1  1  0 >:  0.012960584163
< 0  0  0 >:  -0.012960584163
< 1  -1  0 >:  0.012960584163
ctilde_basis_func: rank=3 ndens=1 mu0=0 mu=(  0  0  0  )
n=( 1  1  2 )
l=( 1  1  2 )
num_ms=9
< -1  -1  2 >:  0.010039225324
< -1  0  1 >:  -0.007098804304
< -1  1  0 >:  0.004098496576
< 0  -1  1 >:  -0.007098804304
< 0  0  0 >:  0.008196993152
< 0  1  -1 >:  -0.007098804304
< 1  -1  0 >:  0.004098496576
< 1  0  -1 >:  -0.007098804304
< 1  1  -2 >:  0.010039225324
ctilde_basis_func: rank=3 ndens=1 mu0=0 mu=(  0  0  0  )
n=( 1  1  2 )
l=( 2  2  0 )
num_ms=5
< -2  2  0 >:  0.010039225324
< -1  1  0 >:  -0.010039225324
< 0  0  0 >:  0.010039225324
< 1  -1  0 >:  -0.010039225324
< 2  -2  0 >:  0.010039225324
ctilde_basis_func: rank=3 ndens=1 mu0=0 mu=(  0  0  0  )
n=( 1  1  2 )
l=( 2  2  2 )
num_ms=19
< -2  0  2 >:  0.005366191656
< -2  1  1 >:  -0.006572215709
< -2  2  0 >:  0.005366191656
< -1  -1  2 >:  -0.006572215709
< -1  0  1 >:  0.002683095828
< -1  1  0 >:  0.002683095828
< -1  2  -1 >:  -0.006572215709
< 0  -2  2 >:  0.005366191656
< 0  -1  1 >:  0.002683095828
< 0  0  0 >:  -0.005366191656
< 0  1  -1 >:  0.002683095828
< 0  2  -2 >:  0.005366191656
< 1  -2  1 >:  -0.006572215709
< 1  -1  0 >:  0.002683095828
< 1  0  -1 >:  0.002683095828
< 1  1  -2 >:  -0.006572215709
< 2  -2  0 >:  0.005366191656
< 2  -1  -1 >:  -0.006572215709
< 2  0  -2 >:  0.005366191656
ctilde_basis_func: rank=3 ndens=1 mu0=0 mu=(  0  0  0  )
n=( 1  1  2 )
l=( 2  2  4 )
num_ms=25
< -2  -2  4 >:  0.007482796755
< -2  -1  3 >:  -0.005291136328
< -2  0  2 >:  0.003463861819
< -2  1  1 >:  -0.001999861554
< -2  2  0 >:  0.000894365276
< -1  -2  3 >:  -0.005291136328
< -1  -1  2 >:  0.005656462664
< -1  0  1 >:  -0.004898640363
< -1  1  0 >:  0.003577461104
< -1  2  -1 >:  -0.001999861554
< 0  -2  2 >:  0.003463861819
< 0  -1  1 >:  -0.004898640363
< 0  0  0 >:  0.005366191656
< 0  1  -1 >:  -0.004898640363
< 0  2  -2 >:  0.003463861819
< 1  -2  1 >:  -0.001999861554
< 1  -1  0 >:  0.003577461104
< 1  0  -1 >:  -0.004898640363
< 1  1  -2 >:  0.005656462664
< 1  2  -3 >:  -0.005291136328
< 2  -2  0 >:  0.000894365276
< 2  -1  -1 >:  -0.001999861554
< 2  0  -2 >:  0.003463861819
< 2  1  -3 >:  -0.005291136328
< 2  2  -4 >:  0.007482796755
ctilde_basis_func: rank=3 ndens=1 mu0=0 mu=(  0  0  0  )
n=( 1  1  2 )
l=( 2  3  3 )
num_ms=29
< -2  -1  3 >:  0.003463861819
< -2  0  2 >:  -0.004898640363
< -2  1  1 >:  0.005366191656
< -2  2  0 >:  -0.004898640363
< -2  3  -1 >:  0.003463861819
< -1  -2  3 >:  -0.005476846424
< -1  -1  2 >:  0.004242346998
< -1  0  1 >:  -0.001549086098
< -1  1  0 >:  -0.001549086098
< -1  2  -1 >:  0.004242346998
< -1  3  -2 >:  -0.005476846424
< 0  -3  3 >:  0.005476846424
< 0  -2  2 >:  -0.000000000000
< 0  -1  1 >:  -0.003286107855
< 0  0  0 >:  0.004381477140
< 0  1  -1 >:  -0.003286107855
< 0  2  -2 >:  -0.000000000000
< 0  3  -3 >:  0.005476846424
< 1  -3  2 >:  -0.005476846424
< 1  -2  1 >:  0.004242346998
< 1  -1  0 >:  -0.001549086098
< 1  0  -1 >:  -0.001549086098
< 1  1  -2 >:  0.004242346998
< 1  2  -3 >:  -0.005476846424
< 2  -3  1 >:  0.003463861819
< 2  -2  0 >:  -0.004898640363
< 2  -1  -1 >:  0.005366191656
< 2  0  -2 >:  -0.004898640363
< 2  1  -3 >:  0.003463861819
ctilde_basis_func: rank=3 ndens=1 mu0=0 mu=(  0  0  0  )
n=( 1  1  2 )
l=( 3  2  1 )
num_ms=15
< -3  2  1 >:  0.008484693997
< -2  1  1 >:  -0.006927723638
< -2  2  0 >:  -0.004898640363
< -1  0  1 >:  0.005366191656
< -1  1  0 >:  0.006196344394
< -1  2  -1 >:  0.002190738570
< 0  -1  1 >:  -0.003794470509
< 0  0  0 >:  -0.006572215709
< 0  1  -1 >:  -0.003794470509
< 1  -2  1 >:  0.002190738570
< 1  -1  0 >:  0.006196344394
< 1  0  -1 >:  0.005366191656
< 2  -2  0 >:  -0.004898640363
< 2  -1  -1 >:  -0.006927723638
< 3  -2  -1 >:  0.008484693997
ctilde_basis_func: rank=3 ndens=1 mu0=0 mu=(  0  0  0  )
n=( 1  1  2 )
l=( 3  3  0 )
num_ms=7
< -3  3  0 >:  0.008484693997
< -2  2  0 >:  -0.008484693997
< -1  1  0 >:  0.008484693997
< 0  0  0 >:  -0.008484693997
< 1  -1  0 >:  0.008484693997
< 2  -2  0 >:  -0.008484693997
< 3  -3  0 >:  0.008484693997
ctilde_basis_func: rank=3 ndens=1 mu0=0 mu=(  0  0  0  )
n=( 1  1  2 )
l=( 3  3  2 )
num_ms=29
< -3  1  2 >:  0.003463861819
< -3  2  1 >:  -0.005476846424
< -3  3  0 >:  0.005476846424
< -2  0  2 >:  -0.004898640363
< -2  1  1 >:  0.004242346998
< -2  2  0 >:  0.000000000000
< -2  3  -1 >:  -0.005476846424
< -1  -1  2 >:  0.005366191656
< -1  0  1 >:  -0.001549086098
< -1  1  0 >:  -0.003286107855
< -1  2  -1 >:  0.004242346998
< -1  3  -2 >:  0.003463861819
< 0  -2  2 >:  -0.004898640363
< 0  -1  1 >:  -0.001549086098
< 0  0  0 >:  0.004381477140
< 0  1  -1 >:  -0.001549086098
< 0  2  -2 >:  -0.004898640363
< 1  -3  2 >:  0.003463861819
< 1  -2  1 >:  0.004242346998
< 1  -1  0 >:  -0.003286107855
< 1  0  -1 >:  -0.001549086098
< 1  1  -2 >:  0.005366191656
< 2  -3  1 >:  -0.005476846424
< 2  -2  0 >:  0.000000000000
< 2  -1  -1 >:  0.004242346998
< 2  0  -2 >:  -0.004898640363
< 3  -3  0 >:  0.005476846424
< 3  -2  -1 >:  -0.005476846424
< 3  -1  -2 >:  0.003463861819
ctilde_basis_func: rank=3 ndens=1 mu0=0 mu=(  0  0  0  )
n=( 1  1  2 )
l=( 3  3  4 )
num_ms=43
< -3  -1  4 >:  0.003907763157
< -3  0  3 >:  -0.004786012886
< -3  1  2 >:  0.004430986927
< -3  2  1 >:  -0.003302662659
< -3  3  0 >:  0.001808942838
< -2  -2  4 >:  -0.005044900543
< -2  -1  3 >:  0.002256148111
< -2  0  2 >:  0.001044393635
< -2  1  1 >:  -0.003410975327
< -2  2  0 >:  0.004220866622
< -2  3  -1 >:  -0.003302662659
< -1  -3  4 >:  0.003907763157
< -1  -2  3 >:  0.002256148111
< -1  -1  2 >:  -0.003813586350
< -1  0  1 >:  0.002335335162
< -1  1  0 >:  0.000602980946
< -1  2  -1 >:  -0.003410975327
< -1  3  -2 >:  0.004430986927
< 0  -3  3 >:  -0.004786012886
< 0  -2  2 >:  0.001044393635
< 0  -1  1 >:  0.002335335162
< 0  0  0 >:  -0.003617885676
< 0  1  -1 >:  0.002335335162
< 0  2  -2 >:  0.001044393635
< 0  3  -3 >:  -0.004786012886
< 1  -3  2 >:  0.004430986927
< 1  -2  1 >:  -0.003410975327
< 1  -1  0 >:  0.000602980946
< 1  0  -1 >:  0.002335335162
< 1  1  -2 >:  -0.003813586350
< 1  2  -3 >:  0.002256148111
< 1  3  -4 >:  0.003907763157
< 2  -3  1 >:  -0.003302662659
< 2  -2  0 >:  0.004220866622
< 2  -1  -1 >:  -0.003410975327
< 2  0  -2 >:  0.001044393635
< 2  1  -3 >:  0.002256148111
< 2  2  -4 >:  -0.005044900543
< 3  -3  0 >:  0.001808942838
< 3  -2  -1 >:  -0.003302662659
< 3  -1  -2 >:  0.004430986927
< 3  0  -3 >:  -0.004786012886
< 3  1  -4 >:  0.003907763157
ctilde_basis_func: rank=3 ndens=1 mu0=0 mu=(  0  0  0  )
n=( 1  1  2 )
l=( 4  3  1 )
num_ms=21
< -4  3  1 >:  0.007482796755
< -3  2  1 >:  -0.006480292081
< -3  3  0 >:  -0.003741398378
< -2  1  1 >:  0.005476846424
< -2  2  0 >:  0.004898640363
< -2  3  -1 >:  0.001414115666
< -1  0  1 >:  -0.004471826380
< -1  1  0 >:  -0.005476846424
< -1  2  -1 >:  -0.002449320181
< 0  -1  1 >:  0.003463861819
< 0  0  0 >:  0.005656462664
< 0  1  -1 >:  0.003463861819
< 1  -2  1 >:  -0.002449320181
< 1  -1  0 >:  -0.005476846424
< 1  0  -1 >:  -0.004471826380
< 2  -3  1 >:  0.001414115666
< 2  -2  0 >:  0.004898640363
< 2  -1  -1 >:  0.005476846424
< 3  -3  0 >:  -0.003741398378
< 3  -2  -1 >:  -0.006480292081
< 4  -3  -1 >:  0.007482796755
ctilde_basis_func: rank=3 ndens=1 mu0=0 mu=(  0  0  0  )
n=( 1  1  2 )
l=( 4  4  0 )
num_ms=9
< -4  4  0 >:  0.007482796755
< -3  3  0 >:  -0.007482796755
< -2  2  0 >:  0.007482796755
< -1  1  0 >:  -0.007482796755
< 0  0  0 >:  0.007482796755
< 1  -1  0 >:  -0.007482796755
< 2  -2  0 >:  0.007482796755
< 3  -3  0 >:  -0.007482796755
< 4  -4  0 >:  0.007482796755
ctilde_basis_func: rank=3 ndens=1 mu0=0 mu=(  0  0  0  )
n=( 1  1  2 )
l=( 4  4  2 )
num_ms=39
< -4  2  2 >:  0.002471486427
< -4  3  1 >:  -0.004623727723
< -4  4  0 >:  0.005339020891
< -3  1  2 >:  -0.003707229640
< -3  2  1 >:  0.004369012030
< -3  3  0 >:  -0.001334755223
< -3  4  -1 >:  -0.004623727723
< -2  0  2 >:  0.004430986927
< -2  1  1 >:  -0.002972396393
< -2  2  0 >:  -0.001525434540
< -2  3  -1 >:  0.004369012030
< -2  4  -2 >:  0.002471486427
< -1  -1  2 >:  -0.004670670324
< -1  0  1 >:  0.001044393635
< -1  1  0 >:  0.003241548398
< -1  2  -1 >:  -0.002972396393
< -1  3  -2 >:  -0.003707229640
< 0  -2  2 >:  0.004430986927
< 0  -1  1 >:  0.001044393635
< 0  0  0 >:  -0.003813586350
< 0  1  -1 >:  0.001044393635
< 0  2  -2 >:  0.004430986927
< 1  -3  2 >:  -0.003707229640
< 1  -2  1 >:  -0.002972396393
< 1  -1  0 >:  0.003241548398
< 1  0  -1 >:  0.001044393635
< 1  1  -2 >:  -0.004670670324
< 2  -4  2 >:  0.002471486427
< 2  -3  1 >:  0.004369012030
< 2  -2  0 >:  -0.001525434540
< 2  -1  -1 >:  -0.002972396393
< 2  0  -2 >:  0.004430986927
< 3  -4  1 >:  -0.004623727723
< 3  -3  0 >:  -0.001334755223
< 3  -2  -1 >:  0.004369012030
< 3  -1  -2 >:  -0.003707229640
< 4  -4  0 >:  0.005339020891
< 4  -3  -1 >:  -0.004623727723
< 4  -2  -2 >:  0.002471486427
ctilde_basis_func: rank=3 ndens=1 mu0=0 mu=(  0  0  0  )
n=( 1  1  2 )
l=( 4  4  4 )
num_ms=61
< -4  0  4 >:  0.002341315544
< -4  1  3 >:  -0.003701944920
< -4  2  2 >:  0.004197610982
< -4  3  1 >:  -0.003701944920
< -4  4  0 >:  0.002341315544
< -3  -1  4 >:  -0.003701944920
< -3  0  3 >:  0.003511973315
< -3  1  2 >:  -0.001399203661
< -3  2  1 >:  -0.001399203661
< -3  3  0 >:  0.003511973315
< -3  4  -1 >:  -0.003701944920
< -2  -2  4 >:  0.004197610982
< -2  -1  3 >:  -0.001399203661
< -2  0  2 >:  -0.001839605070
< -2  1  1 >:  0.003173095645
< -2  2  0 >:  -0.001839605070
< -2  3  -1 >:  -0.001399203661
< -2  4  -2 >:  0.004197610982
< -1  -3  4 >:  -0.003701944920
< -1  -2  3 >:  -0.001399203661
< -1  -1  2 >:  0.003173095645
< -1  0  1 >:  -0.001505131421
< -1  1  0 >:  -0.001505131421
< -1  2  -1 >:  0.003173095645
< -1  3  -2 >:  -0.001399203661
< -1  4  -3 >:  -0.003701944920
< 0  -4  4 >:  0.002341315544
< 0  -3  3 >:  0.003511973315
< 0  -2  2 >:  -0.001839605070
< 0  -1  1 >:  -0.001505131421
< 0  0  0 >:  0.003010262842
< 0  1  -1 >:  -0.001505131421
< 0  2  -2 >:  -0.001839605070
< 0  3  -3 >:  0.003511973315
< 0  4  -4 >:  0.002341315544
< 1  -4  3 >:  -0.003701944920
< 1  -3  2 >:  -0.001399203661
< 1  -2  1 >:  0.003173095645
< 1  -1  0 >:  -0.001505131421
< 1  0  -1 >:  -0.001505131421
< 1  1  -2 >:  0.003173095645
< 1  2  -3 >:  -0.001399203661
< 1  3  -4 >:  -0.003701944920
< 2  -4  2 >:  0.004197610982
< 2  -3  1 >:  -0.001399203661
< 2  -2  0 >:  -0.001839605070
< 2  -1  -1 >:  0.003173095645
< 2  0  -2 >:  -0.001839605070
< 2  1  -3 >:  -0.001399203661
< 2  2  -4 >:  0.004197610982
< 3  -4  1 >:  -0.003701944920
< 3  -3  0 >:  0.003511973315
< 3  -2  -1 >:  -0.001399203661
< 3  -1  -2 >:  -0.001399203661
< 3  0  -3 >:  0.003511973315
< 3  1  -4 >:  -0.003701944920
< 4  -4  0 >:  0.002341315544
< 4  -3  -1 >:  -0.003701944920
< 4  -2  -2 >:  0.004197610982
< 4  -1  -3 >:  -0.003701944920
< 4  0  -4 >:  0.002341315544
ctilde_basis_func: rank=3 ndens=1 mu0=0 mu=(  0  0  0  )
n=( 1  1  3 )
l=( 1  1  0 )
num_ms=3
< -1  1  0 >:  0.012960584163
< 0  0  0 >:  -0.012960584163
< 1  -1  0 >:  0.012960584163
ctilde_basis_func: rank=3 ndens=1 mu0=0 mu=(  0  0  0  )
n=( 1  1  3 )
l=( 1  1  2 )
num_ms=9
< -1  -1  2 >:  0.010039225324
< -1  0  1 >:  -0.007098804304
< -1  1  0 >:  0.004098496576
< 0  -1  1 >:  -0.007098804304
< 0  0  0 >:  0.008196993152
< 0  1  -1 >:  -0.007098804304
< 1  -1  0 >:  0.004098496576
< 1  0  -1 >:  -0.007098804304
< 1  1  -2 >:  0.010039225324
ctilde_basis_func: rank=3 ndens=1 mu0=0 mu=(  0  0  0  )
n=( 1  1  3 )
l=( 2  2  0 )
num_ms=5
< -2  2  0 >:  0.010039225324
< -1  1  0 >:  -0.010039225324
< 0  0  0 >:  0.010039225324
< 1  -1  0 >:  -0.010039225324
< 2  -2  0 >:  0.010039225324
ctilde_basis_func: rank=3 ndens=1 mu0=0 mu=(  0  0  0  )
n=( 1  1  3 )
l=( 2  2  2 )
num_ms=19
< -2  0  2 >:  0.005366191656
< -2  1  1 >:  -0.006572215709
< -2  2  0 >:  0.005366191656
< -1  -1  2 >:  -0.006572215709
< -1  0  1 >:  0.002683095828
< -1  1  0 >:  0.002683095828
< -1  2  -1 >:  -0.006572215709
< 0  -2  2 >:  0.005366191656
< 0  -1  1 >:  0.002683095828
< 0  0  0 >:  -0.005366191656
< 0  1  -1 >:  0.002683095828
< 0  2  -2 >:  0.005366191656
< 1  -2  1 >:  -0.006572215709
< 1  -1  0 >:  0.002683095828
< 1  0  -1 >:  0.002683095828
< 1  1  -2 >:  -0.006572215709
< 2  -2  0 >:  0.005366191656
< 2  -1  -1 >:  -0.006572215709
< 2  0  -2 >:  0.005366191656
ctilde_basis_func: rank=3 ndens=1 mu0=0 mu=(  0  0  0  )
n=( 1  1  3 )
l=( 2  2  4 )
num_ms=25
< -2  -2  4 >:  0.007482796755
< -2  -1  3 >:  -0.005291136328
< -2  0  2 >:  0.003463861819
< -2  1  1 >:  -0.001999861554
< -2  2  0 >:  0.000894365276
< -1  -2  3 >:  -0.005291136328
< -1  -1  2 >:  0.005656462664
< -1  0  1 >:  -0.004898640363
< -1  1  0 >:  0.003577461104
< -1  2  -1 >:  -0.001999861554
< 0  -2  2 >:  0.003463861819
< 0  -1  1 >:  -0.004898640363
< 0  0  0 >:  0.005366191656
< 0  1  -1 >:  -0.004898640363
< 0  2  -2 >:  0.003463861819
< 1  -2  1 >:  -0.001999861554
< 1  -1  0 >:  0.003577461104
< 1  0  -1 >:  -0.004898640363
< 1  1  -2 >:  0.005656462664
< 1  2  -3 >:  -0.005291136328
< 2  -2  0 >:  0.000894365276
< 2  -1  -1 >:  -0.001999861554
< 2  0  -2 >:  0.003463861819
< 2  1  -3 >:  -0.005291136328
< 2  2  -4 >:  0.007482796755
ctilde_basis_func: rank=3 ndens=1 mu0=0 mu=(  0  0  0  )
n=( 1  1  3 )
l=( 2  3  3 )
num_ms=29
< -2  -1  3 >:  0.003463861819
< -2  0  2 >:  -0.004898640363
< -2  1  1 >:  0.005366191656
< -2  2  0 >:  -0.004898640363
< -2  3  -1 >:  0.003463861819
< -1  -2  3 >:  -0.005476846424
< -1  -1  2 >:  0.004242346998
< -1  0  1 >:  -0.001549086098
< -1  1  0 >:  -0.001549086098
< -1  2  -1 >:  0.004242346998
< -1  3  -2 >:  -0.005476846424
< 0  -3  3 >:  0.005476846424
< 0  -2  2 >:  -0.000000000000
< 0  -1  1 >:  -0.003286107855
< 0  0  0 >:  0.004381477140
< 0  1  -1 >:  -0.003286107855
< 0  2  -2 >:  -0.000000000000
< 0  3  -3 >:  0.005476846424
< 1  -3  2 >:  -0.005476846424
< 1  -2  1 >:  0.004242346998
< 1  -1  0 >:  -0.001549086098
< 1  0  -1 >:  -0.001549086098
< 1  1  -2 >:  0.004242346998
< 1  2  -3 >:  -0.005476846424
< 2  -3  1 >:  0.003463861819
< 2  -2  0 >:  -0.004898640363
< 2  -1  -1 >:  0.005366191656
< 2  0  -2 >:  -0.004898640363
< 2  1  -3 >:  0.003463861819
ctilde_basis_func: rank=3 ndens=1 mu0=0 mu=(  0  0  0  )
n=( 1  1  3 )
l=( 3  2  1 )
num_ms=15
< -3  2  1 >:  0.008484693997
< -2  1  1 >:  -0.006927723638
< -2  2  0 >:  -0.004898640363
< -1  0  1 >:  0.005366191656
< -1  1  0 >:  0.006196344394
< -1  2  -1 >:  0.002190738570
< 0  -1  1 >:  -0.003794470509
< 0  0  0 >:  -0.006572215709
< 0  1  -1 >:  -0.003794470509
< 1  -2  1 >:  0.002190738570
< 1  -1  0 >:  0.006196344394
< 1  0  -1 >:  0.005366191656
< 2  -2  0 >:  -0.004898640363
< 2  -1  -1 >:  -0.006927723638
< 3  -2  -1 >:  0.008484693997
ctilde_basis_func: rank=3 ndens=1 mu0=0 mu=(  0  0  0  )
n=( 1  1  3 )
l=( 3  3  0 )
num_ms=7
< -3  3  0 >:  0.008484693997
< -2  2  0 >:  -0.008484693997
< -1  1  0 >:  0.008484693997
< 0  0  0 >:  -0.008484693997
< 1  -1  0 >:  0.008484693997
< 2  -2  0 >:  -0.008484693997
< 3  -3  0 >:  0.008484693997
ctilde_basis_func: rank=3 ndens=1 mu0=0 mu=(  0  0  0  )
n=( 1  1  3 )
l=( 3  3  2 )
num_ms=29
< -3  1  2 >:  0.003463861819
< -3  2  1 >:  -0.005476846424
< -3  3  0 >:  0.005476846424
< -2  0  2 >:  -0.004898640363
< -2  1  1 >:  0.004242346998
< -2  2  0 >:  0.000000000000
< -2  3  -1 >:  -0.005476846424
< -1  -1  2 >:  0.005366191656
< -1  0  1 >:  -0.001549086098
< -1  1  0 >:  -0.003286107855
< -1  2  -1 >:  0.004242346998
< -1  3  -2 >:  0.003463861819
< 0  -2  2 >:  -0.004898640363
< 0  -1  1 >:  -0.001549086098
< 0  0  0 >:  0.004381477140
< 0  1  -1 >:  -0.001549086098
< 0  2  -2 >:  -0.004898640363
< 1  -3  2 >:  0.003463861819
< 1  -2  1 >:  0.004242346998
< 1  -1  0 >:  -0.003286107855
< 1  0  -1 >:  -0.001549086098
< 1  1  -2 >:  0.005366191656
< 2  -3  1 >:  -0.005476846424
< 2  -2  0 >:  0.000000000000
< 2  -1  -1 >:  0.004242346998
< 2  0  -2 >:  -0.004898640363
< 3  -3  0 >:  0.005476846424
< 3  -2  -1 >:  -0.005476846424
< 3  -1  -2 >:  0.003463861819
ctilde_basis_func: rank=3 ndens=1 mu0=0 mu=(  0  0  0  )
n=( 1  1  3 )
l=( 3  3  4 )
num_ms=43
< -3  -1  4 >:  0.003907763157
< -3  0  3 >:  -0.004786012886
< -3  1  2 >:  0.004430986927
< -3  2  1 >:  -0.003302662659
< -3  3  0 >:  0.001808942838
< -2  -2  4 >:  -0.005044900543
< -2  -1  3 >:  0.002256148111
< -2  0  2 >:  0.001044393635
< -2  1  1 >:  -0.003410975327
< -2  2  0 >:  0.004220866622
< -2  3  -1 >:  -0.003302662659
< -1  -3  4 >:  0.003907763157
< -1  -2  3 >:  0.002256148111
< -1  -1  2 >:  -0.003813586350
< -1  0  1 >:  0.002335335162
< -1  1  0 >:  0.000602980946
< -1  2  -1 >:  -0.003410975327
< -1  3  -2 >:  0.004430986927
< 0  -3  3 >:  -0.004786012886
< 0  -2  2 >:  0.001044393635
< 0  -1  1 >:  0.002335335162
< 0  0  0 >:  -0.003617885676
< 0  1  -1 >:  0.002335335162
< 0  2  -2 >:  0.001044393635
< 0  3  -3 >:  -0.004786012886
< 1  -3  2 >:  0.004430986927
< 1  -2  1 >:  -0.003410975327
< 1  -1  0 >:  0.000602980946
< 1  0  -1 >:  0.002335335162
< 1  1  -2 >:  -0.003813586350
< 1  2  -3 >:  0.002256148111
< 1  3  -4 >:  0.003907763157
< 2  -3  1 >:  -0.003302662659
< 2  -2  0 >:  0.004220866622
< 2  -1  -1 >:  -0.003410975327
< 2  0  -2 >:  0.001044393635
< 2  1  -3 >:  0.002256148111
< 2  2  -4 >:  -0.005044900543
< 3  -3  0 >:  0.001808942838
< 3  -2  -1 >:  -0.003302662659
< 3  -1  -2 >:  0.004430986927
< 3  0  -3 >:  -0.004786012886
< 3  1  -4 >:  0.003907763157
ctilde_basis_func: rank=3 ndens=1 mu0=0 mu=(  0  0  0  )
n=( 1  1  3 )
l=( 4  3  1 )
num_ms=21
< -4  3  1 >:  0.007482796755
< -3  2  1 >:  -0.006480292081
< -3  3  0 >:  -0.003741398378
< -2  1  1 >:  0.005476846424
< -2  2  0 >:  0.004898640363
< -2  3  -1 >:  0.001414115666
< -1  0  1 >:  -0.004471826380
< -1  1  0 >:  -0.005476846424
< -1  2  -1 >:  -0.002449320181
< 0  -1  1 >:  0.003463861819
< 0  0  0 >:  0.005656462664
< 0  1  -1 >:  0.003463861819
< 1  -2  1 >:  -0.002449320181
< 1  -1  0 >:  -0.005476846424
< 1  0  -1 >:  -0.004471826380
< 2  -3  1 >:  0.001414115666
< 2  -2  0 >:  0.004898640363
< 2  -1  -1 >:  0.005476846424
< 3  -3  0 >:  -0.003741398378
< 3  -2  -1 >:  -0.006480292081
< 4  -3  -1 >:  0.007482796755
ctilde_basis_func: rank=3 ndens=1 mu0=0 mu=(  0  0  0  )
n=( 1  1  3 )
l=( 4  4  0 )
num_ms=9
< -4  4  0 >:  0.007482796755
< -3  3  0 >:  -0.007482796755
< -2  2  0 >:  0.007482796755
< -1  1  0 >:  -0.007482796755
< 0  0  0 >:  0.007482796755
< 1  -1  0 >:  -0.007482796755
< 2  -2  0 >:  0.007482796755
< 3  -3  0 >:  -0.007482796755
< 4  -4  0 >:  0.007482796755
ctilde_basis_func: rank=3 ndens=1 mu0=0 mu=(  0  0  0  )
n=( 1  1  3 )
l=( 4  4  2 )
num_ms=39
< -4  2  2 >:  0.002471486427
< -4  3  1 >:  -0.004623727723
< -4  4  0 >:  0.005339020891
< -3  1  2 >:  -0.003707229640
< -3  2  1 >:  0.004369012030
< -3  3  0 >:  -0.001334755223
< -3  4  -1 >:  -0.004623727723
< -2  0  2 >:  0.004430986927
< -2  1  1 >:  -0.002972396393
< -2  2  0 >:  -0.001525434540
< -2  3  -1 >:  0.004369012030
< -2  4  -2 >:  0.002471486427
< -1  -1  2 >:  -0.004670670324
< -1  0  1 >:  0.001044393635
< -1  1  0 >:  0.003241548398
< -1  2  -1 >:  -0.002972396393
< -1  3  -2 >:  -0.003707229640
< 0  -2  2 >:  0.004430986927
< 0  -1  1 >:  0.001044393635
< 0  0  0 >:  -0.003813586350
< 0  1  -1 >:  0.001044393635
< 0  2  -2 >:  0.004430986927
< 1  -3  2 >:  -0.003707229640
< 1  -2  1 >:  -0.002972396393
< 1  -1  0 >:  0.003241548398
< 1  0  -1 >:  0.001044393635
< 1  1  -2 >:  -0.004670670324
< 2  -4  2 >:  0.002471486427
< 2  -3  1 >:  0.004369012030
< 2  -2  0 >:  -0.001525434540
< 2  -1  -1 >:  -0.002972396393
< 2  0  -2 >:  0.004430986927
< 3  -4  1 >:  -0.004623727723
< 3  -3  0 >:  -0.001334755223
< 3  -2  -1 >:  0.004369012030
< 3  -1  -2 >:  -0.003707229640
< 4  -4  0 >:  0.005339020891
< 4  -3  -1 >:  -0.004623727723
< 4  -2  -2 >:  0.002471486427
ctilde_basis_func: rank=3 ndens=1 mu0=0 mu=(  0  0  0  )
n=( 1  1  3 )
l=( 4  4  4 )
num_ms=61
< -4  0  4 >:  0.002341315544
< -4  1  3 >:  -0.003701944920
< -4  2  2 >:  0.004197610982
< -4  3  1 >:  -0.003701944920
< -4  4  0 >:  0.002341315544
< -3  -1  4 >:  -0.003701944920
< -3  0  3 >:  0.003511973315
< -3  1  2 >:  -0.001399203661
< -3  2  1 >:  -0.001399203661
< -3  3  0 >:  0.003511973315
< -3  4  -1 >:  -0.003701944920
< -2  -2  4 >:  0.004197610982
< -2  -1  3 >:  -0.001399203661
< -2  0  2 >:  -0.001839605070
< -2  1  1 >:  0.003173095645
< -2  2  0 >:  -0.001839605070
< -2  3  -1 >:  -0.001399203661
< -2  4  -2 >:  0.004197610982
< -1  -3  4 >:  -0.003701944920
< -1  -2  3 >:  -0.001399203661
< -1  -1  2 >:  0.003173095645
< -1  0  1 >:  -0.001505131421
< -1  1  0 >:  -0.001505131421
< -1  2  -1 >:  0.003173095645
< -1  3  -2 >:  -0.001399203661
< -1  4  -3 >:  -0.003701944920
< 0  -4  4 >:  0.002341315544
< 0  -3  3 >:  0.003511973315
< 0  -2  2 >:  -0.001839605070
< 0  -1  1 >:  -0.001505131421
< 0  0  0 >:  0.003010262842
< 0  1  -1 >:  -0.001505131421
< 0  2  -2 >:  -0.001839605070
< 0  3  -3 >:  0.003511973315
< 0  4  -4 >:  0.002341315544
< 1  -4  3 >:  -0.003701944920
< 1  -3  2 >:  -0.001399203661
< 1  -2  1 >:  0.003173095645
< 1  -1  0 >:  -0.001505131421
< 1  0  -1 >:  -0.001505131421
< 1  1  -2 >:  0.003173095645
< 1  2  -3 >:  -0.001399203661
< 1  3  -4 >:  -0.003701944920
< 2  -4  2 >:  0.004197610982
< 2  -3  1 >:  -0.001399203661
< 2  -2  0 >:  -0.001839605070
< 2  -1  -1 >:  0.003173095645
< 2  0  -2 >:  -0.001839605070
< 2  1  -3 >:  -0.001399203661
< 2  2  -4 >:  0.004197610982
< 3  -4  1 >:  -0.003701944920
< 3  -3  0 >:  0.003511973315
< 3  -2  -1 >:  -0.001399203661
< 3  -1  -2 >:  -0.001399203661
< 3  0  -3 >:  0.003511973315
< 3  1  -4 >:  -0.003701944920
< 4  -4  0 >:  0.002341315544
< 4  -3  -1 >:  -0.003701944920
< 4  -2  -2 >:  0.004197610982
< 4  -1  -3 >:  -0.003701944920
< 4  0  -4 >:  0.002341315544
ctilde_basis_func: rank=3 ndens=1 mu0=0 mu=(  0  0  0  )
n=( 1  1  4 )
l=( 1  1  0 )
num_ms=3
< -1  1  0 >:  0.012960584163
< 0  0  0 >:  -0.012960584163
< 1  -1  0 >:  0.012960584163
ctilde_basis_func: rank=3 ndens=1 mu0=0 mu=(  0  0  0  )
n=( 1  1  4 )
l=( 1  1  2 )
num_ms=9
< -1  -1  2 >:  0.010039225324
< -1  0  1 >:  -0.007098804304
< -1  1  0 >:  0.004098496576
< 0  -1  1 >:  -0.007098804304
< 0  0  0 >:  0.008196993152
< 0  1  -1 >:  -0.007098804304
< 1  -1  0 >:  0.004098496576
< 1  0  -1 >:  -0.007098804304
< 1  1  -2 >:  0.010039225324
ctilde_basis_func: rank=3 ndens=1 mu0=0 mu=(  0  0  0  )
n=( 1  1  4 )
l=( 2  2  0 )
num_ms=5
< -2  2  0 >:  0.010039225324
< -1  1  0 >:  -0.010039225324
< 0  0  0 >:  0.010039225324
< 1  -1  0 >:  -0.010039225324
< 2  -2  0 >:  0.010039225324
ctilde_basis_func: rank=3 ndens=1 mu0=0 mu=(  0  0  0  )
n=( 1  1  4 )
l=( 2  2  2 )
num_ms=19
< -2  0  2 >:  0.005366191656
< -2  1  1 >:  -0.006572215709
< -2  2  0 >:  0.005366191656
< -1  -1  2 >:  -0.006572215709
< -1  0  1 >:  0.002683095828
< -1  1  0 >:  0.002683095828
< -1  2  -1 >:  -0.006572215709
< 0  -2  2 >:  0.005366191656
< 0  -1  1 >:  0.002683095828
< 0  0  0 >:  -0.005366191656
< 0  1  -1 >:  0.002683095828
< 0  2  -2 >:  0.005366191656
< 1  -2  1 >:  -0.006572215709
< 1  -1  0 >:  0.002683095828
< 1  0  -1 >:  0.002683095828
< 1  1  -2 >:  -0.006572215709
< 2  -2  0 >:  0.005366191656
< 2  -1  -1 >:  -0.006572215709
< 2  0  -2 >:  0.005366191656
ctilde_basis_func: rank=3 ndens=1 mu0=0 mu=(  0  0  0  )
n=( 1  1  4 )
l=( 2  2  4 )
num_ms=25
< -2  -2  4 >:  0.007482796755
< -2  -1  3 >:  -0.005291136328
< -2  0  2 >:  0.003463861819
< -2  1  1 >:  -0.001999861554
< -2  2  0 >:  0.000894365276
< -1  -2  3 >:  -0.005291136328
< -1  -1  2 >:  0.005656462664
< -1  0  1 >:  -0.004898640363
< -1  1  0 >:  0.003577461104
< -1  2  -1 >:  -0.001999861554
< 0  -2  2 >:  0.003463861819
< 0  -1  1 >:  -0.004898640363
< 0  0  0 >:  0.005366191656
< 0  1  -1 >:  -0.004898640363
< 0  2  -2 >:  0.003463861819
< 1  -2  1 >:  -0.001999861554
< 1  -1  0 >:  0.003577461104
< 1  0  -1 >:  -0.004898640363
< 1  1  -2 >:  0.005656462664
< 1  2  -3 >:  -0.005291136328
< 2  -2  0 >:  0.000894365276
< 2  -1  -1 >:  -0.001999861554
< 2  0  -2 >:  0.003463861819
< 2  1  -3 >:  -0.005291136328
< 2  2  -4 >:  0.007482796755
ctilde_basis_func: rank=3 ndens=1 mu0=0 mu=(  0  0  0  )
n=( 1  1  4 )
l=( 2  3  3 )
num_ms=29
< -2  -1  3 >:  0.003463861819
< -2  0  2 >:  -0.004898640363
< -2  1  1 >:  0.005366191656
< -2  2  0 >:  -0.004898640363
< -2  3  -1 >:  0.003463861819
< -1  -2  3 >:  -0.005476846424
< -1  -1  2 >:  0.004242346998
< -1  0  1 >:  -0.001549086098
< -1  1  0 >:  -0.001549086098
< -1  2  -1 >:  0.004242346998
< -1  3  -2 >:  -0.005476846424
< 0  -3  3 >:  0.005476846424
< 0  -2  2 >:  -0.000000000000
< 0  -1  1 >:  -0.003286107855
< 0  0  0 >:  0.004381477140
< 0  1  -1 >:  -0.003286107855
< 0  2  -2 >:  -0.000000000000
< 0  3  -3 >:  0.005476846424
< 1  -3  2 >:  -0.005476846424
< 1  -2  1 >:  0.004242346998
< 1  -1  0 >:  -0.001549086098
< 1  0  -1 >:  -0.001549086098
< 1  1  -2 >:  0.004242346998
< 1  2  -3 >:  -0.005476846424
< 2  -3  1 >:  0.003463861819
< 2  -2  0 >:  -0.004898640363
< 2  -1  -1 >:  0.005366191656
< 2  0  -2 >:  -0.004898640363
< 2  1  -3 >:  0.003463861819
ctilde_basis_func: rank=3 ndens=1 mu0=0 mu=(  0  0  0  )
n=( 1  1  4 )
l=( 3  2  1 )
num_ms=15
< -3  2  1 >:  0.008484693997
< -2  1  1 >:  -0.006927723638
< -2  2  0 >:  -0.004898640363
< -1  0  1 >:  0.005366191656
< -1  1  0 >:  0.006196344394
< -1  2  -1 >:  0.002190738570
< 0  -1  1 >:  -0.003794470509
< 0  0  0 >:  -0.006572215709
< 0  1  -1 >:  -0.003794470509
< 1  -2  1 >:  0.002190738570
< 1  -1  0 >:  0.006196344394
< 1  0  -1 >:  0.005366191656
< 2  -2  0 >:  -0.004898640363
< 2  -1  -1 >:  -0.006927723638
< 3  -2  -1 >:  0.008484693997
ctilde_basis_func: rank=3 ndens=1 mu0=0 mu=(  0  0  0  )
n=( 1  1  4 )
l=( 3  3  0 )
num_ms=7
< -3  3  0 >:  0.008484693997
< -2  2  0 >:  -0.008484693997
< -1  1  0 >:  0.008484693997
< 0  0  0 >:  -0.008484693997
< 1  -1  0 >:  0.008484693997
< 2  -2  0 >:  -0.008484693997
< 3  -3  0 >:  0.008484693997
ctilde_basis_func: rank=3 ndens=1 mu0=0 mu=(  0  0  0  )
n=( 1  1  4 )
l=( 3  3  2 )
num_ms=29
< -3  1  2 >:  0.003463861819
< -3  2  1 >:  -0.005476846424
< -3  3  0 >:  0.005476846424
< -2  0  2 >:  -0.004898640363
< -2  1  1 >:  0.004242346998
< -2  2  0 >:  0.000000000000
< -2  3  -1 >:  -0.005476846424
< -1  -1  2 >:  0.005366191656
< -1  0  1 >:  -0.001549086098
< -1  1  0 >:  -0.003286107855
< -1  2  -1 >:  0.004242346998
< -1  3  -2 >:  0.003463861819
< 0  -2  2 >:  -0.004898640363
< 0  -1  1 >:  -0.001549086098
< 0  0  0 >:  0.004381477140
< 0  1  -1 >:  -0.001549086098
< 0  2  -2 >:  -0.004898640363
< 1  -3  2 >:  0.003463861819
< 1  -2  1 >:  0.004242346998
< 1  -1  0 >:  -0.003286107855
< 1  0  -1 >:  -0.001549086098
< 1  1  -2 >:  0.005366191656
< 2  -3  1 >:  -0.005476846424
< 2  -2  0 >:  0.000000000000
< 2  -1  -1 >:  0.004242346998
< 2  0  -2 >:  -0.004898640363
< 3  -3  0 >:  0.005476846424
< 3  -2  -1 >:  -0.005476846424
< 3  -1  -2 >:  0.003463861819
ctilde_basis_func: rank=3 ndens=1 mu0=0 mu=(  0  0  0  )
n=( 1  1  4 )
l=( 3  3  4 )
num_ms=43
< -3  -1  4 >:  0.003907763157
< -3  0  3 >:  -0.004786012886
< -3  1  2 >:  0.004430986927
< -3  2  1 >:  -0.003302662659
< -3  3  0 >:  0.001808942838
< -2  -2  4 >:  -0.005044900543
< -2  -1  3 >:  0.002256148111
< -2  0  2 >:  0.001044393635
< -2  1  1 >:  -0.003410975327
< -2  2  0 >:  0.004220866622
< -2  3  -1 >:  -0.003302662659
< -1  -3  4 >:  0.003907763157
< -1  -2  3 >:  0.002256148111
< -1  -1  2 >:  -0.003813586350
< -1  0  1 >:  0.002335335162
< -1  1  0 >:  0.000602980946
< -1  2  -1 >:  -0.003410975327
< -1  3  -2 >:  0.004430986927
< 0  -3  3 >:  -0.004786012886
< 0  -2  2 >:  0.001044393635
< 0  -1  1 >:  0.002335335162
< 0  0  0 >:  -0.003617885676
< 0  1  -1 >:  0.002335335162
< 0  2  -2 >:  0.001044393635
< 0  3  -3 >:  -0.004786012886
< 1  -3  2 >:  0.004430986927
< 1  -2  1 >:  -0.003410975327
< 1  -1  0 >:  0.000602980946
< 1  0  -1 >:  0.002335335162
< 1  1  -2 >:  -0.003813586350
< 1  2  -3 >:  0.002256148111
< 1  3  -4 >:  0.003907763157
< 2  -3  1 >:  -0.003302662659
< 2  -2  0 >:  0.004220866622
< 2  -1  -1 >:  -0.003410975327
< 2  0  -2 >:  0.001044393635
< 2  1  -3 >:  0.002256148111
< 2  2  -4 >:  -0.005044900543
< 3  -3  0 >:  0.001808942838
< 3  -2  -1 >:  -0.003302662659
< 3  -1  -2 >:  0.004430986927
< 3  0  -3 >:  -0.004786012886
< 3  1  -4 >:  0.003907763157
ctilde_basis_func: rank=3 ndens=1 mu0=0 mu=(  0  0  0  )
n=( 1  1  4 )
l=( 4  3  1 )
num_ms=21
< -4  3  1 >:  0.007482796755
< -3  2  1 >:  -0.006480292081
< -3  3  0 >:  -0.003741398378
< -2  1  1 >:  0.005476846424
< -2  2  0 >:  0.004898640363
< -2  3  -1 >:  0.001414115666
< -1  0  1 >:  -0.004471826380
< -1  1  0 >:  -0.005476846424
< -1  2  -1 >:  -0.002449320181
< 0  -1  1 >:  0.003463861819
< 0  0  0 >:  0.005656462664
< 0  1  -1 >:  0.003463861819
< 1  -2  1 >:  -0.002449320181
< 1  -1  0 >:  -0.005476846424
< 1  0  -1 >:  -0.004471826380
< 2  -3  1 >:  0.001414115666
< 2  -2  0 >:  0.004898640363
< 2  -1  -1 >:  0.005476846424
< 3  -3  0 >:  -0.003741398378
< 3  -2  -1 >:  -0.006480292081
< 4  -3  -1 >:  0.007482796755
ctilde_basis_func: rank=3 ndens=1 mu0=0 mu=(  0  0  0  )
n=( 1  1  4 )
l=( 4  4  0 )
num_ms=9
< -4  4  0 >:  0.007482796755
< -3  3  0 >:  -0.007482796755
< -2  2  0 >:  0.007482796755
< -1  1  0 >:  -0.007482796755
< 0  0  0 >:  0.007482796755
< 1  -1  0 >:  -0.007482796755
< 2  -2  0 >:  0.007482796755
< 3  -3  0 >:  -0.007482796755
< 4  -4  0 >:  0.007482796755
ctilde_basis_func: rank=3 ndens=1 mu0=0 mu=(  0  0  0  )
n=( 1  1  4 )
l=( 4  4  2 )
num_ms=39
< -4  2  2 >:  0.002471486427
< -4  3  1 >:  -0.004623727723
< -4  4  0 >:  0.005339020891
< -3  1  2 >:  -0.003707229640
< -3  2  1 >:  0.004369012030
< -3  3  0 >:  -0.001334755223
< -3  4  -1 >:  -0.004623727723
< -2  0  2 >:  0.004430986927
< -2  1  1 >:  -0.002972396393
< -2  2  0 >:  -0.001525434540
< -2  3  -1 >:  0.004369012030
< -2  4  -2 >:  0.002471486427
< -1  -1  2 >:  -0.004670670324
< -1  0  1 >:  0.001044393635
< -1  1  0 >:  0.003241548398
< -1  2  -1 >:  -0.002972396393
< -1  3  -2 >:  -0.003707229640
< 0  -2  2 >:  0.004430986927
< 0  -1  1 >:  0.001044393635
< 0  0  0 >:  -0.003813586350
< 0  1  -1 >:  0.001044393635
< 0  2  -2 >:  0.004430986927
< 1  -3  2 >:  -0.003707229640
< 1  -2  1 >:  -0.002972396393
< 1  -1  0 >:  0.003241548398
< 1  0  -1 >:  0.001044393635
< 1  1  -2 >:  -0.004670670324
< 2  -4  2 >:  0.002471486427
< 2  -3  1 >:  0.004369012030
< 2  -2  0 >:  -0.001525434540
< 2  -1  -1 >:  -0.002972396393
< 2  0  -2 >:  0.004430986927
< 3  -4  1 >:  -0.004623727723
< 3  -3  0 >:  -0.001334755223
< 3  -2  -1 >:  0.004369012030
< 3  -1  -2 >:  -0.003707229640
< 4  -4  0 >:  0.005339020891
< 4  -3  -1 >:  -0.004623727723
< 4  -2  -2 >:  0.002471486427
ctilde_basis_func: rank=3 ndens=1 mu0=0 mu=(  0  0  0  )
n=( 1  1  4 )
l=( 4  4  4 )
num_ms=61
< -4  0  4 >:  0.002341315544
< -4  1  3 >:  -0.003701944920
< -4  2  2 >:  0.004197610982
< -4  3  1 >:  -0.003701944920
< -4  4  0 >:  0.002341315544
< -3  -1  4 >:  -0.003701944920
< -3  0  3 >:  0.003511973315
< -3  1  2 >:  -0.001399203661
< -3  2  1 >:  -0.001399203661
< -3  3  0 >:  0.003511973315
< -3  4  -1 >:  -0.003701944920
< -2  -2  4 >:  0.004197610982
< -2  -1  3 >:  -0.001399203661
< -2  0  2 >:  -0.001839605070
< -2  1  1 >:  0.003173095645
< -2  2  0 >:  -0.001839605070
< -2  3  -1 >:  -0.001399203661
< -2  4  -2 >:  0.004197610982
< -1  -3  4 >:  -0.003701944920
< -1  -2  3 >:  -0.001399203661
< -1  -1  2 >:  0.003173095645
< -1  0  1 >:  -0.001505131421
< -1  1  0 >:  -0.001505131421
< -1  2  -1 >:  0.003173095645
< -1  3  -2 >:  -0.001399203661
< -1  4  -3 >:  -0.003701944920
< 0  -4  4 >:  0.002341315544
< 0  -3  3 >:  0.003511973315
< 0  -2  2 >:  -0.001839605070
< 0  -1  1 >:  -0.001505131421
< 0  0  0 >:  0.003010262842
< 0  1  -1 >:  -0.001505131421
< 0  2  -2 >:  -0.001839605070
< 0  3  -3 >:  0.003511973315
< 0  4  -4 >:  0.002341315544
< 1  -4  3 >:  -0.003701944920
< 1  -3  2 >:  -0.001399203661
< 1  -2  1 >:  0.003173095645
< 1  -1  0 >:  -0.001505131421
< 1  0  -1 >:  -0.001505131421
< 1  1  -2 >:  0.003173095645
< 1  2  -3 >:  -0.001399203661
< 1  3  -4 >:  -0.003701944920
< 2  -4  2 >:  0.004197610982
< 2  -3  1 >:  -0.001399203661
< 2  -2  0 >:  -0.001839605070
< 2  -1  -1 >:  0.003173095645
< 2  0  -2 >:  -0.001839605070
< 2  1  -3 >:  -0.001399203661
< 2  2  -4 >:  0.004197610982
< 3  -4  1 >:  -0.003701944920
< 3  -3  0 >:  0.003511973315
< 3  -2  -1 >:  -0.001399203661
< 3  -1  -2 >:  -0.001399203661
< 3  0  -3 >:  0.003511973315
< 3  1  -4 >:  -0.003701944920
< 4  -4  0 >:  0.002341315544
< 4  -3  -1 >:  -0.003701944920
< 4  -2  -2 >:  0.004197610982
< 4  -1  -3 >:  -0.003701944920
< 4  0  -4 >:  0.002341315544
ctilde_basis_func: rank=3 ndens=1 mu0=0 mu=(  0  0  0  )
n=( 1  2  1 )
l=( 2  1  1 )
num_ms=9
< -2  1  1 >:  0.010039225324
< -1  0  1 >:  -0.007098804304
< -1  1  0 >:  -0.007098804304
< 0  -1  1 >:  0.004098496576
< 0  0  0 >:  0.008196993152
< 0  1  -1 >:  0.004098496576
< 1  -1  0 >:  -0.007098804304
< 1  0  -1 >:  -0.007098804304
< 2  -1  -1 >:  0.010039225324
ctilde_basis_func: rank=3 ndens=1 mu0=0 mu=(  0  0  0  )
n=( 1  2  1 )
l=( 3  2  1 )
num_ms=15
< -3  2  1 >:  0.008484693997
< -2  1  1 >:  -0.006927723638
< -2  2  0 >:  -0.004898640363
< -1  0  1 >:  0.005366191656
< -1  1  0 >:  0.006196344394
< -1  2  -1 >:  0.002190738570
< 0  -1  1 >:  -0.003794470509
< 0  0  0 >:  -0.006572215709
< 0  1  -1 >:  -0.003794470509
< 1  -2  1 >:  0.002190738570
< 1  -1  0 >:  0.006196344394
< 1  0  -1 >:  0.005366191656
< 2  -2  0 >:  -0.004898640363
< 2  -1  -1 >:  -0.006927723638
< 3  -2  -1 >:  0.008484693997
ctilde_basis_func: rank=3 ndens=1 mu0=0 mu=(  0  0  0  )
n=( 1  2  1 )
l=( 4  2  2 )
num_ms=25
< -4  2  2 >:  0.007482796755
< -3  1  2 >:  -0.005291136328
< -3  2  1 >:  -0.005291136328
< -2  0  2 >:  0.003463861819
< -2  1  1 >:  0.005656462664
< -2  2  0 >:  0.003463861819
< -1  -1  2 >:  -0.001999861554
< -1  0  1 >:  -0.004898640363
< -1  1  0 >:  -0.004898640363
< -1  2  -1 >:  -0.001999861554
< 0  -2  2 >:  0.000894365276
< 0  -1  1 >:  0.003577461104
< 0  0  0 >:  0.005366191656
< 0  1  -1 >:  0.003577461104
< 0  2  -2 >:  0.000894365276
< 1  -2  1 >:  -0.001999861554
< 1  -1  0 >:  -0.004898640363
< 1  0  -1 >:  -0.004898640363
< 1  1  -2 >:  -0.001999861554
< 2  -2  0 >:  0.003463861819
< 2  -1  -1 >:  0.005656462664
< 2  0  -2 >:  0.003463861819
< 3  -2  -1 >:  -0.005291136328
< 3  -1  -2 >:  -0.005291136328
< 4  -2  -2 >:  0.007482796755
ctilde_basis_func: rank=3 ndens=1 mu0=0 mu=(  0  0  0  )
n=( 1  2  1 )
l=( 4  3  1 )
num_ms=21
< -4  3  1 >:  0.007482796755
< -3  2  1 >:  -0.006480292081
< -3  3  0 >:  -0.003741398378
< -2  1  1 >:  0.005476846424
< -2  2  0 >:  0.004898640363
< -2  3  -1 >:  0.001414115666
< -1  0  1 >:  -0.004471826380
< -1  1  0 >:  -0.005476846424
< -1  2  -1 >:  -0.002449320181
< 0  -1  1 >:  0.003463861819
< 0  0  0 >:  0.005656462664
< 0  1  -1 >:  0.003463861819
< 1  -2  1 >:  -0.002449320181
< 1  -1  0 >:  -0.005476846424
< 1  0  -1 >:  -0.004471826380
< 2  -3  1 >:  0.001414115666
< 2  -2  0 >:  0.004898640363
< 2  -1  -1 >:  0.005476846424
< 3  -3  0 >:  -0.003741398378
< 3  -2  -1 >:  -0.006480292081
< 4  -3  -1 >:  0.007482796755
ctilde_basis_func: rank=3 ndens=1 mu0=0 mu=(  0  0  0  )
n=( 1  2  1 )
l=( 4  3  3 )
num_ms=43
< -4  1  3 >:  0.003907763157
< -4  2  2 >:  -0.005044900543
< -4  3  1 >:  0.003907763157
< -3  0  3 >:  -0.004786012886
< -3  1  2 >:  0.002256148111
< -3  2  1 >:  0.002256148111
< -3  3  0 >:  -0.004786012886
< -2  -1  3 >:  0.004430986927
< -2  0  2 >:  0.001044393635
< -2  1  1 >:  -0.003813586350
< -2  2  0 >:  0.001044393635
< -2  3  -1 >:  0.004430986927
< -1  -2  3 >:  -0.003302662659
< -1  -1  2 >:  -0.003410975327
< -1  0  1 >:  0.002335335162
< -1  1  0 >:  0.002335335162
< -1  2  -1 >:  -0.003410975327
< -1  3  -2 >:  -0.003302662659
< 0  -3  3 >:  0.001808942838
< 0  -2  2 >:  0.004220866622
< 0  -1  1 >:  0.000602980946
< 0  0  0 >:  -0.003617885676
< 0  1  -1 >:  0.000602980946
< 0  2  -2 >:  0.004220866622
< 0  3  -3 >:  0.001808942838
< 1  -3  2 >:  -0.003302662659
< 1  -2  1 >:  -0.003410975327
< 1  -1  0 >:  0.002335335162
< 1  0  -1 >:  0.002335335162
< 1  1  -2 >:  -0.003410975327
< 1  2  -3 >:  -0.003302662659
< 2  -3  1 >:  0.004430986927
< 2  -2  0 >:  0.001044393635
< 2  -1  -1 >:  -0.003813586350
< 2  0  -2 >:  0.001044393635
< 2  1  -3 >:  0.004430986927
< 3  -3  0 >:  -0.004786012886
< 3  -2  -1 >:  0.002256148111
< 3  -1  -2 >:  0.002256148111
< 3  0  -3 >:  -0.004786012886
< 4  -3  -1 >:  0.003907763157
< 4  -2  -2 >:  -0.005044900543
< 4  -1  -3 >:  0.003907763157
ctilde_basis_func: rank=3 ndens=1 mu0=0 mu=(  0  0  0  )
n=( 1  2  2 )
l=( 2  1  1 )
num_ms=9
< -2  1  1 >:  0.010039225324
< -1  0  1 >:  -0.007098804304
< -1  1  0 >:  -0.007098804304
< 0  -1  1 >:  0.004098496576
< 0  0  0 >:  0.008196993152
< 0  1  -1 >:  0.004098496576
< 1  -1  0 >:  -0.007098804304
< 1  0  -1 >:  -0.007098804304
< 2  -1  -1 >:  0.010039225324
ctilde_basis_func: rank=3 ndens=1 mu0=0 mu=(  0  0  0  )
n=( 1  2  2 )
l=( 2  2  2 )
num_ms=19
< -2  0  2 >:  0.005366191656
< -2  1  1 >:  -0.006572215709
< -2  2  0 >:  0.005366191656
< -1  -1  2 >:  -0.006572215709
< -1  0  1 >:  0.002683095828
< -1  1  0 >:  0.002683095828
< -1  2  -1 >:  -0.006572215709
< 0  -2  2 >:  0.005366191656
< 0  -1  1 >:  0.002683095828
< 0  0  0 >:  -0.005366191656
< 0  1  -1 >:  0.002683095828
< 0  2  -2 >:  0.005366191656
< 1  -2  1 >:  -0.006572215709
< 1  -1  0 >:  0.002683095828
< 1  0  -1 >:  0.002683095828
< 1  1  -2 >:  -0.006572215709
< 2  -2  0 >:  0.005366191656
< 2  -1  -1 >:  -0.006572215709
< 2  0  -2 >:  0.005366191656
ctilde_basis_func: rank=3 ndens=1 mu0=0 mu=(  0  0  0  )
n=( 1  2  2 )
l=( 2  3  3 )
num_ms=29
< -2  -1  3 >:  0.003463861819
< -2  0  2 >:  -0.004898640363
< -2  1  1 >:  0.005366191656
< -2  2  0 >:  -0.004898640363
< -2  3  -1 >:  0.003463861819
< -1  -2  3 >:  -0.005476846424
< -1  -1  2 >:  0.004242346998
< -1  0  1 >:  -0.001549086098
< -1  1  0 >:  -0.001549086098
< -1  2  -1 >:  0.004242346998
< -1  3  -2 >:  -0.005476846424
< 0  -3  3 >:  0.005476846424
< 0  -2  2 >:  -0.000000000000
< 0  -1  1 >:  -0.003286107855
< 0  0  0 >:  0.004381477140
< 0  1  -1 >:  -0.003286107855
< 0  2  -2 >:  -0.000000000000
< 0  3  -3 >:  0.005476846424
< 1  -3  2 >:  -0.005476846424
< 1  -2  1 >:  0.004242346998
< 1  -1  0 >:  -0.001549086098
< 1  0  -1 >:  -0.001549086098
< 1  1  -2 >:  0.004242346998
< 1  2  -3 >:  -0.005476846424
< 2  -3  1 >:  0.003463861819
< 2  -2  0 >:  -0.004898640363
< 2  -1  -1 >:  0.005366191656
< 2  0  -2 >:  -0.004898640363
< 2  1  -3 >:  0.003463861819
ctilde_basis_func: rank=3 ndens=1 mu0=0 mu=(  0  0  0  )
n=( 1  2  2 )
l=( 2  4  4 )
num_ms=39
< -2  -2  4 >:  0.002471486427
< -2  -1  3 >:  -0.003707229640
< -2  0  2 >:  0.004430986927
< -2  1  1 >:  -0.004670670324
< -2  2  0 >:  0.004430986927
< -2  3  -1 >:  -0.003707229640
< -2  4  -2 >:  0.002471486427
< -1  -3  4 >:  -0.004623727723
< -1  -2  3 >:  0.004369012030
< -1  -1  2 >:  -0.002972396393
< -1  0  1 >:  0.001044393635
< -1  1  0 >:  0.001044393635
< -1  2  -1 >:  -0.002972396393
< -1  3  -2 >:  0.004369012030
< -1  4  -3 >:  -0.004623727723
< 0  -4  4 >:  0.005339020891
< 0  -3  3 >:  -0.001334755223
< 0  -2  2 >:  -0.001525434540
< 0  -1  1 >:  0.003241548398
< 0  0  0 >:  -0.003813586350
< 0  1  -1 >:  0.003241548398
< 0  2  -2 >:  -0.001525434540
< 0  3  -3 >:  -0.001334755223
< 0  4  -4 >:  0.005339020891
< 1  -4  3 >:  -0.004623727723
< 1  -3  2 >:  0.004369012030
< 1  -2  1 >:  -0.002972396393
< 1  -1  0 >:  0.001044393635
< 1  0  -1 >:  0.001044393635
< 1  1  -2 >:  -0.002972396393
< 1  2  -3 >:  0.004369012030
< 1  3  -4 >:  -0.004623727723
< 2  -4  2 >:  0.002471486427
< 2  -3  1 >:  -0.003707229640
< 2  -2  0 >:  0.004430986927
< 2  -1  -1 >:  -0.004670670324
< 2  0  -2 >:  0.004430986927
< 2  1  -3 >:  -0.003707229640
< 2  2  -4 >:  0.002471486427
ctilde_basis_func: rank=3 ndens=1 mu0=0 mu=(  0  0  0  )
n=( 1  2  2 )
l=( 3  2  1 )
num_ms=15
< -3  2  1 >:  0.008484693997
< -2  1  1 >:  -0.006927723638
< -2  2  0 >:  -0.004898640363
< -1  0  1 >:  0.005366191656
< -1  1  0 >:  0.006196344394
< -1  2  -1 >:  0.002190738570
< 0  -1  1 >:  -0.003794470509
< 0  0  0 >:  -0.006572215709
< 0  1  -1 >:  -0.003794470509
< 1  -2  1 >:  0.002190738570
< 1  -1  0 >:  0.006196344394
< 1  0  -1 >:  0.005366191656
< 2  -2  0 >:  -0.004898640363
< 2  -1  -1 >:  -0.006927723638
< 3  -2  -1 >:  0.008484693997
ctilde_basis_func: rank=3 ndens=1 mu0=0 mu=(  0  0  0  )
n=( 1  2  2 )
l=( 3  2  3 )
num_ms=29
< -3  0  3 >:  0.005476846424
< -3  1  2 >:  -0.005476846424
< -3  2  1 >:  0.003463861819
< -2  -1  3 >:  -0.005476846424
< -2  0  2 >:  -0.000000000000
< -2  1  1 >:  0.004242346998
< -2  2  0 >:  -0.004898640363
< -1  -2  3 >:  0.003463861819
< -1  -1  2 >:  0.004242346998
< -1  0  1 >:  -0.003286107855
< -1  1  0 >:  -0.001549086098
< -1  2  -1 >:  0.005366191656
< 0  -2  2 >:  -0.004898640363
< 0  -1  1 >:  -0.001549086098
< 0  0  0 >:  0.004381477140
< 0  1  -1 >:  -0.001549086098
< 0  2  -2 >:  -0.004898640363
< 1  -2  1 >:  0.005366191656
< 1  -1  0 >:  -0.001549086098
< 1  0  -1 >:  -0.003286107855
< 1  1  -2 >:  0.004242346998
< 1  2  -3 >:  0.003463861819
< 2  -2  0 >:  -0.004898640363
< 2  -1  -1 >:  0.004242346998
< 2  0  -2 >:  -0.000000000000
< 2  1  -3 >:  -0.005476846424
< 3  -2  -1 >:  0.003463861819
< 3  -1  -2 >:  -0.005476846424
< 3  0  -3 >:  0.005476846424
ctilde_basis_func: rank=3 ndens=1 mu0=0 mu=(  0  0  0  )
n=( 1  2  2 )
l=( 4  2  2 )
num_ms=25
< -4  2  2 >:  0.007482796755
< -3  1  2 >:  -0.005291136328
< -3  2  1 >:  -0.005291136328
< -2  0  2 >:  0.003463861819
< -2  1  1 >:  0.005656462664
< -2  2  0 >:  0.003463861819
< -1  -1  2 >:  -0.001999861554
< -1  0  1 >:  -0.004898640363
< -1  1  0 >:  -0.004898640363
< -1  2  -1 >:  -0.001999861554
< 0  -2  2 >:  0.000894365276
< 0  -1  1 >:  0.003577461104
< 0  0  0 >:  0.005366191656
< 0  1  -1 >:  0.003577461104
< 0  2  -2 >:  0.000894365276
< 1  -2  1 >:  -0.001999861554
< 1  -1  0 >:  -0.004898640363
< 1  0  -1 >:  -0.004898640363
< 1  1  -2 >:  -0.001999861554
< 2  -2  0 >:  0.003463861819
< 2  -1  -1 >:  0.005656462664
< 2  0  -2 >:  0.003463861819
< 3  -2  -1 >:  -0.005291136328
< 3  -1  -2 >:  -0.005291136328
< 4  -2  -2 >:  0.007482796755
ctilde_basis_func: rank=3 ndens=1 mu0=0 mu=(  0  0  0  )
n=( 1  2  2 )
l=( 4  3  1 )
num_ms=21
< -4  3  1 >:  0.007482796755
< -3  2  1 >:  -0.006480292081
< -3  3  0 >:  -0.003741398378
< -2  1  1 >:  0.005476846424
< -2  2  0 >:  0.004898640363
< -2  3  -1 >:  0.001414115666
< -1  0  1 >:  -0.004471826380
< -1  1  0 >:  -0.005476846424
< -1  2  -1 >:  -0.002449320181
< 0  -1  1 >:  0.003463861819
< 0  0  0 >:  0.005656462664
< 0  1  -1 >:  0.003463861819
< 1  -2  1 >:  -0.002449320181
< 1  -1  0 >:  -0.005476846424
< 1  0  -1 >:  -0.004471826380
< 2  -3  1 >:  0.001414115666
< 2  -2  0 >:  0.004898640363
< 2  -1  -1 >:  0.005476846424
< 3  -3  0 >:  -0.003741398378
< 3  -2  -1 >:  -0.006480292081
< 4  -3  -1 >:  0.007482796755
ctilde_basis_func: rank=3 ndens=1 mu0=0 mu=(  0  0  0  )
n=( 1  2  2 )
l=( 4  3  3 )
num_ms=43
< -4  1  3 >:  0.003907763157
< -4  2  2 >:  -0.005044900543
< -4  3  1 >:  0.003907763157
< -3  0  3 >:  -0.004786012886
< -3  1  2 >:  0.002256148111
< -3  2  1 >:  0.002256148111
< -3  3  0 >:  -0.004786012886
< -2  -1  3 >:  0.004430986927
< -2  0  2 >:  0.001044393635
< -2  1  1 >:  -0.003813586350
< -2  2  0 >:  0.001044393635
< -2  3  -1 >:  0.004430986927
< -1  -2  3 >:  -0.003302662659
< -1  -1  2 >:  -0.003410975327
< -1  0  1 >:  0.002335335162
< -1  1  0 >:  0.002335335162
< -1  2  -1 >:  -0.003410975327
< -1  3  -2 >:  -0.003302662659
< 0  -3  3 >:  0.001808942838
< 0  -2  2 >:  0.004220866622
< 0  -1  1 >:  0.000602980946
< 0  0  0 >:  -0.003617885676
< 0  1  -1 >:  0.000602980946
< 0  2  -2 >:  0.004220866622
< 0  3  -3 >:  0.001808942838
< 1  -3  2 >:  -0.003302662659
< 1  -2  1 >:  -0.003410975327
< 1  -1  0 >:  0.002335335162
< 1  0  -1 >:  0.002335335162
< 1  1  -2 >:  -0.003410975327
< 1  2  -3 >:  -0.003302662659
< 2  -3  1 >:  0.004430986927
< 2  -2  0 >:  0.001044393635
< 2  -1  -1 >:  -0.003813586350
< 2  0  -2 >:  0.001044393635
< 2  1  -3 >:  0.004430986927
< 3  -3  0 >:  -0.004786012886
< 3  -2  -1 >:  0.002256148111
< 3  -1  -2 >:  0.002256148111
< 3  0  -3 >:  -0.004786012886
< 4  -3  -1 >:  0.003907763157
< 4  -2  -2 >:  -0.005044900543
< 4  -1  -3 >:  0.003907763157
ctilde_basis_func: rank=3 ndens=1 mu0=0 mu=(  0  0  0  )
n=( 1  2  2 )
l=( 4  4  4 )
num_ms=61
< -4  0  4 >:  0.002341315544
< -4  1  3 >:  -0.003701944920
< -4  2  2 >:  0.004197610982
< -4  3  1 >:  -0.003701944920
< -4  4  0 >:  0.002341315544
< -3  -1  4 >:  -0.003701944920
< -3  0  3 >:  0.003511973315
< -3  1  2 >:  -0.001399203661
< -3  2  1 >:  -0.001399203661
< -3  3  0 >:  0.003511973315
< -3  4  -1 >:  -0.003701944920
< -2  -2  4 >:  0.004197610982
< -2  -1  3 >:  -0.001399203661
< -2  0  2 >:  -0.001839605070
< -2  1  1 >:  0.003173095645
< -2  2  0 >:  -0.001839605070
< -2  3  -1 >:  -0.001399203661
< -2  4  -2 >:  0.004197610982
< -1  -3  4 >:  -0.003701944920
< -1  -2  3 >:  -0.001399203661
< -1  -1  2 >:  0.003173095645
< -1  0  1 >:  -0.001505131421
< -1  1  0 >:  -0.001505131421
< -1  2  -1 >:  0.003173095645
< -1  3  -2 >:  -0.001399203661
< -1  4  -3 >:  -0.003701944920
< 0  -4  4 >:  0.002341315544
< 0  -3  3 >:  0.003511973315
< 0  -2  2 >:  -0.001839605070
< 0  -1  1 >:  -0.001505131421
< 0  0  0 >:  0.003010262842
< 0  1  -1 >:  -0.001505131421
< 0  2  -2 >:  -0.001839605070
< 0  3  -3 >:  0.003511973315
< 0  4  -4 >:  0.002341315544
< 1  -4  3 >:  -0.003701944920
< 1  -3  2 >:  -0.001399203661
< 1  -2  1 >:  0.003173095645
< 1  -1  0 >:  -0.001505131421
< 1  0  -1 >:  -0.001505131421
< 1  1  -2 >:  0.003173095645
< 1  2  -3 >:  -0.001399203661
< 1  3  -4 >:  -0.003701944920
< 2  -4  2 >:  0.004197610982
< 2  -3  1 >:  -0.001399203661
< 2  -2  0 >:  -0.001839605070
< 2  -1  -1 >:  0.003173095645
< 2  0  -2 >:  -0.001839605070
< 2  1  -3 >:  -0.001399203661
< 2  2  -4 >:  0.004197610982
< 3  -4  1 >:  -0.003701944920
< 3  -3  0 >:  0.003511973315
< 3  -2  -1 >:  -0.001399203661
< 3  -1  -2 >:  -0.001399203661
< 3  0  -3 >:  0.003511973315
< 3  1  -4 >:  -0.003701944920
< 4  -4  0 >:  0.002341315544
< 4  -3  -1 >:  -0.003701944920
< 4  -2  -2 >:  0.004197610982
< 4  -1  -3 >:  -0.003701944920
< 4  0  -4 >:  0.002341315544
ctilde_basis_func: rank=3 ndens=1 mu0=0 mu=(  0  0  0  )
n=( 1  2  3 )
l=( 2  3  3 )
num_ms=29
< -2  -1  3 >:  0.003463861819
< -2  0  2 >:  -0.004898640363
< -2  1  1 >:  0.005366191656
< -2  2  0 >:  -0.004898640363
< -2  3  -1 >:  0.003463861819
< -1  -2  3 >:  -0.005476846424
< -1  -1  2 >:  0.004242346998
< -1  0  1 >:  -0.001549086098
< -1  1  0 >:  -0.001549086098
< -1  2  -1 >:  0.004242346998
< -1  3  -2 >:  -0.005476846424
< 0  -3  3 >:  0.005476846424
< 0  -2  2 >:  -0.000000000000
< 0  -1  1 >:  -0.003286107855
< 0  0  0 >:  0.004381477140
< 0  1  -1 >:  -0.003286107855
< 0  2  -2 >:  -0.000000000000
< 0  3  -3 >:  0.005476846424
< 1  -3  2 >:  -0.005476846424
< 1  -2  1 >:  0.004242346998
< 1  -1  0 >:  -0.001549086098
< 1  0  -1 >:  -0.001549086098
< 1  1  -2 >:  0.004242346998
< 1  2  -3 >:  -0.005476846424
< 2  -3  1 >:  0.003463861819
< 2  -2  0 >:  -0.004898640363
< 2  -1  -1 >:  0.005366191656
< 2  0  -2 >:  -0.004898640363
< 2  1  -3 >:  0.003463861819
ctilde_basis_func: rank=3 ndens=1 mu0=0 mu=(  0  0  0  )
n=( 1  2  3 )
l=( 3  2  1 )
num_ms=15
< -3  2  1 >:  0.008484693997
< -2  1  1 >:  -0.006927723638
< -2  2  0 >:  -0.004898640363
< -1  0  1 >:  0.005366191656
< -1  1  0 >:  0.006196344394
< -1  2  -1 >:  0.002190738570
< 0  -1  1 >:  -0.003794470509
< 0  0  0 >:  -0.006572215709
< 0  1  -1 >:  -0.003794470509
< 1  -2  1 >:  0.002190738570
< 1  -1  0 >:  0.006196344394
< 1  0  -1 >:  0.005366191656
< 2  -2  0 >:  -0.004898640363
< 2  -1  -1 >:  -0.006927723638
< 3  -2  -1 >:  0.008484693997
ctilde_basis_func: rank=3 ndens=1 mu0=0 mu=(  0  0  0  )
n=( 1  2  3 )
l=( 3  2  3 )
num_ms=29
< -3  0  3 >:  0.005476846424
< -3  1  2 >:  -0.005476846424
< -3  2  1 >:  0.003463861819
< -2  -1  3 >:  -0.005476846424
< -2  0  2 >:  -0.000000000000
< -2  1  1 >:  0.004242346998
< -2  2  0 >:  -0.004898640363
< -1  -2  3 >:  0.003463861819
< -1  -1  2 >:  0.004242346998
< -1  0  1 >:  -0.003286107855
< -1  1  0 >:  -0.001549086098
< -1  2  -1 >:  0.005366191656
< 0  -2  2 >:  -0.004898640363
< 0  -1  1 >:  -0.001549086098
< 0  0  0 >:  0.004381477140
< 0  1  -1 >:  -0.001549086098
< 0  2  -2 >:  -0.004898640363
< 1  -2  1 >:  0.005366191656
< 1  -1  0 >:  -0.001549086098
< 1  0  -1 >:  -0.003286107855
< 1  1  -2 >:  0.004242346998
< 1  2  -3 >:  0.003463861819
< 2  -2  0 >:  -0.004898640363
< 2  -1  -1 >:  0.004242346998
< 2  0  -2 >:  -0.000000000000
< 2  1  -3 >:  -0.005476846424
< 3  -2  -1 >:  0.003463861819
< 3  -1  -2 >:  -0.005476846424
< 3  0  -3 >:  0.005476846424
ctilde_basis_func: rank=3 ndens=1 mu0=0 mu=(  0  0  0  )
n=( 1  2  3 )
l=( 3  3  2 )
num_ms=29
< -3  1  2 >:  0.003463861819
< -3  2  1 >:  -0.005476846424
< -3  3  0 >:  0.005476846424
< -2  0  2 >:  -0.004898640363
< -2  1  1 >:  0.004242346998
< -2  2  0 >:  0.000000000000
< -2  3  -1 >:  -0.005476846424
< -1  -1  2 >:  0.005366191656
< -1  0  1 >:  -0.001549086098
< -1  1  0 >:  -0.003286107855
< -1  2  -1 >:  0.004242346998
< -1  3  -2 >:  0.003463861819
< 0  -2  2 >:  -0.004898640363
< 0  -1  1 >:  -0.001549086098
< 0  0  0 >:  0.004381477140
< 0  1  -1 >:  -0.001549086098
< 0  2  -2 >:  -0.004898640363
< 1  -3  2 >:  0.003463861819
< 1  -2  1 >:  0.004242346998
< 1  -1  0 >:  -0.003286107855
< 1  0  -1 >:  -0.001549086098
< 1  1  -2 >:  0.005366191656
< 2  -3  1 >:  -0.005476846424
< 2  -2  0 >:  0.000000000000
< 2  -1  -1 >:  0.004242346998
< 2  0  -2 >:  -0.004898640363
< 3  -3  0 >:  0.005476846424
< 3  -2  -1 >:  -0.005476846424
< 3  -1  -2 >:  0.003463861819
ctilde_basis_func: rank=3 ndens=1 mu0=0 mu=(  0  0  0  )
n=( 1  2  3 )
l=( 4  3  1 )
num_ms=21
< -4  3  1 >:  0.007482796755
< -3  2  1 >:  -0.006480292081
< -3  3  0 >:  -0.003741398378
< -2  1  1 >:  0.005476846424
< -2  2  0 >:  0.004898640363
< -2  3  -1 >:  0.001414115666
< -1  0  1 >:  -0.004471826380
< -1  1  0 >:  -0.005476846424
< -1  2  -1 >:  -0.002449320181
< 0  -1  1 >:  0.003463861819
< 0  0  0 >:  0.005656462664
< 0  1  -1 >:  0.003463861819
< 1  -2  1 >:  -0.002449320181
< 1  -1  0 >:  -0.005476846424
< 1  0  -1 >:  -0.004471826380
< 2  -3  1 >:  0.001414115666
< 2  -2  0 >:  0.004898640363
< 2  -1  -1 >:  0.005476846424
< 3  -3  0 >:  -0.003741398378
< 3  -2  -1 >:  -0.006480292081
< 4  -3  -1 >:  0.007482796755
ctilde_basis_func: rank=3 ndens=1 mu0=0 mu=(  0  0  0  )
n=( 1  2  4 )
l=( 2  3  3 )
num_ms=29
< -2  -1  3 >:  0.003463861819
< -2  0  2 >:  -0.004898640363
< -2  1  1 >:  0.005366191656
< -2  2  0 >:  -0.004898640363
< -2  3  -1 >:  0.003463861819
< -1  -2  3 >:  -0.005476846424
< -1  -1  2 >:  0.004242346998
< -1  0  1 >:  -0.001549086098
< -1  1  0 >:  -0.001549086098
< -1  2  -1 >:  0.004242346998
< -1  3  -2 >:  -0.005476846424
< 0  -3  3 >:  0.005476846424
< 0  -2  2 >:  -0.000000000000
< 0  -1  1 >:  -0.003286107855
< 0  0  0 >:  0.004381477140
< 0  1  -1 >:  -0.003286107855
< 0  2  -2 >:  -0.000000000000
< 0  3  -3 >:  0.005476846424
< 1  -3  2 >:  -0.005476846424
< 1  -2  1 >:  0.004242346998
< 1  -1  0 >:  -0.001549086098
< 1  0  -1 >:  -0.001549086098
< 1  1  -2 >:  0.004242346998
< 1  2  -3 >:  -0.005476846424
< 2  -3  1 >:  0.003463861819
< 2  -2  0 >:  -0.004898640363
< 2  -1  -1 >:  0.005366191656
< 2  0  -2 >:  -0.004898640363
< 2  1  -3 >:  0.003463861819
ctilde_basis_func: rank=3 ndens=1 mu0=0 mu=(  0  0  0  )
n=( 1  2  4 )
l=( 3  2  1 )
num_ms=15
< -3  2  1 >:  0.008484693997
< -2  1  1 >:  -0.006927723638
< -2  2  0 >:  -0.004898640363
< -1  0  1 >:  0.005366191656
< -1  1  0 >:  0.006196344394
< -1  2  -1 >:  0.002190738570
< 0  -1  1 >:  -0.003794470509
< 0  0  0 >:  -0.006572215709
< 0  1  -1 >:  -0.003794470509
< 1  -2  1 >:  0.002190738570
< 1  -1  0 >:  0.006196344394
< 1  0  -1 >:  0.005366191656
< 2  -2  0 >:  -0.004898640363
< 2  -1  -1 >:  -0.006927723638
< 3  -2  -1 >:  0.008484693997
ctilde_basis_func: rank=3 ndens=1 mu0=0 mu=(  0  0  0  )
n=( 1  2  4 )
l=( 3  2  3 )
num_ms=29
< -3  0  3 >:  0.005476846424
< -3  1  2 >:  -0.005476846424
< -3  2  1 >:  0.003463861819
< -2  -1  3 >:  -0.005476846424
< -2  0  2 >:  -0.000000000000
< -2  1  1 >:  0.004242346998
< -2  2  0 >:  -0.004898640363
< -1  -2  3 >:  0.003463861819
< -1  -1  2 >:  0.004242346998
< -1  0  1 >:  -0.003286107855
< -1  1  0 >:  -0.001549086098
< -1  2  -1 >:  0.005366191656
< 0  -2  2 >:  -0.004898640363
< 0  -1  1 >:  -0.001549086098
< 0  0  0 >:  0.004381477140
< 0  1  -1 >:  -0.001549086098
< 0  2  -2 >:  -0.004898640363
< 1  -2  1 >:  0.005366191656
< 1  -1  0 >:  -0.001549086098
< 1  0  -1 >:  -0.003286107855
< 1  1  -2 >:  0.004242346998
< 1  2  -3 >:  0.003463861819
< 2  -2  0 >:  -0.004898640363
< 2  -1  -1 >:  0.004242346998
< 2  0  -2 >:  -0.000000000000
< 2  1  -3 >:  -0.005476846424
< 3  -2  -1 >:  0.003463861819
< 3  -1  -2 >:  -0.005476846424
< 3  0  -3 >:  0.005476846424
ctilde_basis_func: rank=3 ndens=1 mu0=0 mu=(  0  0  0  )
n=( 1  2  4 )
l=( 3  3  2 )
num_ms=29
< -3  1  2 >:  0.003463861819
< -3  2  1 >:  -0.005476846424
< -3  3  0 >:  0.005476846424
< -2  0  2 >:  -0.004898640363
< -2  1  1 >:  0.004242346998
< -2  2  0 >:  0.000000000000
< -2  3  -1 >:  -0.005476846424
< -1  -1  2 >:  0.005366191656
< -1  0  1 >:  -0.001549086098
< -1  1  0 >:  -0.003286107855
< -1  2  -1 >:  0.004242346998
< -1  3  -2 >:  0.003463861819
< 0  -2  2 >:  -0.004898640363
< 0  -1  1 >:  -0.001549086098
< 0  0  0 >:  0.004381477140
< 0  1  -1 >:  -0.001549086098
< 0  2  -2 >:  -0.004898640363
< 1  -3  2 >:  0.003463861819
< 1  -2  1 >:  0.004242346998
< 1  -1  0 >:  -0.003286107855
< 1  0  -1 >:  -0.001549086098
< 1  1  -2 >:  0.005366191656
< 2  -3  1 >:  -0.005476846424
< 2  -2  0 >:  0.000000000000
< 2  -1  -1 >:  0.004242346998
< 2  0  -2 >:  -0.004898640363
< 3  -3  0 >:  0.005476846424
< 3  -2  -1 >:  -0.005476846424
< 3  -1  -2 >:  0.003463861819
ctilde_basis_func: rank=3 ndens=1 mu0=0 mu=(  0  0  0  )
n=( 1  2  4 )
l=( 4  3  1 )
num_ms=21
< -4  3  1 >:  0.007482796755
< -3  2  1 >:  -0.006480292081
< -3  3  0 >:  -0.003741398378
< -2  1  1 >:  0.005476846424
< -2  2  0 >:  0.004898640363
< -2  3  -1 >:  0.001414115666
< -1  0  1 >:  -0.004471826380
< -1  1  0 >:  -0.005476846424
< -1  2  -1 >:  -0.002449320181
< 0  -1  1 >:  0.003463861819
< 0  0  0 >:  0.005656462664
< 0  1  -1 >:  0.003463861819
< 1  -2  1 >:  -0.002449320181
< 1  -1  0 >:  -0.005476846424
< 1  0  -1 >:  -0.004471826380
< 2  -3  1 >:  0.001414115666
< 2  -2  0 >:  0.004898640363
< 2  -1  -1 >:  0.005476846424
< 3  -3  0 >:  -0.003741398378
< 3  -2  -1 >:  -0.006480292081
< 4  -3  -1 >:  0.007482796755
ctilde_basis_func: rank=3 ndens=1 mu0=0 mu=(  0  0  0  )
n=( 1  3  1 )
l=( 2  1  1 )
num_ms=9
< -2  1  1 >:  0.010039225324
< -1  0  1 >:  -0.007098804304
< -1  1  0 >:  -0.007098804304
< 0  -1  1 >:  0.004098496576
< 0  0  0 >:  0.008196993152
< 0  1  -1 >:  0.004098496576
< 1  -1  0 >:  -0.007098804304
< 1  0  -1 >:  -0.007098804304
< 2  -1  -1 >:  0.010039225324
ctilde_basis_func: rank=3 ndens=1 mu0=0 mu=(  0  0  0  )
n=( 1  3  1 )
l=( 3  2  1 )
num_ms=15
< -3  2  1 >:  0.008484693997
< -2  1  1 >:  -0.006927723638
< -2  2  0 >:  -0.004898640363
< -1  0  1 >:  0.005366191656
< -1  1  0 >:  0.006196344394
< -1  2  -1 >:  0.002190738570
< 0  -1  1 >:  -0.003794470509
< 0  0  0 >:  -0.006572215709
< 0  1  -1 >:  -0.003794470509
< 1  -2  1 >:  0.002190738570
< 1  -1  0 >:  0.006196344394
< 1  0  -1 >:  0.005366191656
< 2  -2  0 >:  -0.004898640363
< 2  -1  -1 >:  -0.006927723638
< 3  -2  -1 >:  0.008484693997
ctilde_basis_func: rank=3 ndens=1 mu0=0 mu=(  0  0  0  )
n=( 1  3  1 )
l=( 4  2  2 )
num_ms=25
< -4  2  2 >:  0.007482796755
< -3  1  2 >:  -0.005291136328
< -3  2  1 >:  -0.005291136328
< -2  0  2 >:  0.003463861819
< -2  1  1 >:  0.005656462664
< -2  2  0 >:  0.003463861819
< -1  -1  2 >:  -0.001999861554
< -1  0  1 >:  -0.004898640363
